196 100
. 0.054968797 0.011358163 -0.12773243 -0.116309956 0.11301607 -0.10170219 0.12914076 0.34060523 0.049865462 -0.07620193 0.005559253 -0.13378529 -0.06523493 0.09123806 0.06576036 -0.015735202 -0.05452937 0.012116131 -0.1521637 -0.3332256 0.030486355 -0.09800983 -0.03167757 -0.0460407 -0.07965548 0.03051907 -0.012673641 -0.21845427 -0.17771417 -0.09018917 -0.11011175 -0.048865456 0.29557607 -0.13178188 -0.056347735 0.15329686 -0.009804452 -0.13154662 -0.11677984 -0.14231001 -0.0031448102 -0.021510668 -0.16781694 -0.03024436 0.2110663 -0.051166367 -0.07717401 0.04230869 0.21140525 0.0870815 0.04323802 -0.12544279 -0.012392593 0.13528422 -0.012106637 0.09857654 0.019005861 -0.065599106 0.030893032 0.07884993 0.0063649174 0.06810248 0.011215798 0.023941277 -0.063721 0.16637191 -0.08630743 0.20057818 -0.13151482 0.12709148 -0.15072258 0.15296286 0.09734204 -0.06309668 0.19964822 0.0074095274 0.11005417 0.004352667 -0.031767406 -0.050751243 -0.011124318 0.055801354 -0.088108346 0.18547733 -0.09072849 -0.028167242 0.11977839 0.060782373 0.18426315 0.07830759 0.11555852 0.22639549 -0.030858584 0.109412104 0.22550188 0.03771807 0.047260165 -0.1192889 0.076224215 -0.0038541446
? 0.04472403 0.013001356 -0.12663537 -0.12747137 0.14412796 -0.11143533 0.12111795 0.34117657 0.056037355 -0.08255302 -0.00699046 -0.15335563 -0.064917386 0.09816868 0.085411556 -0.012736723 -0.042466458 0.01883924 -0.14448081 -0.32330883 0.023356803 -0.11416794 -0.037764 -0.06911278 -0.08364752 0.046669956 -0.020941447 -0.2242876 -0.17501572 -0.08288806 -0.08630908 -0.051460642 0.2709649 -0.1338878 -0.050402537 0.15825476 -0.012737807 -0.11524152 -0.10720715 -0.12694292 0.01751277 -0.03803161 -0.16567042 -0.020234851 0.21011929 -0.039726853 -0.068170704 0.028860273 0.21691382 0.08188262 0.063582554 -0.14142194 0.0010291985 0.14017999 -0.023038883 0.12216804 0.03162185 -0.040259268 0.033016853 0.08005544 0.00059981184 0.07292957 0.011666135 0.024813028 -0.056388754 0.17361932 -0.08579778 0.19039913 -0.11388997 0.13899574 -0.15643987 0.1304692 0.10741137 -0.043525074 0.20165072 -0.0012548849 0.0987543 0.0043894583 -0.029293193 -0.050362602 -0.032258544 0.06892451 -0.100068845 0.17022485 -0.08145509 -0.034892082 0.11829849 0.06513563 0.196255 0.055164497 0.11291652 0.22410277 -0.03327605 0.108794115 0.21267407 0.037715912 0.07171136 -0.124063514 0.064177535 -0.011032757
하 0.06783042 0.016598446 -0.14714439 -0.13451648 0.15413554 -0.092183374 0.12797883 0.3545522 0.051827103 -0.069505036 -0.013094393 -0.15536115 -0.044546455 0.08996867 0.09678604 -0.025447965 -0.05404777 0.028470512 -0.16377722 -0.347234 0.017365424 -0.12095263 -0.052195314 -0.070558846 -0.0796479 0.039961126 -0.010257723 -0.24062672 -0.20130047 -0.08845976 -0.1029508 -0.05298279 0.2853752 -0.13830036 -0.06996878 0.16885208 -0.022570472 -0.12679468 -0.1313573 -0.15115896 0.0034181895 -0.032555107 -0.17261039 -0.015196623 0.23046032 -0.047449365 -0.08193682 0.02754898 0.22147316 0.0791924 0.06944589 -0.14962824 -0.016320076 0.12753263 -0.034899503 0.10462329 0.014760675 -0.060857113 0.025166502 0.065056086 0.016505616 0.0667526 0.03814846 0.036663692 -0.06091276 0.18900068 -0.087457344 0.21129707 -0.14268114 0.13762233 -0.16068521 0.15970199 0.11326368 -0.0499919 0.21595356 0.018318096 0.1253073 0.0033267918 -0.03580911 -0.045616005 -0.019806268 0.044368416 -0.11453218 0.19056877 -0.09422403 -0.0473189 0.12437573 0.064852454 0.21871814 0.076620154 0.12214647 0.26557222 -0.028240843 0.11545345 0.24678503 0.039655946 0.06816307 -0.11990496 0.089091055 -0.029218592
는 0.05100551 0.022134772 -0.1396392 -0.1363246 0.14394233 -0.10001197 0.13131951 0.3548447 0.06560113 -0.08397594 -3.522575e-05 -0.14245583 -0.055371877 0.082833044 0.09431403 -0.018252017 -0.051404793 0.006424608 -0.15895696 -0.32288137 0.031224873 -0.11125897 -0.032953452 -0.03820117 -0.101958334 0.049933128 -0.012031881 -0.24348576 -0.18310156 -0.08774445 -0.10148913 -0.05501775 0.28738126 -0.13291638 -0.053415712 0.18454579 -0.006826507 -0.12564215 -0.14386411 -0.13366647 0.012043647 -0.024247052 -0.15840752 -0.021793641 0.2297343 -0.045121882 -0.07885283 0.03418929 0.21742469 0.081917614 0.07137071 -0.13983716 -0.01593514 0.12518889 -0.036516275 0.110674076 0.019787084 -0.04725892 0.039401017 0.059081938 0.012367824 0.07787521 0.03896407 0.03467037 -0.04917784 0.16151217 -0.09466896 0.21229482 -0.1343625 0.12500587 -0.15652111 0.14640969 0.10486414 -0.040595535 0.21441136 0.0029075309 0.09856222 0.016611857 -0.037019957 -0.040173694 -0.0278559 0.06276858 -0.09883128 0.1819422 -0.093573615 -0.04259788 0.13519394 0.08044581 0.19758338 0.062401913 0.117068544 0.2517613 -0.040690348 0.11857911 0.2378401 0.03347065 0.06291401 -0.13142398 0.077205844 -0.02357704
은 0.046109393 0.011326337 -0.14304662 -0.12918684 0.13233769 -0.096165024 0.12200898 0.33741432 0.05013873 -0.06500206 -0.013552655 -0.13198748 -0.07204809 0.099177785 0.06663372 -0.019793836 -0.053674366 0.014508405 -0.13217919 -0.33436826 0.029688818 -0.12281491 -0.034241796 -0.046205252 -0.09276921 0.038981605 -0.016464353 -0.22144637 -0.18248193 -0.08353803 -0.08372183 -0.04534086 0.28474918 -0.1419771 -0.04354045 0.14587721 -0.023316445 -0.1101545 -0.120845556 -0.13617773 0.0092710275 -0.03878758 -0.1734169 -0.006756109 0.22140135 -0.060722105 -0.06325598 0.029968498 0.21641992 0.07767529 0.05765074 -0.122570805 0.011558002 0.1318142 -0.02296739 0.102062546 0.0024300436 -0.065487206 0.02978344 0.06392731 0.012006073 0.059669577 0.018759003 0.032947354 -0.06699192 0.1674721 -0.07427267 0.20690963 -0.1266369 0.14193809 -0.16836223 0.14546724 0.095187105 -0.047952168 0.20640655 0.010321497 0.09808642 0.021590028 -0.019914584 -0.057590555 -0.02975182 0.052274734 -0.09639876 0.17579287 -0.090649016 -0.045054782 0.12678877 0.071979284 0.17845882 0.056797348 0.120363705 0.21827692 -0.024702102 0.10789037 0.21982054 0.026066072 0.06667205 -0.109230936 0.075172246 -0.003938788
을 0.04663378 0.020186545 -0.14904748 -0.15058507 0.12915587 -0.09624631 0.14077212 0.35949796 0.0501734 -0.08201086 -0.019547544 -0.14764492 -0.07017987 0.07370098 0.08086257 -0.023134707 -0.07383004 0.003629004 -0.16477643 -0.34687188 0.022482917 -0.10988575 -0.030066743 -0.033663638 -0.103875645 0.042488627 -0.01381984 -0.26625714 -0.19010925 -0.0825651 -0.098973535 -0.064335935 0.3004672 -0.13706365 -0.05827933 0.19219634 -0.009714025 -0.11411709 -0.1284524 -0.15307653 0.014750848 -0.03640534 -0.17269799 -0.02759229 0.22264189 -0.0529155 -0.0825046 0.044619504 0.2239346 0.07991149 0.06500963 -0.15163939 0.0012707916 0.14823568 -0.037734136 0.11619776 0.02993753 -0.06561212 0.022311984 0.05371761 0.027018331 0.072674766 0.043941636 0.027475461 -0.056381363 0.1712787 -0.08959687 0.21031867 -0.14829595 0.12543744 -0.16741917 0.16411348 0.11629037 -0.04616495 0.21537945 0.020552937 0.09076962 0.018879151 -0.029111298 -0.038535215 -0.009803338 0.045590147 -0.090714596 0.18231727 -0.09245383 -0.047434192 0.119345784 0.08363571 0.20239997 0.07783685 0.14164343 0.2714457 -0.04875608 0.116831034 0.24037147 0.041147552 0.05390964 -0.14078166 0.08330427 -0.017503394
세요 0.06513267 0.0054298397 -0.12696972 -0.118310325 0.12313729 -0.09124751 0.12171765 0.319239 0.05299091 -0.07162343 0.0026061644 -0.13248183 -0.055839024 0.09180216 0.06861302 -0.018331515 -0.03976861 0.019336684 -0.13547494 -0.316474 0.019906802 -0.10436782 -0.03385077 -0.050293453 -0.0776246 0.03814598 -0.014614731 -0.22292008 -0.16602719 -0.08012963 -0.08979847 -0.034387685 0.266438 -0.12066376 -0.06007791 0.15194857 -0.025036996 -0.13375726 -0.11651229 -0.14456461 0.017125778 -0.037569653 -0.13846105 -0.032719646 0.20654818 -0.03292044 -0.082454994 0.020244705 0.19610567 0.068270355 0.051304672 -0.13877714 -0.017023956 0.13103604 -0.030053813 0.0932873 0.012516416 -0.06100835 0.025506778 0.059256166 0.008456996 0.058859337 0.023073975 0.03679897 -0.05529293 0.16853593 -0.09278168 0.17930397 -0.13004549 0.1126828 -0.14901352 0.14351141 0.09693501 -0.04340103 0.20371564 -0.0033252626 0.10519881 0.005730026 -0.033199534 -0.0321489 -0.006139934 0.04166784 -0.100041665 0.1733651 -0.08479934 -0.039564624 0.12441907 0.058799498 0.17754322 0.06612036 0.106855996 0.22448339 -0.037946567 0.10715123 0.20894966 0.03021414 0.06348026 -0.11680294 0.06789764 -0.00849474
식사 0.062471278 0.00085842004 -0.097094424 -0.08911123 0.1017073 -0.08464909 0.10746545 0.27130458 0.04096583 -0.07169368 -0.005874015 -0.11956469 -0.03795663 0.07032811 0.062827654 -0.012388428 -0.03613217 0.016561683 -0.123928264 -0.27071866 0.019600142 -0.0842873 -0.036385216 -0.058954064 -0.08202426 0.04130588 -0.016494475 -0.18133011 -0.15474822 -0.064748995 -0.089160725 -0.035025854 0.22863877 -0.110437706 -0.049507257 0.12284564 -0.025186108 -0.104004644 -0.105363965 -0.11455076 0.019790318 -0.029517995 -0.13500975 -0.010206205 0.18454136 -0.046721324 -0.06956397 0.016390257 0.187378 0.064308725 0.0328149 -0.11644589 0.00853598 0.097768895 -0.02122682 0.09925076 0.0013897516 -0.04480353 0.024892692 0.06975238 0.017741207 0.052185494 0.011568724 0.037849445 -0.046701975 0.14804815 -0.08775085 0.17308863 -0.09835407 0.0973693 -0.119838305 0.11179855 0.09227801 -0.04339528 0.16408774 0.011723969 0.101544015 -0.006624582 -0.02409395 -0.05306057 -0.021499963 0.05080548 -0.09368941 0.15042594 -0.06932835 -0.034207415 0.10609574 0.069665916 0.16513641 0.04955933 0.09954785 0.18209201 -0.034841903 0.10459486 0.17625052 0.030239597 0.048815135 -0.101880156 0.06949945 -0.024083043
것 0.049238335 0.03380607 -0.15045322 -0.124650866 0.14557132 -0.089245126 0.15015395 0.3458554 0.04327285 -0.06450575 -0.007600294 -0.14914306 -0.05017157 0.08259768 0.09269921 -0.012442627 -0.0709435 0.0057535185 -0.17064783 -0.35217825 0.03478153 -0.104266346 -0.021862172 -0.05372488 -0.09639785 0.048205204 -0.026490342 -0.26614976 -0.18703867 -0.09975295 -0.0920071 -0.06231922 0.31070152 -0.11380813 -0.05418906 0.18347447 -0.01789846 -0.10280465 -0.12734045 -0.16029413 -0.0015324485 -0.02578457 -0.17093022 -0.024662565 0.21691917 -0.053112973 -0.07573067 0.037058856 0.21946831 0.080243744 0.0625694 -0.13981327 -0.0062120785 0.13231444 -0.015205641 0.112685084 0.019016711 -0.057225637 0.03878979 0.04962181 0.0059485566 0.062256914 0.04463623 0.032917175 -0.07296769 0.16718616 -0.09394904 0.2110122 -0.15348792 0.14208987 -0.1871729 0.15516016 0.11431128 -0.044848744 0.19753255 0.0019212195 0.092032276 0.0068656034 -0.0369271 -0.044502933 -0.022086555 0.0401711 -0.084886536 0.19523658 -0.08163072 -0.04037653 0.11888395 0.06354791 0.19996285 0.0782086 0.11942046 0.2587348 -0.033764638 0.11543273 0.24042657 0.040447995 0.06108031 -0.11583154 0.08578115 -0.015612488
좋 0.0446971 0.006984181 -0.1475958 -0.11692619 0.12387503 -0.101053536 0.120363876 0.33852267 0.047005318 -0.073823586 -0.0062629497 -0.13534774 -0.06436051 0.08862713 0.06956641 -0.0013983482 -0.052887972 -0.0082159955 -0.13967045 -0.3349144 0.028013729 -0.10105081 -0.042151254 -0.048872676 -0.08103992 0.033422504 -0.025464395 -0.22563174 -0.17746457 -0.08890148 -0.08336654 -0.048131164 0.29421645 -0.11250759 -0.06330717 0.17044623 -0.0142587265 -0.10846875 -0.119437546 -0.13756356 0.0077343853 -0.019220367 -0.16122751 -0.029327525 0.21035075 -0.04398786 -0.07678504 0.039663915 0.21239747 0.09256109 0.057905227 -0.118296646 -0.006836112 0.14396855 -0.01893822 0.098456405 0.010171457 -0.059656445 0.03729696 0.059914105 0.0057746815 0.074590035 0.034126006 0.031465273 -0.06569177 0.1559186 -0.08896596 0.18191148 -0.12820715 0.12427372 -0.15755637 0.1534693 0.09272595 -0.061450705 0.20043893 -0.006491454 0.1004846 0.0074162097 -0.016553205 -0.037885744 -0.010461119 0.04814987 -0.09379284 0.18683141 -0.08391556 -0.043457665 0.10406309 0.07059137 0.19737186 0.074779674 0.105745494 0.24492839 -0.030993769 0.12098825 0.22654028 0.02304811 0.041918263 -0.109973475 0.08653204 -0.0015929785
게 0.06659746 0.0065972204 -0.113590576 -0.13355319 0.118240155 -0.10265257 0.115801096 0.33218303 0.052018836 -0.086904876 0.003775266 -0.14287765 -0.04820276 0.07731806 0.07916772 -0.012339201 -0.04865607 0.013422907 -0.1359366 -0.31439805 0.017086515 -0.10881856 -0.03804762 -0.05944384 -0.09198601 0.044177882 -0.018359384 -0.22781569 -0.1654377 -0.08095019 -0.10593817 -0.044095192 0.27664676 -0.11560274 -0.045720786 0.15529491 -0.01672938 -0.12072257 -0.12241009 -0.13627842 0.007775817 -0.032244936 -0.15888786 -0.010028607 0.19477728 -0.061637267 -0.08026347 0.029336723 0.19760099 0.07795417 0.04794682 -0.13480657 -0.010185724 0.12687539 -0.01785312 0.103084885 0.011586443 -0.05738883 0.037305433 0.07240028 -0.004181024 0.061333064 0.025640264 0.02861752 -0.06783702 0.16862714 -0.09704334 0.1808345 -0.11546042 0.11495434 -0.14321914 0.15033361 0.09781046 -0.035797246 0.20474903 0.023044797 0.11004028 -0.008323078 -0.034517184 -0.039294347 -0.012489251 0.07218077 -0.089058146 0.18435934 -0.097486176 -0.031385876 0.10941452 0.07416794 0.19568819 0.07278924 0.12515156 0.23217162 -0.037034214 0.117650986 0.20723958 0.03971606 0.06609371 -0.12145263 0.08067372 -0.03140992
이 0.06621273 0.027998226 -0.15291607 -0.13695478 0.14189453 -0.11161127 0.13733579 0.37325856 0.056072395 -0.08323348 -0.0014957427 -0.13970408 -0.07222842 0.09020623 0.089570634 -0.023134686 -0.07042865 0.0057786847 -0.1643059 -0.3678034 0.02216431 -0.13504374 -0.045430973 -0.062064916 -0.1124216 0.032396983 -0.021783657 -0.25257537 -0.1827587 -0.0982968 -0.11398597 -0.066301465 0.31053522 -0.12979914 -0.055463016 0.17392105 -0.016583871 -0.12817365 -0.13622594 -0.15962267 -0.007916881 -0.029779837 -0.17637649 -0.01950988 0.23008433 -0.057371955 -0.06397104 0.035917312 0.23457561 0.09984878 0.05674982 -0.14301796 0.0065588397 0.15704058 -0.027174482 0.122847244 0.01753193 -0.05561533 0.039871134 0.072869025 0.012567238 0.07485821 0.01845391 0.026195537 -0.077663094 0.18226123 -0.09177895 0.22524731 -0.14724727 0.1496115 -0.18447076 0.1671221 0.110863894 -0.054711565 0.21539724 0.013178955 0.10641483 0.020331614 -0.032708604 -0.052882336 -0.013362918 0.06811704 -0.1102271 0.1928296 -0.08091316 -0.037207287 0.11160142 0.06404324 0.22008875 0.078878425 0.120933704 0.24489571 -0.047163334 0.13158451 0.24416229 0.026306974 0.054517597 -0.13254765 0.077177994 -0.009178091
시 0.061206497 0.0032315855 -0.124704555 -0.14723226 0.14648685 -0.09407176 0.12930033 0.36395627 0.073278785 -0.08861994 -0.018139472 -0.15696867 -0.07179757 0.08287107 0.078159995 -0.023468394 -0.061053846 0.016867919 -0.1463184 -0.3379985 0.024902163 -0.10516753 -0.043754645 -0.04826283 -0.08837993 0.057457857 -0.032445397 -0.23836091 -0.19679913 -0.076854914 -0.11870816 -0.04086959 0.2958031 -0.13324301 -0.06221683 0.16169347 -0.03044506 -0.13596565 -0.13175486 -0.1488931 0.0059024794 -0.023799835 -0.1695241 -0.028261416 0.21313296 -0.063503854 -0.07727196 0.02594531 0.21869142 0.08674285 0.07781231 -0.15239829 -0.010282709 0.122901104 -0.021511365 0.10631965 0.014604968 -0.054752674 0.041504435 0.07706485 -0.0028833724 0.064446054 0.043731403 0.034127478 -0.059623778 0.17215824 -0.08340073 0.19940859 -0.14301533 0.1314206 -0.1573858 0.16224441 0.11079085 -0.058456127 0.21937199 0.009870877 0.11747742 -0.010426794 -0.042294394 -0.03952871 -0.032410335 0.06558608 -0.102993175 0.20557977 -0.10463835 -0.04123178 0.13616103 0.072817296 0.19927324 0.07830577 0.13601612 0.25870663 -0.033455163 0.109708674 0.2325569 0.03615136 0.068532854 -0.11610881 0.08539466 -0.007450404
같 0.04009201 0.028523272 -0.15259144 -0.12793718 0.122641794 -0.09745644 0.11792815 0.31878072 0.04371997 -0.07057011 -0.0147245405 -0.12543032 -0.07319077 0.07382437 0.08738309 -0.0017926163 -0.046899397 0.01045298 -0.14763069 -0.33278868 0.04095045 -0.10326182 -0.022418352 -0.03846194 -0.08282069 0.055042367 -0.03599821 -0.24745452 -0.17384808 -0.07776261 -0.08619638 -0.04299885 0.2945772 -0.12248603 -0.044398136 0.16240837 -0.03068365 -0.09746544 -0.12115065 -0.14744766 4.1930252e-05 -0.033643443 -0.15622701 -0.019072525 0.2054947 -0.055487633 -0.07709321 0.026556583 0.21980564 0.07433798 0.05838774 -0.12836997 -0.01501379 0.13312665 -0.019913394 0.112297766 0.020809827 -0.055655595 0.027119549 0.06615728 0.016018037 0.07510367 0.034697484 0.040097978 -0.04808524 0.15623601 -0.07515981 0.19623928 -0.120642155 0.124271765 -0.16746911 0.13986771 0.089492805 -0.047082305 0.20643222 0.016016582 0.09474134 0.015637733 -0.021401009 -0.043318916 -0.015589753 0.041039288 -0.07269574 0.19079603 -0.07971628 -0.035132587 0.12009741 0.07435822 0.18554315 0.057705853 0.12781413 0.24977776 -0.030498886 0.1086291 0.20913517 0.024214929 0.066784784 -0.11696262 0.06350579 0.0069404054
어떠세요 0.0608535 0.019048821 -0.12814957 -0.14001414 0.14012863 -0.10540888 0.12289085 0.33134863 0.06948057 -0.08080004 0.0040898947 -0.15317763 -0.06558742 0.07824337 0.07104535 -0.0072269123 -0.042320218 0.0047135716 -0.13403219 -0.31895638 0.030588044 -0.095984265 -0.042608887 -0.056257706 -0.09541921 0.047381375 -0.013810049 -0.22793736 -0.16041578 -0.09085305 -0.10258218 -0.047606353 0.2700413 -0.13339725 -0.058966935 0.14461735 -0.0051903026 -0.11087876 -0.118700616 -0.12373292 0.017377172 -0.03162869 -0.14484839 -0.019325925 0.21398842 -0.035469584 -0.077740416 0.031481937 0.20805201 0.08152759 0.06182407 -0.12103849 0.005748761 0.12018853 -0.027792832 0.09927665 0.030073361 -0.041529946 0.034519445 0.07495676 -9.527981e-05 0.060787424 0.023161007 0.037359174 -0.049730886 0.16753504 -0.090541795 0.18943998 -0.1227822 0.12594807 -0.1552714 0.12759766 0.105498135 -0.051492658 0.19690388 -0.004795174 0.10931121 0.006078581 -0.03175441 -0.037566163 -0.033311024 0.060447216 -0.10020214 0.16118523 -0.078096814 -0.028311998 0.123722725 0.07832872 0.1867102 0.05165312 0.11956882 0.22599806 -0.02962552 0.119361445 0.21127011 0.02598386 0.060308594 -0.10613199 0.06404165 -0.0025430447
어요 0.045544315 0.01763251 -0.14728482 -0.13361286 0.12843905 -0.11335794 0.12163178 0.36493903 0.06122696 -0.07311214 -0.0051505645 -0.15304905 -0.072089724 0.0972662 0.07131245 -0.020831816 -0.06846626 0.019469365 -0.15301427 -0.3420755 0.00885089 -0.11065203 -0.057962514 -0.058393013 -0.10002797 0.029636582 -0.01272478 -0.23850186 -0.18771943 -0.11217729 -0.118748 -0.057108596 0.30862516 -0.120716915 -0.069815606 0.17669387 -0.0057463693 -0.14458075 -0.13313833 -0.13390326 0.024422854 -0.033290572 -0.17970067 -0.025627136 0.23733091 -0.043454617 -0.09068827 0.026006388 0.2315684 0.07041231 0.045246482 -0.14088377 0.008796511 0.15956905 -0.026522841 0.12653373 0.026766099 -0.065628394 0.052537106 0.09060389 0.014197512 0.06902085 0.008237642 0.027074963 -0.051205907 0.16821593 -0.098035604 0.21576829 -0.13074245 0.14252482 -0.17883414 0.15160672 0.116769165 -0.05595948 0.22287004 0.019534994 0.11166635 4.9291015e-05 -0.03104141 -0.054268204 -0.020311575 0.06001128 -0.10949501 0.1973231 -0.10089262 -0.024551548 0.11645803 0.06196106 0.2241787 0.08554542 0.11625015 0.25578833 -0.04452724 0.11081346 0.22423166 0.04516667 0.07012456 -0.11668 0.09641823 -0.0017622856
도 0.05662172 0.0027983966 -0.14135723 -0.14024982 0.1455033 -0.09416859 0.124000326 0.365188 0.06239851 -0.07810253 -0.011555282 -0.1522944 -0.07099632 0.10086278 0.074704684 -0.0028021163 -0.07730918 0.010840985 -0.16165867 -0.35518977 0.035739273 -0.10538874 -0.041449975 -0.040117215 -0.09348539 0.05072782 -0.010574009 -0.25939643 -0.19128756 -0.09398744 -0.10835967 -0.058849465 0.31160364 -0.14386612 -0.05673268 0.18136685 -0.01120431 -0.13152263 -0.14149821 -0.15725762 0.008358216 -0.035765573 -0.17853492 -0.020191604 0.23739994 -0.05097048 -0.08918335 0.03148094 0.23193273 0.09157957 0.05472341 -0.14919236 -0.007805903 0.14944029 -0.024473645 0.1194541 0.010861467 -0.07466099 0.02905335 0.06882273 0.016052136 0.080236994 0.025714736 0.04615514 -0.058502283 0.17864405 -0.100609764 0.21526054 -0.12937054 0.14320157 -0.15899703 0.16854434 0.108426206 -0.054264955 0.21666896 -0.0043577994 0.11841351 0.0025203095 -0.017023915 -0.04908593 -0.016527908 0.042574577 -0.10866794 0.17943268 -0.10476473 -0.034478024 0.116057776 0.06687927 0.20025648 0.07245535 0.1334658 0.26192155 -0.028320586 0.12566048 0.22480163 0.04234657 0.04700338 -0.1292815 0.07053126 -0.0044525927
맛있 0.05059082 0.014549301 -0.10018318 -0.111267686 0.11584284 -0.091677964 0.10927146 0.27881336 0.04578232 -0.07263716 -0.011335675 -0.12414637 -0.036399078 0.06766492 0.07272625 -0.02694783 -0.039828863 0.012248449 -0.10567317 -0.27034083 0.02467852 -0.09702985 -0.04649531 -0.056305658 -0.07683333 0.031670783 -0.015890775 -0.19382045 -0.14426099 -0.07232604 -0.085429214 -0.03400111 0.21738276 -0.10738363 -0.041034773 0.13246101 -0.030305816 -0.093714535 -0.092149004 -0.11859588 0.01769167 -0.035951905 -0.12299484 -0.010563032 0.17553455 -0.053000253 -0.06517974 0.01851488 0.17727847 0.06626847 0.050812513 -0.10181278 0.009131661 0.10098473 -0.004438038 0.085536964 0.017909031 -0.04557005 0.024084436 0.06344076 0.0028309892 0.04851788 0.008164227 0.026477972 -0.041961752 0.14211185 -0.07398794 0.1638464 -0.08908198 0.09283049 -0.12075606 0.10871257 0.09119692 -0.031901844 0.1790915 0.01730915 0.099585176 0.008153894 -0.020115122 -0.032445293 -0.019090842 0.06334362 -0.08008793 0.14653173 -0.059053183 -0.026106799 0.10881905 0.06313975 0.16774964 0.05508144 0.108525015 0.19207527 -0.019723708 0.0917133 0.18905327 0.03973159 0.046173792 -0.097974576 0.07002842 -0.025708415
나요 0.05876581 -0.007764043 -0.10646164 -0.09014985 0.11109661 -0.08730751 0.09887004 0.26856935 0.03651588 -0.06772916 -0.009744051 -0.116294675 -0.040459603 0.08386658 0.06926899 -0.01517737 -0.037208144 0.024156941 -0.099629834 -0.23757632 0.023178522 -0.09621924 -0.043779142 -0.051154412 -0.06329055 0.030289972 -0.021526402 -0.16972508 -0.12628983 -0.0736179 -0.066779174 -0.038669694 0.20949386 -0.09495308 -0.043192424 0.11616125 -0.010652408 -0.08493424 -0.08443376 -0.11593627 0.006542877 -0.031177687 -0.117521636 -0.0013701993 0.15786183 -0.03710236 -0.06455081 0.01995205 0.17640139 0.06139195 0.033347957 -0.11287341 -0.0015314762 0.098353215 -0.012352381 0.097101144 0.008522001 -0.040885683 0.033947207 0.059723835 0.007442542 0.064796604 0.024833428 0.03225655 -0.05316864 0.14323734 -0.06680833 0.16373882 -0.09013051 0.101162605 -0.106512465 0.10063191 0.085985966 -0.034905255 0.17175873 0.00476575 0.08194556 0.010075238 -0.036051694 -0.048466664 -0.02287253 0.05056806 -0.08320539 0.14231312 -0.056358706 -0.026485814 0.096192144 0.060170416 0.14720032 0.036608215 0.09565107 0.16997986 -0.017371682 0.104871295 0.16992654 0.033311654 0.053575385 -0.09598576 0.06502675 -0.016533867
에요 0.057529464 0.015812963 -0.12911761 -0.11812736 0.114355855 -0.08550008 0.12847546 0.31985524 0.055075236 -0.07735799 -0.0028970635 -0.12354527 -0.052307226 0.08888111 0.072996184 -0.012775601 -0.04698974 0.0030460588 -0.14388628 -0.31732425 0.019422451 -0.104361795 -0.05464496 -0.049948286 -0.095212705 0.041184206 -0.0153403245 -0.23597293 -0.15953134 -0.072351776 -0.10278643 -0.05479723 0.2750724 -0.12001801 -0.062880754 0.16113128 -0.023669789 -0.12249798 -0.115497574 -0.14155993 0.0050798063 -0.015781008 -0.15133698 -0.013596034 0.20552944 -0.04741247 -0.069992505 0.024671836 0.20972618 0.085316524 0.03807429 -0.12762783 -0.013893297 0.12745665 -0.015660426 0.11368001 0.017209847 -0.053271268 0.044966467 0.06546617 0.0049982765 0.05650415 0.015244546 0.024308316 -0.06258526 0.16378671 -0.09443491 0.18574531 -0.12957455 0.12429705 -0.1604051 0.14215907 0.096437246 -0.059359055 0.18851288 0.004640099 0.10277074 0.018512502 -0.02828897 -0.047965866 -0.012510062 0.052102078 -0.09268594 0.17341961 -0.07318708 -0.036979184 0.10678513 0.057011966 0.18475483 0.057315733 0.103986725 0.22201204 -0.043404534 0.12378124 0.20058528 0.02046041 0.043657802 -0.105127715 0.08082956 0.00053099333
점심 0.05061479 0.004777393 -0.101849794 -0.0814425 0.10545679 -0.074899666 0.09265054 0.25661644 0.051759206 -0.06220745 -0.0024940076 -0.109162144 -0.036607493 0.074734114 0.065127045 -0.019983832 -0.044436246 0.019828718 -0.113535754 -0.24140778 0.017192919 -0.08528635 -0.046794735 -0.033127546 -0.06964807 0.025856234 -0.007640501 -0.17499527 -0.14190696 -0.07328604 -0.07733476 -0.04618057 0.2129382 -0.09101298 -0.045083776 0.11930052 -0.011246712 -0.079916745 -0.08876794 -0.10358028 0.010337814 -0.026492842 -0.13421638 -0.0027624858 0.15876503 -0.051434174 -0.062279906 0.016396364 0.17080344 0.06841675 0.045570094 -0.11096776 -0.00023042578 0.09621818 -0.019767264 0.09202771 0.015610393 -0.047093265 0.015114805 0.05198518 0.0057616187 0.061637256 0.0207464 0.014884047 -0.058245834 0.13635923 -0.07243795 0.14795153 -0.08153166 0.09134181 -0.108347766 0.10274121 0.07117198 -0.03672375 0.16392003 0.018307798 0.08604499 0.009055481 -0.029632304 -0.042011406 -0.019447606 0.051415585 -0.07762558 0.13184506 -0.07235864 -0.01681029 0.09509381 0.053340565 0.14255479 0.05544668 0.081791356 0.17500776 -0.022206593 0.1017025 0.17234008 0.025127795 0.049844664 -0.09329933 0.051016174 -0.020281963
시간 0.053737264 0.016890375 -0.12176906 -0.1162696 0.10849315 -0.08332525 0.10878491 0.31683314 0.059643675 -0.059718106 0.0030334864 -0.12420092 -0.04292274 0.081861086 0.0609027 -0.02307734 -0.045089416 0.0025536276 -0.14030775 -0.30569425 0.018525487 -0.10800624 -0.037673432 -0.043534607 -0.08294662 0.03571676 -0.015510223 -0.21488963 -0.15411833 -0.08280713 -0.09012343 -0.05093685 0.28491464 -0.13299422 -0.05022976 0.13491559 -0.026018247 -0.13235804 -0.11567589 -0.13893348 0.005552499 -0.024259306 -0.14714104 -0.029344095 0.19303945 -0.049480647 -0.069228336 0.028592657 0.18522768 0.07389272 0.056640632 -0.12067169 -0.018091988 0.13639416 -0.026867658 0.0899786 0.014785574 -0.053634986 0.024966476 0.06213686 0.008038392 0.07038143 0.004523337 0.04443538 -0.059409317 0.1578837 -0.07332148 0.19177322 -0.12577857 0.12471497 -0.142556 0.14294413 0.10227594 -0.051389385 0.19115502 -0.0045977 0.10316586 0.0069029345 -0.02546473 -0.03107972 -0.022354444 0.04746356 -0.085674524 0.16691233 -0.088277094 -0.030556304 0.116038874 0.062382378 0.17737375 0.07255156 0.12293306 0.20989098 -0.03787835 0.102718174 0.19522002 0.030377705 0.046688322 -0.102953605 0.065028206 -0.0051248446
쉬 0.06518381 0.017947603 -0.13742718 -0.1283998 0.15283443 -0.11149846 0.12759274 0.35623354 0.05931689 -0.08325062 -0.010289907 -0.16538525 -0.049315378 0.096249215 0.10225142 -0.010940926 -0.06844194 0.019067213 -0.14402075 -0.34203807 0.020371262 -0.10480308 -0.061726607 -0.047411524 -0.076965384 0.052909777 -0.02605362 -0.23885684 -0.18539156 -0.09575176 -0.11798242 -0.039620485 0.2924466 -0.14755802 -0.061008874 0.19042449 -0.0036432364 -0.13948981 -0.14131367 -0.13523203 0.021651443 -0.03617852 -0.17619638 -0.03368372 0.2248056 -0.047428 -0.088498004 0.042500183 0.21869257 0.07112694 0.08145315 -0.15109251 -0.015306842 0.1532547 -0.02933433 0.123290285 0.014878878 -0.059547625 0.032993753 0.06994585 -0.0032123043 0.0736993 0.030095246 0.047795497 -0.035954017 0.1798656 -0.101567365 0.20403847 -0.14367998 0.14302865 -0.17526919 0.15852569 0.10457592 -0.061469283 0.2159683 0.0070647383 0.09930326 0.0015329918 -0.02669168 -0.030935904 -0.029411674 0.057974588 -0.101397246 0.17819706 -0.10650084 -0.023112345 0.13842742 0.07801242 0.22871761 0.081186466 0.12911889 0.26243123 -0.05618443 0.12589623 0.24279408 0.020948393 0.057712164 -0.12701212 0.08183605 -0.008559334
오늘 0.048746284 0.0020208245 -0.12388393 -0.13965571 0.11629333 -0.106479466 0.10761674 0.33381182 0.057937678 -0.07953668 -0.0112993065 -0.14013511 -0.0641303 0.09525286 0.08405872 -0.0057509704 -0.0425848 -0.0047275056 -0.12831132 -0.32767 0.035065446 -0.10419446 -0.03978716 -0.0640747 -0.10156142 0.0516026 -0.019961376 -0.22353904 -0.16293374 -0.08668533 -0.08408233 -0.05154416 0.2647144 -0.13810608 -0.05614633 0.14545724 -0.0078079575 -0.11556024 -0.12719189 -0.12647766 0.017012712 -0.023569822 -0.15109411 -0.03470131 0.2146412 -0.0599371 -0.0736663 0.03205613 0.2085471 0.08416247 0.054774504 -0.12354002 0.0063335355 0.14460064 -0.02500599 0.11821111 0.021330904 -0.039803464 0.03687719 0.06411297 0.00083346764 0.06877807 0.013295927 0.042127643 -0.059449572 0.16999881 -0.084208034 0.18487148 -0.115139484 0.1408559 -0.15921907 0.14552611 0.09149077 -0.062497724 0.2104683 0.00048987963 0.10531068 0.009922371 -0.03267981 -0.03983901 -0.023099154 0.058718145 -0.10070378 0.18432017 -0.085196786 -0.032015033 0.10309016 0.08156502 0.18215334 0.06892918 0.1177088 0.21611321 -0.03725793 0.10483968 0.2097032 0.043137964 0.067725375 -0.11368361 0.07338409 -2.514802e-06
있 0.045601863 0.024076652 -0.15348774 -0.17309415 0.13897458 -0.1324029 0.15791965 0.4108634 0.06971723 -0.10638905 -0.0057107853 -0.15784383 -0.07397511 0.097113304 0.0846416 -0.017167622 -0.06985715 0.025657294 -0.18459822 -0.39191398 0.0044527054 -0.13307698 -0.06930392 -0.053765655 -0.11913174 0.03494941 -0.005834234 -0.29019034 -0.20665494 -0.12224675 -0.11516981 -0.04555314 0.32438615 -0.13137309 -0.06099036 0.18685713 -0.0024873307 -0.16246891 -0.1257444 -0.16343598 0.0044289385 -0.030387621 -0.17574455 -0.04828228 0.26960889 -0.06483033 -0.07714819 0.034077365 0.27050525 0.08525545 0.055943023 -0.1392791 0.0030532586 0.17157273 -0.019666228 0.14975023 0.03245532 -0.055314712 0.053005993 0.10135221 0.030737435 0.082701065 0.016765919 0.028205764 -0.07056442 0.19262968 -0.11755623 0.21868813 -0.14894737 0.16819498 -0.19390784 0.16298623 0.12654415 -0.057029974 0.23992072 0.023998834 0.12343377 0.010896463 -0.03733534 -0.05196356 0.0036099923 0.074113674 -0.12704748 0.22133315 -0.09313875 -0.02851368 0.13045727 0.08370119 0.250628 0.08558015 0.12980549 0.2598033 -0.043136567 0.13739552 0.2614358 0.023803266 0.084258355 -0.15820257 0.10242032 -0.017538317
가 0.081602156 0.033021577 -0.17602274 -0.17340456 0.17031154 -0.13362762 0.14944471 0.4492034 0.06753192 -0.09114119 -0.018083334 -0.17357165 -0.07841939 0.119422674 0.08947315 -0.010475749 -0.058222316 0.015609218 -0.1929336 -0.44264582 0.021437682 -0.14490816 -0.063504726 -0.079621665 -0.12255323 0.051556986 -0.034642097 -0.31235924 -0.23016995 -0.10515662 -0.12145653 -0.068538785 0.3650058 -0.17280643 -0.07488326 0.22503558 -0.011971407 -0.15907665 -0.15549077 -0.19790536 0.00205601 -0.04805902 -0.20184372 -0.033319514 0.27165636 -0.07896149 -0.09843784 0.029088749 0.27388206 0.10083705 0.06630783 -0.1720605 -0.0100794295 0.1768696 -0.019905297 0.13501136 0.00967492 -0.08297608 0.033051662 0.08998515 0.013937461 0.082673125 0.030938288 0.04252638 -0.071065344 0.22781435 -0.09603747 0.24476838 -0.18510903 0.16580224 -0.22052868 0.17661582 0.12302801 -0.07093539 0.26186752 0.005770923 0.113074884 0.020096162 -0.03618763 -0.04576067 -0.012656971 0.08107707 -0.12813444 0.24415211 -0.115431994 -0.036280006 0.15436354 0.107248455 0.25844097 0.09043879 0.14176671 0.30499843 -0.034965657 0.14199826 0.28629383 0.03426695 0.06488813 -0.13858354 0.093592264 -0.0064572114
네요 0.044384915 0.009900905 -0.14509003 -0.115486585 0.1326774 -0.086732775 0.13281685 0.32044566 0.04033016 -0.05915243 -0.009403717 -0.11997923 -0.055867057 0.07872104 0.06666004 -0.013208143 -0.04904151 0.0018275303 -0.14330363 -0.32524595 0.03235583 -0.1100771 -0.027364142 -0.052868158 -0.09845904 0.02716392 -0.02023546 -0.22462203 -0.17028688 -0.07584006 -0.09271522 -0.04250537 0.280369 -0.10831596 -0.054122236 0.16382314 -0.028230442 -0.1075788 -0.115219325 -0.13745914 0.013855077 -0.03002105 -0.15891054 -0.024968637 0.2034224 -0.04970138 -0.06497245 0.023799466 0.21743733 0.075730324 0.055762324 -0.122377686 -0.0037130883 0.13186336 -0.022074496 0.11006272 0.015379577 -0.05550789 0.024111347 0.05378597 0.007324397 0.06058068 0.021606276 0.02352966 -0.06682519 0.15414608 -0.07731954 0.18741988 -0.13175523 0.1273801 -0.15822043 0.13182308 0.09434393 -0.05240384 0.18925633 -0.0062566423 0.10725925 0.011676206 -0.027408335 -0.034311406 -0.013282388 0.05679283 -0.0900248 0.1861503 -0.083672255 -0.03948779 0.10237966 0.075653605 0.1877707 0.064903855 0.12062284 0.22294793 -0.035791684 0.10155371 0.20287444 0.02202277 0.059719585 -0.11064009 0.0806309 -0.0060059545
잘 0.056811076 0.014579378 -0.13526963 -0.12016229 0.1413456 -0.10174486 0.13279602 0.32856616 0.06353471 -0.073035784 0.002874179 -0.1509605 -0.060010366 0.08961798 0.071529575 -0.02117306 -0.049651857 0.003071118 -0.15478985 -0.31030387 0.01110028 -0.097946875 -0.045046113 -0.048951898 -0.09152512 0.031252764 -0.027275542 -0.23181449 -0.1846382 -0.09511718 -0.094878264 -0.05585174 0.27427736 -0.12847435 -0.06511675 0.14884807 -0.017639568 -0.11229021 -0.10757348 -0.1456023 7.087666e-05 -0.03287737 -0.17499979 -0.031188056 0.20958051 -0.044698402 -0.08519662 0.030665765 0.21861099 0.08513157 0.053373817 -0.14430839 0.0015741647 0.12527356 -0.01330491 0.11290971 0.02585262 -0.053100523 0.034911238 0.07968941 -0.0013365257 0.05702736 0.025363728 0.0255306 -0.061586026 0.1605316 -0.10296583 0.1944539 -0.12397945 0.12468165 -0.15485348 0.14768791 0.10872182 -0.060099214 0.19825307 -0.00046083683 0.09630371 -0.0047920835 -0.02947419 -0.05492544 -0.02045033 0.053786717 -0.090423115 0.18650644 -0.08083913 -0.040776297 0.10829986 0.06837337 0.20691699 0.07013987 0.11506121 0.2376097 -0.029117161 0.105172016 0.22120917 0.040345475 0.06698404 -0.10923848 0.07078079 -0.02224884
휴식 0.062282354 0.012111598 -0.14071609 -0.11971938 0.118014395 -0.082220756 0.12346008 0.3151023 0.060530413 -0.062007748 -0.012348509 -0.13354273 -0.04583265 0.09273644 0.062690236 -0.007407111 -0.04396903 0.004278235 -0.1374351 -0.3131156 0.03554816 -0.10018089 -0.031012768 -0.031264976 -0.08014667 0.030856028 -0.018189335 -0.22448294 -0.1650623 -0.07778426 -0.084261864 -0.04154946 0.28628603 -0.1315214 -0.059577193 0.16223608 -0.012496513 -0.1174896 -0.12892897 -0.13616483 -0.0053573367 -0.01666625 -0.14475366 -0.031472523 0.20632626 -0.03963188 -0.07927595 0.02552245 0.20159814 0.08690366 0.044380292 -0.12725729 -0.014533929 0.12782022 -0.020610904 0.095783375 0.013947995 -0.052170947 0.021348845 0.069608174 0.015648887 0.052790593 0.022262916 0.039412808 -0.064615846 0.14844115 -0.094097234 0.18195045 -0.11331048 0.13382447 -0.14904901 0.12894501 0.10383891 -0.042876568 0.19525328 -0.0037521601 0.0921448 0.0088098785 -0.03704376 -0.035828836 -0.015630966 0.04349905 -0.10246189 0.17569323 -0.09123144 -0.04020459 0.12128415 0.06883636 0.18146716 0.06310698 0.115228385 0.2342447 -0.04463364 0.101820365 0.20082988 0.028348977 0.043868624 -0.12501426 0.08017733 -0.002078842
건 0.05258919 -0.0019920673 -0.13597158 -0.14182264 0.15218717 -0.09641962 0.11543465 0.33543375 0.049948454 -0.069019824 -0.011503087 -0.14967206 -0.05357938 0.09832564 0.09006773 -0.025098052 -0.050249074 -6.614605e-05 -0.15421705 -0.33470365 0.017473638 -0.10607127 -0.050992433 -0.050252117 -0.07385143 0.050558157 -0.015185851 -0.22820105 -0.17727876 -0.089838184 -0.110341884 -0.04035736 0.27078763 -0.13242716 -0.048197545 0.16541685 -0.014662919 -0.1322761 -0.119834214 -0.12974843 -0.002189103 -0.03426559 -0.14982802 -0.017811581 0.2156692 -0.041135937 -0.09112198 0.049096655 0.21041387 0.07402848 0.068900295 -0.13300198 -0.010884243 0.14350007 -0.03217748 0.1011591 0.029827623 -0.044332437 0.0441332 0.068396844 0.0070799454 0.061364025 0.02948453 0.044875562 -0.052939266 0.1640515 -0.09932838 0.19762784 -0.13973221 0.13974789 -0.15589641 0.15819687 0.09295085 -0.059839107 0.20144816 -0.0046190047 0.10651834 0.011899414 -0.029915685 -0.03583802 -0.0317329 0.05542109 -0.116514415 0.17964956 -0.09350279 -0.020118305 0.1175428 0.08367218 0.2041574 0.07141753 0.11597722 0.2517673 -0.038277887 0.1275854 0.2253148 0.040574916 0.06465248 -0.13108917 0.07032308 -0.017218009
드세요 0.05434471 0.014907851 -0.11806703 -0.10656016 0.11226814 -0.08951658 0.1173483 0.30105522 0.058799963 -0.06334653 -0.0071260333 -0.13434441 -0.051034752 0.06633039 0.064270616 -0.027412841 -0.048259478 0.0058045173 -0.117910236 -0.29648215 0.029176107 -0.11205841 -0.047126785 -0.04846525 -0.08487614 0.035657875 -0.014780454 -0.2097027 -0.16236807 -0.088568844 -0.08222231 -0.04424325 0.25865105 -0.12129139 -0.046411116 0.12656628 -0.012498234 -0.10221899 -0.112326905 -0.11747862 0.00039453368 -0.038672153 -0.14038354 -0.015206983 0.17907074 -0.05849556 -0.055019975 0.027336387 0.1927035 0.073634274 0.040619303 -0.118894756 0.0023917714 0.13063279 -0.025142245 0.09839396 0.018235559 -0.060429417 0.019791296 0.07258851 0.017609505 0.055875484 0.021917457 0.02688961 -0.0609454 0.1493742 -0.084516056 0.1826869 -0.11074259 0.10279516 -0.14075486 0.12366901 0.10037565 -0.04675296 0.19279966 0.013792512 0.0894863 0.01487729 -0.02480701 -0.04724369 -0.02016677 0.049199432 -0.09590147 0.16485955 -0.08551714 -0.03970109 0.1087245 0.061879866 0.18146698 0.055461917 0.10249045 0.20928246 -0.024726612 0.10584068 0.20576769 0.037036736 0.042874545 -0.10557645 0.059809156 -0.019246988
었 0.062409163 0.0024664714 -0.1308136 -0.13771258 0.15129085 -0.11355571 0.122286774 0.34677058 0.073153436 -0.077705726 0.002312377 -0.16299804 -0.048354298 0.09577428 0.09294115 -0.023885114 -0.06031794 0.015063368 -0.14715603 -0.34120837 0.01806954 -0.110812515 -0.04859063 -0.06657083 -0.074757054 0.04464948 -0.021277657 -0.23942739 -0.1979296 -0.08474266 -0.11617413 -0.03811136 0.3079681 -0.14465524 -0.06921786 0.1950758 -0.011188763 -0.14549805 -0.13325994 -0.14982882 0.016335066 -0.040597104 -0.1615109 -0.026919514 0.24116226 -0.03959064 -0.09259483 0.04503791 0.22575575 0.06757835 0.08275728 -0.13749485 0.0037369407 0.14376946 -0.042659815 0.1217532 0.011661375 -0.041860875 0.039282363 0.07693554 0.0144147575 0.07754913 0.022052055 0.039209787 -0.032697402 0.16947326 -0.09934252 0.20573126 -0.13699576 0.1448272 -0.17589948 0.16347551 0.1019815 -0.050929416 0.23761109 0.0065776207 0.10651604 -0.002569747 -0.024758 -0.027908951 -0.014190114 0.05157539 -0.11148322 0.18116899 -0.10857222 -0.028185403 0.12536642 0.06607252 0.2311356 0.09403187 0.13726167 0.26856688 -0.057420444 0.114794776 0.24910286 0.017366407 0.051867772 -0.12384614 0.08039839 -0.02727831
남 0.060593095 0.0004956948 -0.16206695 -0.14701077 0.13655967 -0.10607328 0.117863595 0.36407056 0.08340545 -0.08779547 0.016941452 -0.13385959 -0.073382 0.08910851 0.081581056 -0.00802309 -0.06436105 0.00044041488 -0.15112188 -0.35680804 0.004386877 -0.11741193 -0.039132174 -0.0607401 -0.085900754 0.023194933 -0.0054453625 -0.23519024 -0.1804841 -0.09181678 -0.11465498 -0.06314061 0.32301748 -0.14234322 -0.05898613 0.154954 -0.031907603 -0.14517103 -0.11557276 -0.1439936 0.017708851 -0.037198573 -0.18062046 -0.044450626 0.24155827 -0.061602324 -0.07008574 0.038350753 0.22362655 0.0954962 0.04744646 -0.15013362 -0.005225995 0.16442582 -0.00802029 0.11316063 0.022752067 -0.05267388 0.037604723 0.09186566 -0.0021269394 0.07501453 0.016312812 0.041669365 -0.06784284 0.17439283 -0.086383805 0.21664147 -0.14722767 0.14197549 -0.15851212 0.1498808 0.12556195 -0.056741346 0.20842275 -0.008575802 0.110525675 -0.00018773272 -0.034853105 -0.054694757 -0.007036671 0.05079664 -0.113025345 0.19767919 -0.080775134 -0.024155417 0.1202304 0.071010746 0.2097553 0.08404011 0.11231575 0.24812666 -0.03230968 0.115002766 0.22961394 0.04374302 0.07545782 -0.1198474 0.096104056 -0.015608695
입니다 0.06658283 0.011756045 -0.16356473 -0.14855266 0.14676608 -0.1252801 0.1469762 0.4056383 0.057124052 -0.09609741 -0.009935976 -0.15144402 -0.08398284 0.116758965 0.08758997 -0.015071389 -0.063600905 0.0027887463 -0.16273242 -0.3767992 0.017999519 -0.13138941 -0.05232567 -0.05550252 -0.09698398 0.039857123 -0.010189844 -0.28086454 -0.20581576 -0.0903332 -0.108410805 -0.06816797 0.3292864 -0.15639627 -0.067540646 0.1961281 -0.023526337 -0.13837458 -0.13249077 -0.17164406 -0.006610582 -0.037714094 -0.19123688 -0.02120178 0.25974295 -0.056073643 -0.08636379 0.04080553 0.24271482 0.094475165 0.059471462 -0.14101925 -0.008279181 0.15265848 -0.020954225 0.12928069 0.009584662 -0.07528572 0.039324824 0.08029208 -0.0025916279 0.07420876 0.017033808 0.039752472 -0.07265358 0.19678585 -0.10259592 0.22758685 -0.1509841 0.15634692 -0.18399905 0.16759269 0.10744109 -0.06071221 0.24718745 0.002416444 0.109112166 0.009371808 -0.02606225 -0.050496858 -0.0031382733 0.05755263 -0.10577225 0.20098694 -0.090310335 -0.03570786 0.13696285 0.07549596 0.23947819 0.086311534 0.12678467 0.26230732 -0.033556193 0.13099505 0.24844512 0.04110019 0.060933396 -0.14363933 0.10236988 -0.0143369
잠시 0.052911278 0.0070534158 -0.12968895 -0.12731528 0.11588832 -0.09640934 0.10500806 0.324055 0.0642423 -0.07179996 -0.0028203123 -0.13819654 -0.044388212 0.09047427 0.07209895 -0.022920148 -0.058029056 0.014603312 -0.14051287 -0.29857373 0.03140763 -0.09372551 -0.045668546 -0.037511367 -0.08471938 0.030863784 -0.004701127 -0.22820048 -0.16479768 -0.08235799 -0.105267525 -0.045360472 0.2725533 -0.12567252 -0.061167352 0.16132079 -0.018647647 -0.12488885 -0.1160775 -0.12824623 0.014624531 -0.026533185 -0.13674107 -0.035780355 0.20402308 -0.03333439 -0.07079528 0.027972342 0.1965625 0.07260776 0.04447762 -0.13201512 -0.0058159297 0.12276854 -0.01232032 0.09846629 0.021462034 -0.047529932 0.04021179 0.05273912 0.013975588 0.059535388 0.022874858 0.03559647 -0.057463646 0.16335028 -0.087287866 0.18484601 -0.1280024 0.124634884 -0.13629842 0.1340524 0.10164773 -0.04855944 0.20037916 0.015614411 0.093779676 0.0031384493 -0.038774733 -0.025135808 -0.017254986 0.05158966 -0.09683681 0.17360733 -0.0703071 -0.029886983 0.11557435 0.075008586 0.18523887 0.07274779 0.108420625 0.22024992 -0.028786242 0.10239842 0.20144127 0.038896468 0.041673537 -0.11401822 0.06612536 -0.005649017
오 0.064548746 0.0020137609 -0.120309375 -0.1251209 0.114082076 -0.09956062 0.11732077 0.3205271 0.053862344 -0.081038155 0.00020087045 -0.12477106 -0.06394383 0.08385798 0.07457144 -0.015319108 -0.058686126 0.010370282 -0.13670816 -0.3033697 0.03221393 -0.098870456 -0.03410635 -0.063750505 -0.088327356 0.03359642 -0.011389851 -0.21575907 -0.17708749 -0.08143106 -0.09257357 -0.042755384 0.26666322 -0.12913077 -0.041503076 0.14210224 -0.029109176 -0.12694587 -0.124803305 -0.1404996 -0.0071889013 -0.02901549 -0.15897885 -0.02623725 0.21104659 -0.043050297 -0.072254196 0.022903685 0.21795468 0.07614079 0.06330601 -0.11879371 -0.016232178 0.109440185 -0.0026576987 0.10516512 0.013392258 -0.047733124 0.027892506 0.060575735 -0.0061989087 0.069743745 0.021350779 0.015331945 -0.06424505 0.1682883 -0.08840597 0.18258925 -0.12545395 0.11840477 -0.15318412 0.1368966 0.10431693 -0.050466526 0.19116284 0.01339452 0.11060285 -0.012660229 -0.041878287 -0.032834325 -0.029317375 0.056250945 -0.10482478 0.1919771 -0.08748339 -0.04448614 0.10925691 0.0666289 0.19490843 0.07492084 0.113927536 0.23014268 -0.024594404 0.1066142 0.20453295 0.03282877 0.059982363 -0.09962672 0.06739478 -0.02605132
, 0.062724896 0.022264013 -0.15228437 -0.1367103 0.13067707 -0.09445761 0.13191971 0.34747532 0.0745668 -0.06957889 0.008404595 -0.15296304 -0.057265628 0.08967269 0.07918211 -0.010315622 -0.06095051 0.026427045 -0.15294571 -0.3353948 0.008044158 -0.12356037 -0.059120845 -0.051504925 -0.091419905 0.034068048 -0.010094487 -0.24456747 -0.18472469 -0.10366874 -0.123949595 -0.047666706 0.31405663 -0.14212169 -0.07055576 0.17260468 -0.005586143 -0.12407762 -0.13464248 -0.1317353 0.008117213 -0.020056775 -0.16174223 -0.03733803 0.23523031 -0.059688337 -0.07358292 0.04290023 0.22589828 0.08936479 0.054203976 -0.13422291 -0.014965586 0.13646428 -0.020325705 0.102539025 0.01743236 -0.0559759 0.0491312 0.06880469 0.00452601 0.06638788 0.008713048 0.036004838 -0.046989165 0.16480331 -0.095636845 0.2127049 -0.1348093 0.12862566 -0.15393119 0.15148754 0.10778308 -0.039140254 0.22029221 0.0050309133 0.115797065 -0.0047771195 -0.018014185 -0.036225528 -0.021421174 0.046583947 -0.105759345 0.172985 -0.089218676 -0.04021822 0.12101203 0.0716725 0.21464527 0.08073381 0.108765826 0.25212988 -0.02999953 0.11963998 0.23882243 0.037648387 0.06988848 -0.10590255 0.08052987 -0.0146926595
괜찮 0.05698447 -0.0025090978 -0.11677149 -0.1236015 0.11927089 -0.09695485 0.12484929 0.31389812 0.052598327 -0.0748777 -0.0077975933 -0.13375713 -0.058898747 0.07899159 0.07098201 -0.010535697 -0.04619809 0.022286555 -0.13113105 -0.30117017 0.013929295 -0.0972319 -0.034375418 -0.058372736 -0.07942109 0.051133804 -0.020279242 -0.21781263 -0.17249839 -0.07901878 -0.09609318 -0.042483956 0.2718538 -0.12739027 -0.06352474 0.14439443 -0.027814526 -0.12050903 -0.12195638 -0.12806651 0.007000595 -0.027096055 -0.1525525 -0.007399675 0.20921339 -0.054986145 -0.053844403 0.016461661 0.19852632 0.077967145 0.048041612 -0.12842894 0.00047970863 0.12423157 -0.030346788 0.095417105 0.005358556 -0.045433443 0.029514397 0.05732184 0.016066683 0.06481375 0.019998673 0.035920717 -0.060841348 0.16263543 -0.09631303 0.17924659 -0.12130272 0.12219525 -0.15443648 0.13812037 0.10112343 -0.05817219 0.19729902 0.014391687 0.08814132 0.013415391 -0.038918793 -0.035755046 -0.010090975 0.05749341 -0.10613871 0.16367893 -0.07703334 -0.03103431 0.11806438 0.063936695 0.16781335 0.045821063 0.10715465 0.21255021 -0.028854202 0.1088337 0.21105321 0.033936024 0.06269367 -0.10503293 0.06471778 -0.019214157
아요 0.041560378 0.009148523 -0.14156656 -0.117112145 0.124395885 -0.07907015 0.121803746 0.3167099 0.05220671 -0.06571781 -0.010115484 -0.13351631 -0.06382699 0.083941475 0.06710989 -0.021429319 -0.06532835 0.016396835 -0.13905339 -0.3107948 0.039030448 -0.11132281 -0.02891447 -0.04316253 -0.082205355 0.037989344 -0.008924457 -0.23854761 -0.16389859 -0.07671655 -0.09279988 -0.04400923 0.28808576 -0.11380459 -0.04465767 0.1657823 -0.01980368 -0.09919733 -0.11459889 -0.14219804 0.0040291 -0.026600432 -0.15014796 -0.027827866 0.19878167 -0.04884149 -0.06749606 0.02257793 0.21432287 0.07306147 0.06105507 -0.12427291 0.002156962 0.12344168 -0.022861926 0.108526416 0.011320171 -0.04908045 0.022268407 0.061986677 0.010415622 0.0656254 0.029876703 0.028211335 -0.06373407 0.14525604 -0.08011869 0.19425873 -0.13399895 0.13539593 -0.15315475 0.13518241 0.09616145 -0.04358497 0.18471311 0.007874307 0.10047295 0.017887656 -0.020688063 -0.03435696 -0.01862838 0.04190783 -0.078958176 0.16764392 -0.08407058 -0.040362645 0.1172263 0.0595515 0.18951589 0.06670776 0.1106774 0.22524573 -0.041678347 0.114348635 0.20004158 0.03924906 0.05115097 -0.12500697 0.06744255 0.00084701926
에 0.07591409 0.028183164 -0.20258677 -0.1936819 0.17334592 -0.14245884 0.16105624 0.46060112 0.06415637 -0.102979384 -0.0012781706 -0.20733045 -0.0895218 0.12672362 0.10987878 -0.029165922 -0.0635608 0.0041714376 -0.19675894 -0.45027116 0.032310624 -0.14796598 -0.05180258 -0.0730484 -0.13597906 0.061246347 -0.032371286 -0.33812058 -0.23968779 -0.13611634 -0.14316624 -0.07586601 0.40161964 -0.16831459 -0.077748194 0.23647912 -0.024554132 -0.16664669 -0.17497875 -0.19963449 -0.004358813 -0.043392275 -0.21988869 -0.026725024 0.29454556 -0.06648667 -0.094975054 0.0304027 0.29193524 0.106603414 0.07040325 -0.17035401 0.006573963 0.20194943 -0.013914518 0.14427677 0.018114092 -0.09401523 0.041426845 0.08867508 0.015440456 0.095810905 0.016787915 0.051469542 -0.08346881 0.2363756 -0.12785691 0.26839355 -0.18601349 0.1930041 -0.22117275 0.19312194 0.1467307 -0.06882714 0.27690133 0.024277348 0.13168691 0.019536767 -0.048323993 -0.06638921 -0.028158002 0.07761528 -0.13904989 0.25162277 -0.114194624 -0.034490086 0.1575712 0.10584937 0.27873817 0.09281541 0.15777497 0.32679754 -0.051724464 0.15483186 0.30667728 0.049107995 0.070729494 -0.15590307 0.1070693 -0.021448145
짜장면 0.040085357 0.0030984536 -0.121370755 -0.12663126 0.112317614 -0.09839226 0.09884057 0.28264287 0.059328698 -0.06599177 -0.014595699 -0.11759256 -0.06360003 0.075946204 0.06936428 -0.0197056 -0.05486615 -0.0026350203 -0.113595754 -0.2726759 0.025777522 -0.08984352 -0.032377563 -0.051629454 -0.06916876 0.045008816 -0.008004372 -0.18845676 -0.15909977 -0.07408441 -0.07161044 -0.043655913 0.23123549 -0.112741314 -0.05061155 0.1334687 -0.015768494 -0.09563103 -0.10319962 -0.11272365 0.0039388747 -0.017054625 -0.14180179 -0.029748647 0.18275045 -0.050549783 -0.06852796 0.028137833 0.1869864 0.07079726 0.05321951 -0.112648875 0.00250511 0.11674415 -0.012047992 0.10578788 0.014707066 -0.04066227 0.020730518 0.05432219 -0.0008240426 0.06120509 0.010459321 0.021900855 -0.049915075 0.14482875 -0.08541831 0.17333888 -0.101795465 0.11852708 -0.13866462 0.13260356 0.09571775 -0.044722248 0.17627928 -0.0044362047 0.08184887 0.007486059 -0.025210312 -0.036396272 -0.028018506 0.058986913 -0.09673816 0.16607685 -0.06706713 -0.034476005 0.10324042 0.070261754 0.160288 0.04563645 0.110501714 0.19996765 -0.019753026 0.08858301 0.18419863 0.038523335 0.051055416 -0.10599938 0.05652373 -0.014308068
어떠셨 0.033846673 0.015337869 -0.087604575 -0.09406367 0.100330144 -0.07539072 0.08279663 0.2286576 0.0434689 -0.05944222 -0.0051573967 -0.101012625 -0.024362184 0.069772206 0.056260537 -0.021729339 -0.03192875 0.013803541 -0.104709335 -0.22363113 0.011287195 -0.07500533 -0.04314002 -0.044760387 -0.052201096 0.024133142 -0.0019338789 -0.15442397 -0.12550543 -0.066932164 -0.07096788 -0.025307056 0.18106826 -0.09212773 -0.04582851 0.112710916 -0.016092412 -0.079477265 -0.08336379 -0.102412336 0.006501758 -0.020918703 -0.10620358 -0.02133519 0.13928153 -0.043093152 -0.044472966 0.0133612985 0.14833735 0.058765825 0.041466918 -0.0899802 -0.001480969 0.0888315 -0.02154622 0.06552309 0.022128811 -0.04331086 0.008584761 0.056330334 0.01851164 0.044270646 0.0155237885 0.01719298 -0.044773996 0.106002316 -0.07372536 0.123920724 -0.086859085 0.09791806 -0.09350364 0.09162116 0.06937819 -0.026052808 0.14114638 -3.5766123e-05 0.07751447 0.004532012 -0.025981616 -0.041228756 -0.00082825904 0.054471307 -0.08274044 0.113300554 -0.05476235 -0.022334386 0.0727291 0.062352598 0.12682834 0.047595896 0.09068959 0.15327887 -0.018609593 0.07767402 0.13809146 0.024619007 0.039186783 -0.094432674 0.06300322 -0.024210723
요 0.06751985 0.0052648126 -0.15671882 -0.15722263 0.15637045 -0.11813853 0.13864446 0.36582208 0.07339482 -0.070340276 0.0073252795 -0.14737709 -0.07595469 0.08492404 0.08128735 -0.019563295 -0.054102406 0.015432257 -0.16133691 -0.35020298 0.015456231 -0.1267105 -0.04460302 -0.07282133 -0.093707964 0.038473524 -0.0061317673 -0.25959432 -0.18584935 -0.1037066 -0.098203465 -0.05746527 0.31204832 -0.13626285 -0.0519464 0.17176126 -0.02320017 -0.14443967 -0.1239343 -0.15839148 0.016852392 -0.036318343 -0.16301928 -0.03135896 0.23308967 -0.049060903 -0.09714221 0.049921196 0.22885053 0.09272435 0.06331375 -0.1403492 0.00048584584 0.1615827 -0.03867596 0.12808174 0.03330307 -0.05375702 0.043143738 0.081162766 0.012056927 0.072061926 0.024233418 0.035103023 -0.0529043 0.19294903 -0.106354706 0.21583441 -0.15211557 0.14205967 -0.18324377 0.16122875 0.10837944 -0.05513711 0.2312997 -0.0054284097 0.116627775 0.0030140388 -0.039082997 -0.053050153 -0.030576603 0.072881 -0.12272054 0.19813547 -0.10217007 -0.034642726 0.1334635 0.07136962 0.2116398 0.06546456 0.11324375 0.2560279 -0.046400648 0.12916379 0.24029893 0.027196944 0.060927518 -0.13670886 0.07728532 -0.023556594
았 0.05153719 -0.0011677729 -0.16805054 -0.15964894 0.14529607 -0.12043551 0.12725691 0.38102078 0.0835805 -0.08974503 0.009371193 -0.15804881 -0.06959093 0.10308201 0.078033164 -0.005349515 -0.06457955 0.016516855 -0.1549675 -0.37368903 0.004666386 -0.12933004 -0.04937413 -0.06638385 -0.0936487 0.01984376 -0.01144908 -0.2535087 -0.1854455 -0.11719264 -0.12320137 -0.045721456 0.34112602 -0.14183776 -0.06652987 0.16112983 -0.02436415 -0.15305167 -0.13752002 -0.1491346 0.017006556 -0.021162536 -0.19375522 -0.035922844 0.24489366 -0.063569486 -0.079997525 0.048469603 0.22765002 0.08891305 0.058015868 -0.14430611 -0.00088677264 0.17174806 -0.01512161 0.12765285 0.025400247 -0.07169531 0.052523427 0.09338256 0.001589398 0.07326089 0.020171626 0.043924943 -0.075422965 0.18303825 -0.09774208 0.21918377 -0.13229859 0.13437137 -0.16172326 0.14866237 0.12618701 -0.043213572 0.21735172 -0.007859705 0.12781717 -0.009542872 -0.03945292 -0.051221985 -0.022452492 0.072592616 -0.10151068 0.19997233 -0.08948801 -0.017078435 0.13545442 0.07765861 0.22830433 0.0859572 0.13447338 0.26825413 -0.047287628 0.13567923 0.24916065 0.051447444 0.056877017 -0.13287482 0.08867945 -0.002628365
고 0.04128343 0.007283797 -0.11201032 -0.1097798 0.12095618 -0.090491645 0.12171864 0.3132539 0.05541468 -0.08687689 -0.005599071 -0.12568027 -0.052044466 0.06552738 0.0693683 -0.008735021 -0.049066987 0.0028752717 -0.12861294 -0.2949884 0.011736617 -0.08562176 -0.048407182 -0.05595512 -0.06820292 0.042155664 -0.028223116 -0.21311599 -0.17322548 -0.085924216 -0.10959604 -0.0344173 0.24518864 -0.11203632 -0.058757033 0.15055108 -0.026907807 -0.12555353 -0.10684667 -0.1425598 0.004816626 -0.03347566 -0.15881373 -0.03257962 0.20733829 -0.05341538 -0.06779891 0.012236342 0.20399526 0.07038422 0.049883798 -0.12938999 -0.018022332 0.11092417 -0.014842487 0.094111666 0.0083799595 -0.0631415 0.040408913 0.0663924 0.008932097 0.061680067 0.0358916 0.020377563 -0.06750353 0.15692276 -0.09446673 0.18793018 -0.106404796 0.116419815 -0.13389131 0.14606181 0.10047445 -0.044027027 0.20075338 0.010472588 0.091462456 -0.014967272 -0.03363389 -0.040055137 -0.005308849 0.041420165 -0.09119222 0.18757594 -0.08281388 -0.04589235 0.11024126 0.059539802 0.1727848 0.05465336 0.111580655 0.23124774 -0.027261354 0.114733174 0.21629456 0.038094148 0.049314585 -0.09705848 0.05748829 -0.022143437
가지 0.05837537 0.020851785 -0.1265243 -0.12636964 0.1252111 -0.0863182 0.10354993 0.30600908 0.059041243 -0.0587795 -0.009766735 -0.11225917 -0.03997562 0.08231661 0.07900151 -0.019757114 -0.05252049 0.0072416775 -0.12328681 -0.2744384 0.030573549 -0.0866657 -0.027842203 -0.030781388 -0.078891024 0.026955226 -0.013427216 -0.19950834 -0.16391005 -0.074983366 -0.086133905 -0.05172551 0.2622059 -0.1120653 -0.046040386 0.15713955 -0.015100594 -0.10726443 -0.122562446 -0.11073678 -0.005486223 -0.015295527 -0.13285798 -0.021672344 0.17971319 -0.029690132 -0.07094447 0.035737917 0.18257485 0.06310398 0.05262851 -0.12644623 -0.014171262 0.108150296 -0.017235762 0.094184436 0.014252038 -0.043182496 0.024675535 0.047809534 0.014822564 0.052292444 0.022869645 0.044021867 -0.051962037 0.15105627 -0.07294299 0.17025459 -0.12134144 0.12622963 -0.13785574 0.12829264 0.09218812 -0.050686166 0.18529446 0.005555556 0.09165354 0.0031082358 -0.027850503 -0.03154082 -0.023843642 0.043729514 -0.09661922 0.15926944 -0.07516207 -0.027826592 0.107951775 0.06298812 0.17496823 0.064391494 0.115152575 0.20988928 -0.041884787 0.09266015 0.18054672 0.022199903 0.04960691 -0.10373443 0.060939617 -0.020903246
스트레칭 0.048575655 0.024548044 -0.15385363 -0.13483162 0.14627229 -0.093972094 0.12189471 0.35365742 0.054940823 -0.06647661 -0.011660644 -0.15311705 -0.05354193 0.08847664 0.09134597 -0.018863954 -0.05268253 -0.0019154437 -0.14490676 -0.3439858 0.016105464 -0.11224692 -0.043938585 -0.0541155 -0.09629458 0.033588342 -0.028711991 -0.26001564 -0.19644575 -0.09939955 -0.09368404 -0.052697547 0.28836775 -0.13779072 -0.05408779 0.17314294 -0.019534536 -0.12711935 -0.122614175 -0.15567206 -0.0012968006 -0.020901589 -0.17525269 -0.024262004 0.2236822 -0.03576494 -0.07500682 0.03632181 0.22535509 0.08313213 0.06580489 -0.13973272 0.001453643 0.1500868 -0.014960887 0.11360493 0.016464826 -0.050252777 0.024905287 0.07022134 0.0040202327 0.07916055 0.01388522 0.037546802 -0.04448124 0.16700451 -0.10332696 0.19204292 -0.13183698 0.12995727 -0.16049905 0.1516179 0.114207156 -0.053547353 0.20624335 -0.000479467 0.105583824 0.0012814613 -0.023180038 -0.045940164 -0.026784351 0.058126662 -0.108203486 0.17634666 -0.09896467 -0.03614081 0.123268016 0.07918304 0.21797541 0.08071303 0.1290353 0.2517548 -0.046593867 0.13089497 0.22868223 0.038191836 0.058956545 -0.11600835 0.08687763 -0.022294434
조금 0.056040656 0.014460904 -0.13219166 -0.14151222 0.14696242 -0.09211679 0.12342666 0.32831162 0.047995225 -0.06160477 -0.013413314 -0.15341495 -0.04983225 0.075611144 0.080690235 -0.019924074 -0.0592258 0.006731757 -0.14274514 -0.32120672 0.02188573 -0.10873305 -0.037405796 -0.06293461 -0.07502821 0.034336522 -0.013344475 -0.24237151 -0.18375751 -0.09356865 -0.107443266 -0.035293873 0.28736907 -0.12882537 -0.06595405 0.17690761 -0.021593293 -0.12762152 -0.13027604 -0.14756854 0.012277901 -0.033472933 -0.15381499 -0.022700056 0.20548646 -0.042626217 -0.0855175 0.024623295 0.19727153 0.07635872 0.072850846 -0.13748768 -0.013642012 0.1398302 -0.025233665 0.09635628 0.02854244 -0.040532727 0.0220345 0.06191306 0.013771946 0.06677799 0.02555345 0.03121407 -0.037310302 0.17145556 -0.0851325 0.18745135 -0.13583328 0.12330489 -0.17129438 0.15587062 0.0986591 -0.051504683 0.21639374 -0.008319503 0.10729898 -0.003700904 -0.03566259 -0.029796133 -0.023184592 0.045398705 -0.1071019 0.17205872 -0.09670111 -0.034373134 0.1324208 0.081393726 0.20397761 0.077366985 0.111811124 0.2588462 -0.045669608 0.11841035 0.23860307 0.032740932 0.054232374 -0.11174623 0.08673387 -0.019555636
를 0.06552192 0.02151077 -0.14881755 -0.14462934 0.15653001 -0.12271979 0.1370104 0.3843606 0.058093246 -0.08913973 -0.011763972 -0.16612343 -0.060031403 0.110180594 0.09754313 -0.011863011 -0.067320526 0.015553293 -0.17243788 -0.3877516 0.037670016 -0.13649476 -0.04517948 -0.0673674 -0.11092805 0.050728388 -0.027670702 -0.26008552 -0.21743086 -0.11320565 -0.10825571 -0.04919983 0.33243158 -0.13909511 -0.06869033 0.17627096 -0.019124085 -0.12962873 -0.1451375 -0.16933887 0.011523659 -0.028686574 -0.20086396 -0.03114857 0.24516013 -0.0611408 -0.07974829 0.040941507 0.24098049 0.10232667 0.06392007 -0.16275203 -0.016172413 0.14487632 -0.013371738 0.13208213 0.00692506 -0.059663504 0.027342446 0.06942668 0.015299321 0.08099791 0.031968433 0.043812487 -0.061829735 0.18127982 -0.10033753 0.23376772 -0.14192148 0.1622193 -0.19411403 0.16372387 0.12161261 -0.051147155 0.23501374 0.021933248 0.115160316 -0.006128718 -0.043491334 -0.058504354 -0.011108707 0.05810191 -0.11816004 0.22453456 -0.10953966 -0.040529337 0.14467047 0.07197793 0.22460575 0.074481115 0.14387871 0.2732545 -0.045156863 0.1509813 0.2506246 0.05065959 0.060339067 -0.12581027 0.086558826 -0.02672065
드 0.051483367 0.0051517347 -0.11657237 -0.12004611 0.11249845 -0.09420386 0.10759706 0.31586185 0.062591314 -0.07045967 -0.012552642 -0.12203763 -0.06623396 0.07702135 0.07542046 -0.015419301 -0.052879613 0.00086199184 -0.13958097 -0.2799499 0.025315799 -0.09676188 -0.029111236 -0.06186516 -0.07914953 0.039812896 -0.02706225 -0.21862948 -0.15546301 -0.080630906 -0.102671176 -0.03081869 0.24099877 -0.11972025 -0.047199532 0.1358653 -0.030797655 -0.12009107 -0.12372651 -0.12581475 -0.0028617177 -0.028882962 -0.14121254 -0.024642918 0.20233539 -0.03915575 -0.07283403 0.024561564 0.19568644 0.07887217 0.063410245 -0.12450449 -0.007838123 0.110668585 -0.015669258 0.08738822 0.013245142 -0.06218029 0.031208936 0.0668067 0.0076176603 0.053899135 0.030321265 0.015338282 -0.04431961 0.15303482 -0.07830427 0.18291935 -0.11271217 0.115302555 -0.13736792 0.12006707 0.09102145 -0.051249433 0.17584753 0.014348071 0.10629745 -0.0055084685 -0.024093566 -0.03916751 -0.017868651 0.061394826 -0.099516146 0.16101871 -0.07254859 -0.043246686 0.11617398 0.072495684 0.16676077 0.071616955 0.11603966 0.20806912 -0.040995743 0.092089 0.20334892 0.039341927 0.051695094 -0.10138899 0.056121644 -0.021571914
습니다 0.05915524 0.0015155096 -0.15746264 -0.13886616 0.1304495 -0.117741756 0.13685055 0.37109783 0.0557937 -0.07319815 0.00963967 -0.14404078 -0.07244987 0.10526631 0.07202541 -0.018683897 -0.058135055 -0.0012554574 -0.16774453 -0.3482073 0.025903687 -0.120587334 -0.05054619 -0.052392717 -0.09438736 0.026060622 -0.006751326 -0.25179783 -0.18423072 -0.09633432 -0.10009175 -0.04389683 0.31571838 -0.14411047 -0.062041335 0.16753241 -0.018215286 -0.12490549 -0.120387495 -0.15858798 0.02170071 -0.032590676 -0.1728415 -0.02509606 0.22488056 -0.051277585 -0.07823876 0.04365443 0.23296566 0.08493618 0.04574925 -0.14612512 0.005686583 0.1398227 -0.013654426 0.11854492 0.016660603 -0.048931286 0.047888532 0.0886941 0.015922038 0.062089164 0.023731945 0.02181751 -0.07285159 0.1665752 -0.09139601 0.22009972 -0.14375965 0.13718282 -0.17047031 0.14987205 0.1095565 -0.049094733 0.22126508 0.0021143458 0.11004893 7.3294264e-05 -0.03425091 -0.04359318 -0.005175403 0.06913546 -0.115800716 0.18758783 -0.10480013 -0.039366182 0.12769316 0.06821084 0.21506116 0.08411914 0.12483444 0.25193512 -0.029708313 0.1287963 0.22963586 0.034104235 0.06399388 -0.11752634 0.093406364 -0.015174882
생각 0.040794224 0.012130302 -0.075464554 -0.084490195 0.081344604 -0.05947271 0.06447015 0.2092222 0.020098165 -0.053017356 -0.00015200813 -0.070897 -0.04042954 0.06318132 0.05149758 -0.005274502 -0.04038164 0.0087094605 -0.09612141 -0.20696965 0.021528173 -0.07558686 -0.021054678 -0.034454223 -0.055016547 0.014481247 -0.01689039 -0.14355823 -0.09469369 -0.04629204 -0.0699019 -0.03788366 0.17495172 -0.087151475 -0.025123984 0.10474443 -0.018224748 -0.062439047 -0.062699184 -0.08782556 0.0044982913 -0.02464897 -0.09157426 -0.0049773837 0.13466291 -0.04143899 -0.037258025 0.017999807 0.12521064 0.05861954 0.03311256 -0.07185161 -0.009077401 0.091114245 -0.01575896 0.067032725 0.014735255 -0.029536681 0.027028395 0.037475623 0.0072924905 0.050264873 0.007481437 0.023925193 -0.05011949 0.10896049 -0.04760266 0.12709294 -0.074084476 0.08791837 -0.10267152 0.08277659 0.057855703 -0.03173424 0.1188276 -0.0061840317 0.051578376 0.017347777 -0.006054365 -0.020496069 -0.011772111 0.034740083 -0.068919756 0.11777593 -0.050329015 -0.011238277 0.06330905 0.039367072 0.1221431 0.045402102 0.060834587 0.1314111 -0.019960813 0.059608836 0.13952653 0.027262785 0.03135525 -0.07666043 0.03726884 -0.0073447484
되 0.054671545 0.00815829 -0.11521783 -0.08620287 0.08703681 -0.07123138 0.10519752 0.26451448 0.03227859 -0.050495155 -0.010198626 -0.11440239 -0.031114805 0.0586086 0.04673845 -0.019729646 -0.037295174 0.010374705 -0.11926199 -0.25982234 0.028275859 -0.071288474 -0.017254978 -0.038942743 -0.06288798 0.028406406 -0.0062589888 -0.17218292 -0.1340494 -0.06780301 -0.081551224 -0.04593531 0.23246232 -0.10911068 -0.040685974 0.12038018 -0.021575836 -0.111152284 -0.088321686 -0.11952218 -0.0024767632 -0.028344383 -0.11432969 -0.011165228 0.16626866 -0.027072357 -0.06853293 0.019624412 0.15483229 0.052532762 0.04920376 -0.11573336 -0.015944539 0.09425892 -0.0053031673 0.07865663 0.013373362 -0.05073314 0.021318125 0.055807605 0.0050824564 0.04438213 0.0035170272 0.029537797 -0.06241991 0.13457422 -0.0721897 0.16754234 -0.10458445 0.10721027 -0.12995781 0.103729464 0.089006096 -0.03953172 0.15112144 0.0019669193 0.09305294 -0.008085438 -0.03262303 -0.034847293 -0.010203448 0.054383054 -0.08065592 0.1307999 -0.07387691 -0.037502125 0.084644735 0.04619744 0.14185785 0.052211326 0.08986705 0.17018633 -0.028516214 0.095180415 0.17998162 0.020239612 0.052162718 -0.08395988 0.055400454 -0.021067847
겠 0.04659781 0.0011129738 -0.12951502 -0.11849516 0.1402267 -0.11348667 0.12960964 0.34426197 0.06587408 -0.08700556 -0.0012470386 -0.14716734 -0.07450644 0.089933746 0.08567124 -0.006430767 -0.067623384 0.010805276 -0.15360959 -0.31172463 0.0045898487 -0.09388172 -0.05386825 -0.061181705 -0.085205875 0.029908627 -0.025064448 -0.23456322 -0.17839986 -0.10072759 -0.097818844 -0.04572363 0.3010363 -0.117211625 -0.0685266 0.16727611 -0.009384952 -0.1143712 -0.11008894 -0.14229292 0.018516278 -0.025130669 -0.1634901 -0.036715865 0.22001994 -0.043267578 -0.08554914 0.044845637 0.21914008 0.08052476 0.046534453 -0.13135828 0.0057478705 0.14609146 -0.028706238 0.122134514 0.016949495 -0.06646497 0.049894053 0.0816992 0.011003633 0.07678338 0.008545309 0.022541912 -0.05871294 0.15831113 -0.0916133 0.19346021 -0.1361744 0.1299176 -0.15682304 0.14426394 0.10895813 -0.0494508 0.21244101 0.005062888 0.11397306 -0.00050124276 -0.022855248 -0.049857914 -0.006450984 0.06025155 -0.09725115 0.19266479 -0.100873 -0.01826361 0.11600014 0.06472419 0.19745795 0.06180608 0.109149285 0.24155354 -0.028470008 0.12459368 0.2087741 0.046456307 0.04756218 -0.11277992 0.08908007 -0.014272043
힘내 0.04159645 -6.7429755e-05 -0.13463542 -0.130619 0.11416108 -0.092540234 0.11721569 0.3358046 0.068648815 -0.06675359 -0.009272133 -0.12368696 -0.053658865 0.07680071 0.06942107 -0.01564601 -0.054538853 0.008572898 -0.1517408 -0.32278997 0.019817213 -0.10999337 -0.042948376 -0.04736882 -0.086842045 0.018075306 -0.0015346848 -0.23432235 -0.17123069 -0.090548515 -0.110219106 -0.04260171 0.2975298 -0.12924 -0.048935913 0.148326 -0.028384684 -0.13228542 -0.11327069 -0.12996732 0.020408157 -0.020566639 -0.16752814 -0.03935237 0.22176054 -0.047559533 -0.06592856 0.03498654 0.21442933 0.06996755 0.061578847 -0.13872659 -0.0089129545 0.14869829 -0.030122917 0.111005105 0.006364412 -0.06559999 0.040281374 0.07740535 0.004311199 0.076889426 0.0042605423 0.03548311 -0.047061488 0.16688342 -0.09363923 0.19444664 -0.13163333 0.12602831 -0.15080553 0.15176344 0.11161164 -0.055661168 0.20732744 -0.0055529713 0.11462152 -0.008515778 -0.037408154 -0.044901032 -0.021972606 0.04825169 -0.09575869 0.17554577 -0.09755616 -0.03577261 0.10639633 0.06453954 0.20043577 0.06908299 0.12532282 0.2243983 -0.024135407 0.116114855 0.22244857 0.033090036 0.05774194 -0.111808434 0.06289153 0.0012174932
셨 0.03837729 0.013108303 -0.0819451 -0.07836841 0.08595527 -0.07805621 0.083676994 0.2239535 0.027794853 -0.057755664 -0.0060428586 -0.10036671 -0.03134906 0.05987205 0.057624806 -0.019426024 -0.040762365 0.016650202 -0.08676176 -0.20543942 0.018927926 -0.08192105 -0.024566388 -0.046371207 -0.06750208 0.03507677 -0.014152721 -0.16116494 -0.12058304 -0.054061793 -0.072031915 -0.023597721 0.1831767 -0.07908647 -0.03692168 0.09247439 -0.016515337 -0.07259371 -0.077740796 -0.09816574 0.014829204 -0.012286987 -0.10006155 -0.013510539 0.13196991 -0.039205078 -0.044721864 0.009759039 0.15397497 0.042279635 0.026580786 -0.095640935 0.0068338853 0.07637902 -0.0047202897 0.061507687 0.014106111 -0.033994455 0.019462384 0.059412956 0.011963364 0.04450204 0.017906863 0.02581811 -0.0358877 0.12201293 -0.06388534 0.12105251 -0.08311875 0.08135958 -0.108609326 0.09128385 0.07619683 -0.037660953 0.14160943 0.01086207 0.07281053 0.0015145191 -0.014539194 -0.040401086 -0.0070242723 0.050943274 -0.0735045 0.11193562 -0.06825613 -0.03216289 0.08218388 0.05308196 0.13849679 0.04053272 0.07998804 0.15542385 -0.033150923 0.06749963 0.14838135 0.016152171 0.03598515 -0.083210096 0.060611192 -0.018545652
신 0.0655179 0.008458869 -0.14106514 -0.12568092 0.13021769 -0.10046263 0.13588038 0.3380095 0.05692716 -0.081548445 -0.010489492 -0.13261345 -0.06232025 0.071577385 0.08328236 -0.003655562 -0.061814934 0.0122129535 -0.1431164 -0.31615475 0.03518029 -0.10870968 -0.044528756 -0.052454583 -0.098619096 0.053075757 -0.028539354 -0.2317932 -0.18007283 -0.084228136 -0.098037966 -0.052303836 0.27242166 -0.116393626 -0.048532974 0.15974726 -0.020753799 -0.11751024 -0.12703906 -0.13253407 -0.002427916 -0.02535531 -0.1672431 -0.034936402 0.21669993 -0.04910441 -0.08510902 0.015520407 0.2175589 0.068690315 0.06266259 -0.12850533 -0.0025979036 0.11967082 -0.006639687 0.09494927 0.023631023 -0.054180205 0.032147806 0.07157264 0.0027626248 0.06092348 0.023781314 0.019606967 -0.05803054 0.14957467 -0.08511481 0.18187985 -0.12835002 0.11389597 -0.169256 0.14023142 0.08886994 -0.06209372 0.19905023 0.0043244017 0.10919801 0.010280812 -0.03690923 -0.03717873 -0.025724037 0.059630394 -0.08138893 0.19555102 -0.09583904 -0.032846153 0.10060687 0.06536638 0.18080074 0.054493383 0.122783266 0.24117848 -0.037316803 0.105951294 0.21910898 0.026355948 0.04808176 -0.11990194 0.07197829 -0.0029037732
든든 0.0373552 0.016898261 -0.09373609 -0.105113484 0.1000417 -0.08235381 0.09930175 0.2648924 0.041948706 -0.07431431 0.0017357516 -0.12184787 -0.056516893 0.065502614 0.06366932 -0.012330404 -0.04199137 0.011693141 -0.10815665 -0.24323809 0.01255151 -0.092495255 -0.044936515 -0.03593367 -0.06826252 0.028072389 -0.00841326 -0.17140768 -0.13079627 -0.074490085 -0.08697067 -0.03833546 0.20760508 -0.09393827 -0.0372401 0.11778153 -0.007887553 -0.1064943 -0.08727626 -0.11697577 0.008421962 -0.02943916 -0.121373795 -0.009834091 0.1648723 -0.048434217 -0.07088121 0.0275154 0.17205706 0.06824596 0.039559554 -0.11544548 0.0055403784 0.09510767 -0.010100323 0.09216709 0.007520425 -0.04402999 0.021785129 0.049037248 -0.0013698094 0.05264338 0.01037508 0.018508928 -0.049063973 0.1390881 -0.06837002 0.16011149 -0.09388268 0.0921099 -0.12585604 0.12563638 0.09021753 -0.04795888 0.16853657 0.019286467 0.09336536 -0.0080288835 -0.027289363 -0.032841407 -0.010178199 0.046261936 -0.08085481 0.15196826 -0.06142363 -0.028805899 0.0867663 0.051148325 0.14720975 0.058660954 0.09442678 0.1840815 -0.03627973 0.08828346 0.18137278 0.035792112 0.049185693 -0.094753414 0.07093048 -0.013278718
다가 0.05866767 0.01986133 -0.13198225 -0.115039624 0.13986266 -0.088937186 0.11989386 0.3244528 0.05609014 -0.08095932 -0.0010100333 -0.1356565 -0.058563672 0.08265315 0.08415849 -0.020345304 -0.052950166 0.024602927 -0.14847405 -0.2996773 0.0065204967 -0.107480146 -0.03848012 -0.056130867 -0.07901582 0.031649143 -0.025088275 -0.22569582 -0.17029585 -0.08154462 -0.11393063 -0.04843674 0.2663772 -0.12642212 -0.06426005 0.15702811 -0.0053843735 -0.11795372 -0.110782474 -0.12445441 0.008982167 -0.024103409 -0.13790752 -0.0240917 0.20885754 -0.04248833 -0.09070719 0.041681226 0.20541362 0.072065756 0.070367336 -0.13636522 -0.0055072475 0.11497144 -0.036516342 0.10370729 0.02169831 -0.043131474 0.019740477 0.06907516 0.01017792 0.069658786 0.022365134 0.04228427 -0.034886584 0.14585434 -0.09690966 0.19412068 -0.123113774 0.109487705 -0.15541957 0.14062075 0.105544865 -0.047674928 0.20023338 -0.0031588678 0.08647797 0.0031006436 -0.02739187 -0.04260741 -0.014427037 0.038725093 -0.09772924 0.17355968 -0.086520456 -0.017668955 0.12652342 0.064482585 0.19852836 0.07930657 0.12622735 0.24618055 -0.033001732 0.11317592 0.22350149 0.028750435 0.046492137 -0.100431524 0.07576552 -0.019862594
으로 0.07230217 0.010518599 -0.1741091 -0.17965104 0.18878525 -0.13816385 0.18777086 0.46950996 0.06826298 -0.11093024 -0.012757616 -0.21163231 -0.087650724 0.11445308 0.11927205 -0.0247949 -0.08276377 -0.0020713808 -0.20877229 -0.4725294 0.030597355 -0.14428388 -0.06207325 -0.06293489 -0.13034765 0.043751128 -0.026834657 -0.33169636 -0.25396103 -0.13794573 -0.14086042 -0.071434155 0.40452337 -0.18980809 -0.08724755 0.22573882 -0.024997732 -0.16871342 -0.16752425 -0.19444245 0.019604428 -0.05558866 -0.22105946 -0.02493334 0.29811734 -0.062132303 -0.10948894 0.037510403 0.28825378 0.12367625 0.060306292 -0.18939973 -0.00017396192 0.1820937 -0.018890763 0.14297304 0.0119566005 -0.06683639 0.031875294 0.11404356 0.0033528248 0.101930015 0.029853731 0.033507306 -0.095609955 0.22683781 -0.11164456 0.2880615 -0.18179643 0.1918427 -0.21810237 0.2076081 0.1458125 -0.086941965 0.2974448 -0.0005918288 0.13765456 0.011264852 -0.037842017 -0.072273 -0.022765657 0.09091117 -0.1531375 0.2683596 -0.12900682 -0.03127533 0.15555216 0.11048022 0.29367447 0.08339451 0.16511106 0.31553143 -0.037776046 0.1740082 0.29818675 0.05580406 0.079329014 -0.17505167 0.10899112 -0.02849617
다녀오 0.047876183 8.087372e-05 -0.10108461 -0.09653004 0.104432516 -0.08341276 0.0894789 0.27854913 0.050405465 -0.047128845 -0.0029425826 -0.11762147 -0.042538904 0.08324464 0.07405732 -0.005546673 -0.05622255 -0.0024084416 -0.10951057 -0.2713404 0.024274042 -0.07328925 -0.036485113 -0.029688248 -0.080539756 0.041021753 -0.0059160898 -0.1844424 -0.15243866 -0.056182686 -0.0716953 -0.040438384 0.23310158 -0.095991805 -0.046941932 0.1399421 -0.0195436 -0.099953 -0.1021515 -0.11551506 0.0023333353 -0.03394437 -0.12056404 -0.0057203257 0.17939027 -0.02765236 -0.06674242 0.032444254 0.16192554 0.05755084 0.06071555 -0.1002388 -0.0111177 0.09865179 -0.012190542 0.08809376 0.024136672 -0.05152546 0.025498621 0.05545095 0.008672483 0.05454275 0.0117324 0.033079147 -0.053061046 0.14232221 -0.07401901 0.17452362 -0.10766941 0.11450316 -0.13410404 0.10518921 0.08275142 -0.0441258 0.17695038 0.011328732 0.07307123 0.01518887 -0.02739567 -0.044345524 -0.008093528 0.041590802 -0.095529445 0.15620947 -0.05988915 -0.015940197 0.098634765 0.068547234 0.16246533 0.04728748 0.108079776 0.18535987 -0.04454828 0.10329955 0.16851509 0.03864464 0.03825448 -0.08520686 0.053496026 -0.005940261
산책 0.05839931 0.015754912 -0.11604501 -0.117119946 0.10158625 -0.079608396 0.11253149 0.28146288 0.057528142 -0.05273862 -0.015796725 -0.11767563 -0.058637735 0.070428364 0.06754111 -0.022601925 -0.05031768 -0.0029063895 -0.13264176 -0.28537947 0.03378036 -0.079518005 -0.0351006 -0.04525637 -0.070979476 0.03744035 -0.024353957 -0.20721515 -0.14811924 -0.063268736 -0.08158705 -0.028173612 0.24920584 -0.107605495 -0.038051635 0.15089104 -0.0054617994 -0.093480416 -0.11676784 -0.11181129 -0.0032949203 -0.033686176 -0.14132561 -0.0150689995 0.18192129 -0.044635084 -0.05771979 0.035634562 0.18346849 0.07777365 0.045486774 -0.11929336 0.0005764426 0.109678224 -0.029871179 0.09442292 0.010349356 -0.05063696 0.03180477 0.06630831 0.014923463 0.056099497 0.02927151 0.03264102 -0.041530512 0.13852926 -0.07201587 0.1755811 -0.12240542 0.118682824 -0.13212204 0.12722744 0.0841463 -0.048217956 0.16669157 0.0013969331 0.08293557 -2.0929021e-05 -0.02813094 -0.023190262 -0.0118686715 0.039163742 -0.0957028 0.14899811 -0.068060696 -0.038509708 0.110036865 0.06688381 0.16195966 0.068774685 0.108916156 0.20032904 -0.025955237 0.08542994 0.1736774 0.0250453 0.061572924 -0.09670036 0.06901992 -0.016481552
떡볶이 0.044856656 0.011337113 -0.10546774 -0.105303794 0.105023034 -0.088695765 0.100832835 0.26627633 0.03685484 -0.061093744 -0.01383746 -0.115561016 -0.05362785 0.07267103 0.054669265 -0.0131199835 -0.052536957 0.00047358623 -0.113139905 -0.26332185 0.023629319 -0.07335104 -0.025855804 -0.03888655 -0.07776531 0.03061742 -0.010305731 -0.17970775 -0.124926634 -0.06934875 -0.06540034 -0.03347808 0.22188842 -0.08979136 -0.048040524 0.11999448 -0.004825649 -0.08350466 -0.08933321 -0.113040745 0.013529235 -0.021024076 -0.12282667 -0.006806811 0.17025527 -0.03516518 -0.057054095 0.014490373 0.16097364 0.06346319 0.036841754 -0.09304145 0.0073378216 0.09338792 -0.021934219 0.07881568 0.013548731 -0.041730408 0.021001996 0.05015712 0.009068609 0.064376704 0.010327518 0.012974517 -0.042928085 0.12186856 -0.05914027 0.15781195 -0.10877883 0.09319788 -0.13288964 0.114448905 0.08048647 -0.0367743 0.15644595 0.0055344244 0.07953024 0.0055083856 -0.033577994 -0.033086654 -0.010625522 0.04191903 -0.07980357 0.1397374 -0.057140175 -0.027528308 0.099452175 0.050482266 0.14203125 0.042628873 0.08565047 0.1815714 -0.021502873 0.08870379 0.17684212 0.02873133 0.05226387 -0.0932225 0.05734845 -0.0011472416
간식 0.06360224 0.023386924 -0.15539421 -0.15241022 0.14125484 -0.11387811 0.1333861 0.36452308 0.060226355 -0.0908039 0.004172827 -0.15475884 -0.0704942 0.08947203 0.077617526 -0.03028687 -0.06225441 0.008821621 -0.14389552 -0.36562315 0.016747093 -0.12527126 -0.04634443 -0.066009626 -0.1070376 0.031043073 -0.0087734 -0.26782262 -0.19309863 -0.09801342 -0.107950054 -0.066368565 0.3196181 -0.13998432 -0.061758112 0.15848246 -0.035301663 -0.12771663 -0.12207529 -0.15014005 0.012731449 -0.04445707 -0.17575382 -0.028201653 0.22534043 -0.049961835 -0.07568603 0.025447119 0.2377925 0.09518029 0.049879096 -0.13903421 -0.002863098 0.1603452 -0.017689086 0.11900961 0.015568022 -0.073297866 0.047614615 0.07719909 0.016953655 0.07882996 0.008765117 0.02959032 -0.064459674 0.17368431 -0.08605416 0.20855409 -0.14689314 0.14383751 -0.18006608 0.14643446 0.11161366 -0.055150438 0.21593492 0.0038676625 0.10120844 0.010711734 -0.03862734 -0.0415483 -0.018316582 0.07038027 -0.11571921 0.20678125 -0.09234188 -0.046729032 0.116383 0.076515056 0.22305785 0.07570096 0.11875714 0.24116854 -0.05240377 0.13485232 0.22566655 0.043076944 0.060602907 -0.12968527 0.071466334 -0.008620933
어떠신가요 0.057150614 0.0012129836 -0.155439 -0.13497065 0.14814374 -0.123783045 0.13523339 0.3789019 0.050906938 -0.091295265 -0.006841399 -0.17014463 -0.06771726 0.10098778 0.09547902 -0.013659521 -0.05974139 0.0140493605 -0.16637173 -0.35133383 0.02354786 -0.1201545 -0.059675034 -0.057670478 -0.093310624 0.045430094 -0.027307075 -0.263748 -0.19913284 -0.09257029 -0.11535913 -0.04914757 0.30399203 -0.14884256 -0.072251625 0.18190274 -0.027344188 -0.14285754 -0.14067908 -0.15953547 0.0058822767 -0.033771783 -0.16832094 -0.027751116 0.22958703 -0.05047638 -0.07491703 0.028659735 0.22948875 0.09196091 0.06684382 -0.15591672 0.009623155 0.1376483 -0.033713263 0.11317777 0.021008888 -0.058398765 0.039618235 0.08921136 0.013449586 0.07188856 0.0143377185 0.021878073 -0.06566002 0.19510171 -0.10543833 0.22298944 -0.13517433 0.1389392 -0.1812987 0.15258947 0.1049147 -0.065738834 0.233092 -0.0040825093 0.10805519 0.011638519 -0.03440917 -0.05831872 -0.025406482 0.069426484 -0.109584905 0.19750929 -0.09598122 -0.03100752 0.13012348 0.07557935 0.22622813 0.06365927 0.1340974 0.24447882 -0.04163199 0.13542785 0.23522668 0.046274964 0.07080447 -0.1413818 0.08309134 -0.016492417
일 0.05230396 0.017122336 -0.14702383 -0.14466819 0.15105736 -0.11676897 0.13674562 0.40236187 0.0745878 -0.10620692 -0.0106925145 -0.1730911 -0.06617489 0.09933139 0.08588866 -0.01359799 -0.0720664 0.00944758 -0.17659153 -0.36558604 0.015946077 -0.13306005 -0.056191113 -0.039603963 -0.10125066 0.06400027 -0.027056132 -0.26684585 -0.22142342 -0.112464115 -0.13949504 -0.048566993 0.32517025 -0.13563326 -0.06568016 0.20508695 -0.0021651925 -0.15301579 -0.15114425 -0.16494738 -0.001429366 -0.022925766 -0.1767473 -0.03411365 0.25166968 -0.06842019 -0.09996168 0.04322081 0.2658318 0.095731355 0.06209609 -0.14998579 -0.012935172 0.147621 -0.039635006 0.11842388 0.026145758 -0.080915906 0.02669412 0.0727912 0.02845136 0.08687291 0.04163079 0.04831358 -0.072387315 0.18322252 -0.09266984 0.23362808 -0.14023584 0.16088969 -0.17688617 0.16982804 0.12149935 -0.047748722 0.25949293 0.034134906 0.10637624 0.0024135541 -0.030311905 -0.046396576 -0.014688652 0.08205122 -0.10457251 0.19991873 -0.1084475 -0.04839589 0.15018862 0.08882806 0.23041296 0.08797363 0.1597229 0.30118376 -0.03896199 0.13950454 0.262272 0.051972676 0.06556932 -0.14669526 0.08265239 -0.014558673
고민 0.044056054 0.033288375 -0.15418576 -0.15757339 0.14713794 -0.12140662 0.12797508 0.38771734 0.059577923 -0.0992853 -0.0006514651 -0.15857485 -0.059302516 0.08835212 0.089902036 -0.023566546 -0.056545984 0.0023038602 -0.15303096 -0.38527486 0.00742263 -0.12836751 -0.059207503 -0.0682333 -0.11417408 0.0493734 -0.024023088 -0.2614568 -0.1873666 -0.109263964 -0.11502067 -0.04611181 0.2905956 -0.14509623 -0.05502515 0.1877708 -0.028184982 -0.15564139 -0.12484599 -0.17577794 0.005869454 -0.017901475 -0.18702896 -0.04622389 0.25417417 -0.05594285 -0.083500594 0.024395863 0.23360427 0.08259681 0.04035007 -0.14242621 0.000718825 0.16990224 -0.010699549 0.13486937 0.0053927586 -0.051716965 0.034083094 0.10024945 0.021614825 0.07372491 0.021518353 0.022129182 -0.07415298 0.18470483 -0.09551598 0.22941522 -0.13508043 0.16078204 -0.18117198 0.16968854 0.104434155 -0.06272925 0.21316454 0.024182767 0.115828514 -0.00047108787 -0.030846616 -0.059287485 -0.012822986 0.0673582 -0.12784253 0.2138407 -0.09017705 -0.037670556 0.13411161 0.088525996 0.2313257 0.07749149 0.10576991 0.24152087 -0.025641108 0.13890204 0.24378654 0.023593843 0.080088705 -0.13281196 0.097111985 -0.0070154723
다 0.07202352 0.004966429 -0.14097962 -0.1315953 0.14719573 -0.10051658 0.13057044 0.32256627 0.04626547 -0.060811926 0.004760916 -0.1527663 -0.061227284 0.083492324 0.085702226 -0.007139181 -0.05556542 0.0139160585 -0.15063167 -0.32416385 0.0056002606 -0.09910728 -0.054564834 -0.061289128 -0.08881282 0.051725443 -0.008550676 -0.23465015 -0.17616442 -0.08893045 -0.09221124 -0.049582776 0.28775457 -0.13590169 -0.048304256 0.17859197 -0.006882697 -0.12606074 -0.12564574 -0.14729224 0.023508957 -0.04221579 -0.16329393 -0.01627202 0.20964852 -0.030086653 -0.093135335 0.048448574 0.21092531 0.064424224 0.0749491 -0.14427367 0.0024380803 0.14188047 -0.04025172 0.1143156 0.026580034 -0.03912038 0.024383059 0.05571876 -0.005059754 0.076947026 0.018043213 0.040977806 -0.03645214 0.17436722 -0.08809534 0.19400229 -0.13300635 0.13010533 -0.17043991 0.13970901 0.09817534 -0.04616672 0.20991656 -0.009816899 0.101956956 0.011650407 -0.022787351 -0.033822067 -0.028971188 0.04526216 -0.10604275 0.16875929 -0.10617747 -0.028455494 0.12566136 0.07555879 0.20803005 0.08467968 0.109884575 0.25937426 -0.047960274 0.11634761 0.22309282 0.022130199 0.05415714 -0.12530872 0.088447995 -0.012234208
면 0.055203993 0.017315852 -0.1197774 -0.13287401 0.13810028 -0.09175468 0.12645592 0.31899765 0.040993452 -0.060831435 -0.005337113 -0.15026288 -0.054422766 0.07263191 0.08890834 -0.021116553 -0.059713375 0.011216335 -0.14658396 -0.31813988 0.027573835 -0.10191171 -0.051204067 -0.053653542 -0.093836755 0.03589136 -0.010133402 -0.22675775 -0.18284675 -0.08134553 -0.09085476 -0.05431273 0.2705704 -0.124735855 -0.06493084 0.16736834 -0.006219985 -0.112809 -0.117369086 -0.13986127 0.01025278 -0.03828359 -0.15559223 -0.015106128 0.20819709 -0.040361594 -0.06916448 0.033918086 0.19411515 0.08022906 0.07401724 -0.14299403 0.004423546 0.12320506 -0.026979819 0.11204679 0.010439278 -0.057248324 0.02233031 0.051074985 -0.0016223512 0.080217786 0.029339705 0.020436827 -0.03609476 0.16477655 -0.07508365 0.19655979 -0.13962542 0.11786045 -0.15428938 0.14593197 0.1014267 -0.05696841 0.20680787 0.013103981 0.0867914 0.012864055 -0.025557587 -0.040268503 -0.021121992 0.03779846 -0.101897344 0.17950088 -0.095553026 -0.017701335 0.10637523 0.05812372 0.20261344 0.08062255 0.11771526 0.24729067 -0.032938145 0.100991145 0.22816123 0.019727487 0.05157679 -0.11990543 0.082982935 -0.020352935
의 0.07388107 0.01817895 -0.17711374 -0.18691464 0.16548729 -0.13703686 0.16611947 0.45962808 0.075278714 -0.10759118 -0.020353293 -0.17072427 -0.08179487 0.09637125 0.099809006 -0.009409055 -0.08301799 0.014498197 -0.20940581 -0.43340588 0.024733553 -0.13240814 -0.07528699 -0.052953612 -0.12186848 0.061383378 -0.028382232 -0.30617973 -0.24646308 -0.112179495 -0.15623541 -0.052928783 0.36035782 -0.16965403 -0.075872846 0.22200343 -0.011423845 -0.16398439 -0.15998378 -0.18412898 0.008610884 -0.04230656 -0.19683458 -0.029698359 0.30244908 -0.062218986 -0.11386857 0.059223153 0.28452793 0.10246573 0.067515284 -0.17654964 -0.0003109359 0.17465366 -0.04911396 0.14547712 0.026049359 -0.07173132 0.034122553 0.09892873 0.020786352 0.08667319 0.027183782 0.044090938 -0.06070447 0.22727041 -0.10542491 0.26797882 -0.17110607 0.16771024 -0.20463741 0.2081655 0.14528784 -0.05362981 0.2845563 0.02943386 0.11958796 0.02144008 -0.028697956 -0.06856855 -0.01353126 0.094705075 -0.12535456 0.2504052 -0.11067563 -0.04585053 0.17137837 0.10193573 0.26423433 0.09963688 0.18516457 0.3332295 -0.0623808 0.14798349 0.2887984 0.052648094 0.07411826 -0.1817697 0.11006038 -0.0051230695
어떨까 0.06175447 0.015233479 -0.12676421 -0.12122388 0.15001579 -0.09974577 0.117805324 0.33810323 0.04667869 -0.061922 -0.008463014 -0.13601588 -0.071109876 0.08325907 0.09159055 -0.021841789 -0.05401634 0.016156593 -0.13163021 -0.32097468 0.011068535 -0.092165776 -0.057003852 -0.05571813 -0.07771245 0.036499824 -0.022154652 -0.2434344 -0.17641176 -0.081856295 -0.10905138 -0.04786006 0.28732345 -0.1346279 -0.052337438 0.16901417 -0.020746646 -0.1319949 -0.111778915 -0.1409986 0.020811161 -0.036520097 -0.15157716 -0.014039664 0.21047434 -0.03750109 -0.08844723 0.04674 0.20755626 0.07055631 0.070470124 -0.123691835 -0.010444128 0.13756932 -0.02348066 0.10279025 0.021593362 -0.039619017 0.041572507 0.059452683 -0.00064059545 0.08015766 0.019959837 0.017988075 -0.050742663 0.15990877 -0.09103068 0.19637993 -0.13381234 0.12530208 -0.14784974 0.15052752 0.1024931 -0.0493591 0.21650954 0.0006023662 0.11137441 0.0030989777 -0.04290172 -0.051724806 -0.027753979 0.06993019 -0.10121807 0.16340281 -0.09131361 -0.034747407 0.115279004 0.08535974 0.20620154 0.069670446 0.118338145 0.24076825 -0.054835353 0.1210849 0.22856972 0.03645158 0.0627727 -0.12455907 0.07870747 -0.027008392
즐거운 0.047654066 0.009058494 -0.09595463 -0.08569924 0.093788736 -0.06805655 0.090161584 0.24936397 0.042399067 -0.050751746 -0.004623515 -0.106685065 -0.050924912 0.057919443 0.057333212 -0.00274138 -0.034184113 0.0039552907 -0.09560754 -0.23604153 0.01500579 -0.06475599 -0.01743347 -0.037155263 -0.068414025 0.02913828 0.0034322818 -0.14676215 -0.12709679 -0.053987443 -0.058206216 -0.04524091 0.21104726 -0.09000152 -0.046055205 0.11376524 -0.0041480213 -0.100676686 -0.07474745 -0.1093566 -0.003219632 -0.015811693 -0.11402618 -0.011112938 0.15962611 -0.021371368 -0.046852034 0.010857569 0.15345006 0.04256085 0.036573466 -0.08380375 -0.010899516 0.10087332 -0.023019176 0.062336568 0.021619625 -0.035494413 0.028218558 0.056729756 0.008219424 0.05271404 0.00036066058 0.032347344 -0.051700745 0.12575963 -0.06837372 0.1418243 -0.084084585 0.08588176 -0.11465918 0.09328746 0.062618025 -0.024361193 0.13733596 0.0028656318 0.06584127 -0.004502299 -0.031241074 -0.030630333 -0.00515575 0.045111578 -0.05993973 0.1284787 -0.048697487 -0.011233802 0.08940987 0.050790608 0.12493 0.046334375 0.088044085 0.14905806 -0.02245321 0.0723209 0.1647977 0.022059763 0.041925434 -0.08870594 0.060919594 -0.019503692
높일 0.05146164 0.027310042 -0.17116913 -0.16964704 0.16281576 -0.119722806 0.16249293 0.43639606 0.08420206 -0.11486577 -0.0035958088 -0.15836757 -0.08155662 0.09960357 0.08816768 -0.020929059 -0.06266601 0.01733888 -0.18089724 -0.40536848 0.026295831 -0.13847548 -0.070512086 -0.052989617 -0.10489208 0.039653454 -0.010152909 -0.29895815 -0.23684353 -0.122690216 -0.14606722 -0.04879916 0.3450079 -0.15603557 -0.0704608 0.21658896 0.0020367415 -0.16972575 -0.15287338 -0.17018086 0.009677308 -0.02941692 -0.18102877 -0.040206287 0.28600815 -0.061373815 -0.10111864 0.051559355 0.28528255 0.09128499 0.060152754 -0.15110806 -0.0062744943 0.17553371 -0.036423523 0.13104364 0.031832654 -0.08211135 0.044324193 0.08229595 0.026891096 0.09897055 0.03300353 0.025992371 -0.076551884 0.2089857 -0.10676186 0.2420491 -0.16417782 0.15912461 -0.21239495 0.18430254 0.12367128 -0.05787212 0.2699326 0.027718605 0.11135491 0.010117143 -0.045077357 -0.060659688 -0.010556138 0.09025796 -0.13181992 0.22911066 -0.100663416 -0.027025446 0.15435986 0.07724167 0.25881484 0.10145157 0.16022731 0.3058943 -0.049514174 0.14762574 0.27838317 0.057663675 0.065373205 -0.1708966 0.1106135 -0.020578844
수 0.051476035 0.020083588 -0.14946051 -0.15748127 0.13929895 -0.12741727 0.13963115 0.38134027 0.06014763 -0.08801243 -0.008893572 -0.14830802 -0.06914054 0.07617479 0.09394383 -0.020348975 -0.06907478 0.024812983 -0.16716233 -0.35619697 0.019549336 -0.118291594 -0.051970232 -0.039966293 -0.1070731 0.038553312 -0.008358504 -0.27692765 -0.19229537 -0.1020645 -0.11603159 -0.046572566 0.30867884 -0.13375895 -0.068982765 0.19758675 -0.002637197 -0.13852799 -0.1387867 -0.16339134 0.021026941 -0.024013164 -0.18064499 -0.04316886 0.24216567 -0.05489647 -0.099235594 0.03834576 0.25076616 0.07051808 0.051068794 -0.1508084 -0.003412809 0.1537399 -0.044089846 0.12420879 0.014321299 -0.07616319 0.040614434 0.089086235 0.03175396 0.09262946 0.012862315 0.017606126 -0.053134285 0.18828198 -0.08954399 0.21476635 -0.14635454 0.13972811 -0.1919448 0.17145404 0.1120725 -0.04414494 0.23020835 0.03623827 0.10312935 0.020109737 -0.04051473 -0.060246684 -0.0001363041 0.06305054 -0.121042304 0.21040066 -0.11113789 -0.027602697 0.13473938 0.07090305 0.23267314 0.081552535 0.14799492 0.2718916 -0.049080674 0.12593994 0.25287697 0.032433636 0.07662896 -0.14750473 0.0888258 -0.013214522
저 0.055514283 -0.0018719303 -0.13005027 -0.13355044 0.14379133 -0.104089 0.11346705 0.342151 0.06906622 -0.07187229 -0.006852106 -0.13143694 -0.07084426 0.086077936 0.071770966 -0.012177199 -0.0666743 0.0015621337 -0.15400705 -0.31628835 0.022078516 -0.09977515 -0.047690786 -0.042374603 -0.08207296 0.03956017 -0.019078804 -0.23254709 -0.17440148 -0.08290522 -0.113439634 -0.04896588 0.29111782 -0.13027962 -0.066299066 0.16659667 -0.013960238 -0.12375801 -0.12495691 -0.1293486 0.007539336 -0.024878576 -0.1641063 -0.024255786 0.22431916 -0.058173444 -0.071908586 0.030825125 0.22504659 0.088599436 0.04754279 -0.131478 -0.01017227 0.1478639 -0.014649522 0.11095254 0.0254958 -0.064543106 0.04056802 0.067176774 -0.004558596 0.06409654 0.015817562 0.023642698 -0.06553578 0.1642021 -0.091197476 0.1885762 -0.120098256 0.13411307 -0.16996965 0.1448592 0.09140556 -0.045974582 0.200898 0.013251767 0.11002024 0.0006074467 -0.03667371 -0.04992931 0.00077709346 0.053390685 -0.09824405 0.17792858 -0.09780473 -0.027137948 0.105642885 0.07840891 0.18910743 0.07985936 0.109600596 0.2338131 -0.038977932 0.1187359 0.22043402 0.036304448 0.05824814 -0.108677685 0.07183539 -0.020286089
가요 0.051701535 0.032354265 -0.1593622 -0.17302737 0.16532904 -0.13810922 0.1529336 0.41879502 0.08338221 -0.09866611 -0.001018094 -0.16538727 -0.063176125 0.10118916 0.097532794 -0.029211218 -0.0718063 0.01564087 -0.17070402 -0.4084647 0.02081599 -0.14415902 -0.06384191 -0.08041344 -0.104848176 0.052892815 -0.015106281 -0.27224034 -0.20327234 -0.12811397 -0.13219193 -0.062832646 0.31445444 -0.13459763 -0.059903633 0.19160134 -0.022374662 -0.16582735 -0.12494194 -0.18272519 1.1533781e-05 -0.035948157 -0.19406267 -0.051413897 0.2666046 -0.06679695 -0.07540911 0.02167998 0.25741768 0.09665697 0.037514217 -0.15022823 -0.006378536 0.17426851 -0.011864853 0.15276158 0.019871185 -0.04716739 0.045173984 0.10490052 0.024571827 0.07013941 0.016664155 0.018028175 -0.077929154 0.20743015 -0.118246935 0.23629177 -0.14267904 0.17441002 -0.17978802 0.16265057 0.13098502 -0.053970248 0.22862785 0.014095981 0.13012277 -0.0128647 -0.04602718 -0.040842414 -0.010091346 0.057789408 -0.13484831 0.20551607 -0.09419158 -0.026781483 0.13849188 0.08048551 0.25440818 0.0603225 0.11198517 0.25147066 -0.027952945 0.14045563 0.25089166 0.019691275 0.092823744 -0.14914991 0.085843205 -0.0029904621
으신 0.045775067 0.040228423 -0.14170872 -0.166847 0.14511143 -0.121315084 0.12954526 0.40012988 0.07487657 -0.085354865 -0.01781709 -0.16439635 -0.08169274 0.10945401 0.10693865 -0.025613854 -0.076882586 0.02068398 -0.1672766 -0.38128555 0.006339078 -0.13535815 -0.061285112 -0.053767525 -0.12141005 0.038853567 -0.014690195 -0.27475345 -0.18703032 -0.11089209 -0.12316747 -0.06849504 0.2937587 -0.13370311 -0.06638952 0.16791032 -0.007421621 -0.14234173 -0.11701338 -0.17109013 -0.0002910824 -0.015490014 -0.19060747 -0.050986733 0.24017693 -0.046959203 -0.093824245 0.031355597 0.26600578 0.09547358 0.030853543 -0.13872935 0.0067331465 0.15310298 -0.0113162715 0.1575464 0.02986845 -0.059241384 0.055109438 0.08714899 0.0063988473 0.08236257 0.0035505684 0.025756022 -0.0799506 0.17726865 -0.1125405 0.2355594 -0.13865009 0.17201003 -0.17842303 0.1502874 0.10491289 -0.065719016 0.22170298 0.0048839385 0.13492449 0.007203509 -0.05375016 -0.04137287 -0.0064505804 0.052694023 -0.12407119 0.22241068 -0.09713683 -0.03673324 0.127099 0.08639969 0.24344753 0.0575606 0.09997198 0.25147772 -0.037752684 0.14042713 0.25381798 0.026035102 0.07615583 -0.1364467 0.08959807 0.0028192631
합니다 0.059342697 0.024021594 -0.1563179 -0.1417852 0.15069577 -0.12040965 0.14952217 0.38363725 0.07007173 -0.084721655 0.0052238335 -0.15294151 -0.07029782 0.10262276 0.09093315 -0.008189918 -0.05805639 0.012147529 -0.16551378 -0.37070283 0.012621378 -0.123849414 -0.05188765 -0.054940145 -0.098507576 0.043811455 -0.011073616 -0.269146 -0.18927565 -0.092001095 -0.10164311 -0.052215565 0.31474116 -0.13830136 -0.07274271 0.17307049 -0.0155162485 -0.13954635 -0.12776522 -0.1645749 0.012683963 -0.037996873 -0.17199545 -0.03111161 0.23264481 -0.051697914 -0.08488583 0.0319279 0.23361236 0.09846346 0.04938687 -0.1427096 -0.007585678 0.16295588 -0.019753998 0.12435748 0.01536007 -0.0648736 0.030427014 0.077301465 0.016939556 0.064269155 0.02772686 0.036939684 -0.05793223 0.18093002 -0.09324047 0.20857191 -0.14342648 0.15471564 -0.17302726 0.15596555 0.111783065 -0.065230764 0.2274289 0.013554847 0.10490763 0.012698464 -0.03935551 -0.042462338 -0.0114109935 0.06545216 -0.112177156 0.19171439 -0.1040063 -0.035922173 0.11929108 0.08882846 0.22495608 0.07515335 0.13812342 0.25885695 -0.036045443 0.13140365 0.2522818 0.042484276 0.062488087 -0.13501261 0.07692192 -0.0070592063
내일 0.056724463 0.016287507 -0.10633715 -0.1235141 0.12267332 -0.09819333 0.10822105 0.29037416 0.060293097 -0.076689005 -0.00076402293 -0.13030455 -0.05254052 0.08404169 0.054900046 -0.003438471 -0.057231497 0.018422365 -0.1334939 -0.29053703 0.010597811 -0.09196445 -0.043945964 -0.04455962 -0.088847 0.046050236 -0.008073699 -0.20533358 -0.15588784 -0.067789584 -0.08427898 -0.05330949 0.2500787 -0.1177094 -0.04701949 0.1401449 -0.018167349 -0.10370907 -0.09703919 -0.12710166 0.011352703 -0.022600112 -0.1527901 -0.02397219 0.19441153 -0.045608956 -0.048921224 0.026624668 0.19519949 0.06255972 0.050436843 -0.12646835 0.003513683 0.12646692 -0.021423208 0.10352662 0.00024406167 -0.049163956 0.033594787 0.056158785 0.014984549 0.051157292 0.013803888 0.03828383 -0.04379756 0.14570332 -0.068139605 0.16165218 -0.11103157 0.11381408 -0.14042905 0.12976556 0.097451545 -0.050800234 0.17570268 0.018662374 0.082811356 -0.0028974894 -0.027428783 -0.0501586 -0.012080679 0.05460418 -0.097308725 0.15620562 -0.07907038 -0.031844866 0.10466978 0.065746345 0.16695605 0.067205705 0.10043532 0.20680846 -0.02437584 0.108513065 0.20270446 0.02768748 0.04993085 -0.10620966 0.070660494 -0.021255668
더 0.0549586 0.018082501 -0.12877518 -0.11988634 0.1248356 -0.09540653 0.11756988 0.30830443 0.07199379 -0.06353389 -0.017252529 -0.14244716 -0.057187878 0.08227476 0.06735178 -0.008310031 -0.061994463 0.009932698 -0.12427391 -0.31359565 0.016285568 -0.09903393 -0.037586663 -0.05887087 -0.09717935 0.035713486 -0.0008238609 -0.22506782 -0.1629366 -0.08745081 -0.090292 -0.051118292 0.2780358 -0.10984606 -0.06430846 0.15112573 -0.031818327 -0.12436201 -0.1058798 -0.13032384 0.0122999335 -0.042511992 -0.1458947 -0.028891876 0.19523814 -0.050860956 -0.07013323 0.03323936 0.19880973 0.07262223 0.05472481 -0.12881058 0.008216944 0.12755114 -0.021577494 0.10978981 0.020565461 -0.05691516 0.018750802 0.06641151 0.017318554 0.07579453 0.007948311 0.030733135 -0.04866616 0.14624065 -0.08490818 0.1908097 -0.12590066 0.11607542 -0.14643346 0.12737164 0.0910185 -0.04855033 0.20637712 0.01942548 0.091274515 0.0077041914 -0.020117952 -0.04662239 -0.021110056 0.049749624 -0.10354026 0.17902306 -0.0766081 -0.04135864 0.11798928 0.062744915 0.18502355 0.05589059 0.11426475 0.21752046 -0.030127505 0.11064582 0.20467247 0.03657346 0.04853205 -0.1117951 0.078828 -0.0131189255
컴 0.0588704 0.009984296 -0.13201655 -0.12814339 0.1442366 -0.08940975 0.11359456 0.34998167 0.053431734 -0.075491816 -0.017219774 -0.1431072 -0.0643315 0.100374214 0.07746276 -0.015756523 -0.06967318 0.0172299 -0.13390133 -0.31147543 0.02068947 -0.12634937 -0.045189355 -0.047476493 -0.08558353 0.039632138 0.0030420907 -0.24085371 -0.1779688 -0.087274686 -0.10591295 -0.049545713 0.28177747 -0.10986015 -0.05224745 0.15437636 0.0025867817 -0.13471468 -0.12587778 -0.13281566 -0.005829013 -0.014737665 -0.17235637 -0.033036526 0.2075271 -0.045751832 -0.06302697 0.049349237 0.22133423 0.09371791 0.051168732 -0.1360883 0.0070001404 0.13113318 -0.013803537 0.10340783 0.013135965 -0.06768514 0.051641874 0.06541683 0.0023533618 0.07060106 0.016556926 0.016559782 -0.077810064 0.1511588 -0.099466376 0.19987558 -0.1378274 0.14769018 -0.15982062 0.13772468 0.08966375 -0.06609089 0.18976665 0.0039077247 0.10292156 0.018907398 -0.022618892 -0.044271875 0.011343393 0.046424117 -0.11060786 0.1777217 -0.09449818 -0.03843846 0.11421952 0.057202276 0.19226262 0.07653005 0.10791674 0.23219296 -0.0417359 0.13686265 0.22217838 0.029463088 0.05025367 -0.12683795 0.08119147 -0.017051054
패니 0.037304528 0.0052364054 -0.13868606 -0.13183622 0.12879248 -0.09668402 0.13132581 0.3398138 0.07096562 -0.06488998 0.0016307859 -0.1236105 -0.05782132 0.091559574 0.08527174 -0.026639042 -0.058180742 0.013751644 -0.13028307 -0.3215645 0.0350688 -0.10760691 -0.059979316 -0.02998153 -0.093739666 0.043798465 -0.023805635 -0.24156778 -0.15923649 -0.08298688 -0.11844668 -0.051891822 0.26689288 -0.11296734 -0.042248618 0.15485147 -0.0013486816 -0.12728095 -0.113092884 -0.1333792 -0.011754635 -0.021368656 -0.16772372 -0.008113904 0.20393695 -0.034589723 -0.06609868 0.049427375 0.22205542 0.10137162 0.051175237 -0.122736946 -0.000253917 0.1364559 -0.0275223 0.110513255 0.027188487 -0.051612124 0.044357136 0.076448716 -0.001144392 0.07076377 0.0061304606 0.013590886 -0.07617659 0.16525848 -0.10146922 0.20962848 -0.13590413 0.1323485 -0.1714904 0.15439181 0.100817025 -0.05466379 0.19393393 -0.0022059896 0.09179176 0.025604153 -0.03834226 -0.038115334 0.0044914414 0.06658625 -0.09312017 0.17501506 -0.078606114 -0.027937947 0.09497131 0.058161497 0.18906851 0.07141773 0.111338004 0.22349395 -0.042571243 0.12792453 0.2192523 0.043306008 0.06792922 -0.114278615 0.08126607 -0.024788734
언 0.0535766 -0.0005549144 -0.120630704 -0.11881872 0.13690434 -0.08231976 0.123537645 0.31845906 0.048492238 -0.07521692 -0.014047958 -0.118320376 -0.049063236 0.098144144 0.067202285 -0.013817211 -0.06661157 0.01900767 -0.12575932 -0.2951237 0.03356319 -0.119959384 -0.062465977 -0.029246716 -0.07525504 0.019192882 0.0021492632 -0.22643027 -0.15634468 -0.0758067 -0.11424849 -0.038073897 0.2568171 -0.12010827 -0.04146555 0.15885729 0.004268786 -0.114743955 -0.11207265 -0.13723688 -0.0004259335 -0.023347128 -0.1516296 -0.009810613 0.21075113 -0.044730034 -0.069419995 0.04661698 0.2135107 0.07613274 0.053619195 -0.10835434 -0.0034559523 0.13727503 -0.029270105 0.085733 0.0048776995 -0.06997742 0.02994481 0.074709035 -0.0063558966 0.07426936 0.012468304 0.017256463 -0.07566795 0.1437398 -0.0844299 0.19787279 -0.12356401 0.13664286 -0.15716843 0.14716476 0.08560857 -0.062195506 0.18939695 0.0028872811 0.10469756 -0.00027026676 -0.023635453 -0.035042863 0.011068225 0.04820979 -0.09714025 0.15129761 -0.07668036 -0.03943206 0.109773375 0.0706112 0.18765199 0.078428194 0.090292126 0.22621909 -0.04548935 0.12675205 0.19991298 0.03106093 0.051447995 -0.10952211 0.08538204 -0.010061052
한 0.04775079 0.016398368 -0.14394796 -0.14916804 0.14640856 -0.10888682 0.13688658 0.35638946 0.07331646 -0.07045777 -0.0054665534 -0.15742001 -0.06799159 0.0961578 0.068700366 -0.025526661 -0.058717467 0.010482349 -0.15948379 -0.35521138 0.027987458 -0.105585255 -0.054510955 -0.06456342 -0.09452839 0.03136971 -0.012426915 -0.2547912 -0.19466124 -0.10348615 -0.10507624 -0.049323246 0.29886788 -0.14541242 -0.06837927 0.16724761 -0.03137363 -0.13429363 -0.115859814 -0.15889718 0.0048274123 -0.022613855 -0.16335687 -0.027664775 0.22279301 -0.062615074 -0.084182866 0.037069008 0.23594648 0.08271998 0.0665854 -0.15030602 0.0040231617 0.15716563 -0.029739192 0.12588935 0.011721981 -0.055123586 0.02773639 0.078443564 0.005156056 0.081991106 0.021666428 0.020892477 -0.0691745 0.16803364 -0.104221284 0.2143272 -0.12855902 0.13078374 -0.15848014 0.15720607 0.102699295 -0.055508472 0.21820079 0.013444477 0.112319335 0.018100074 -0.038672503 -0.058504775 -0.02603448 0.06936527 -0.11228185 0.18129085 -0.09918534 -0.029963095 0.1316952 0.07159145 0.21487834 0.07225702 0.13392892 0.25397408 -0.050250206 0.11134903 0.22693208 0.04030804 0.0684151 -0.116726145 0.08739636 -0.0022497186
