132 100
. -0.07372649 0.12862462 -0.120528944 -0.11804384 0.021068424 -0.23159143 0.014408098 0.30013368 0.03492283 -0.06516238 0.11265198 -0.24360062 0.0054982565 0.10484026 0.086900175 -0.11150814 0.1627969 -0.17494059 -0.015957236 -0.41565546 0.07102782 0.036063585 -0.01118602 -0.14870642 -0.061154712 0.046834752 -0.019583648 -0.033919986 -0.22908461 -0.017372085 0.142755 -0.042774443 0.20361325 -0.2619145 -0.03165686 0.11124311 0.04595765 -0.04740895 0.0202023 -0.11794595 0.05120998 -0.13120133 0.03951713 -0.1258873 0.1158516 -0.18435389 -0.09990881 0.03456468 0.20720278 0.17228223 -0.013717022 -0.021545954 -0.052593138 0.1444003 -0.05296709 0.06750564 0.189231 -0.047546744 -0.11064125 0.21853776 0.2031056 -0.014625696 -0.006662914 0.10003496 -0.016839255 0.05269854 0.022810461 0.16043545 -0.21151797 0.25445262 0.06072414 0.056666687 0.05753735 0.026622633 0.3298761 -0.058161017 -0.008375764 0.047792453 -0.08402136 -0.19610654 -1.1173268e-05 0.1061414 -0.20858805 0.24890135 -0.11234297 -0.06362148 0.06046643 0.15244639 0.10056361 0.09975302 0.2637095 -0.012371634 0.06121351 0.0390172 0.07171618 0.03716465 0.14252706 -0.0373627 -0.049468443 -0.023111993
오늘 -0.076735035 0.12464111 -0.110595256 -0.11305795 0.038193896 -0.21386425 0.008561915 0.2775416 0.03339319 -0.063115396 0.09572954 -0.23292756 0.003755116 0.097450756 0.08921886 -0.09656568 0.15234399 -0.15323032 -0.009186142 -0.37631747 0.06253904 0.022812232 -0.0058745802 -0.1500627 -0.05698778 0.048359964 -0.021855257 -0.03307369 -0.20628612 -0.0068883034 0.1504201 -0.04429437 0.18038633 -0.2396398 -0.021072589 0.107172385 0.042655516 -0.03015222 0.027146544 -0.092719786 0.06732039 -0.13259402 0.034394946 -0.11240923 0.10321807 -0.16242525 -0.0764456 0.02076331 0.18759224 0.15107402 0.003704716 -0.034114115 -0.04326766 0.13831407 -0.056442197 0.07550733 0.18003288 -0.028335497 -0.0965998 0.20015556 0.1813877 -0.011434796 -0.004310182 0.09231419 -0.010943767 0.050635338 0.03067188 0.13608314 -0.18623139 0.24143104 0.045081582 0.035921875 0.06377809 0.040391788 0.29926547 -0.05996448 -0.020225866 0.039258275 -0.07177824 -0.17682792 -0.010248339 0.10029129 -0.19546719 0.21453074 -0.099102035 -0.06373614 0.04636862 0.13341406 0.099765174 0.08163845 0.2425433 -0.0140514225 0.054776844 0.026647368 0.057788935 0.031738255 0.1472563 -0.031326037 -0.056066997 -0.025801646
? -0.06922217 0.12669253 -0.12578121 -0.11932652 0.042876806 -0.20385134 0.00426665 0.28261182 0.027314369 -0.049563006 0.0920533 -0.23899794 0.01703636 0.091080375 0.09755256 -0.113566734 0.15495144 -0.15556806 -0.014935872 -0.39531028 0.05535653 0.025121992 -0.018563041 -0.15498294 -0.056819137 0.03954008 -0.008563541 -0.030782923 -0.21768208 -0.009015669 0.15237486 -0.04969767 0.17700617 -0.24247475 -0.036156826 0.10824973 0.03683161 -0.034656826 0.020369165 -0.10992791 0.055373497 -0.12910287 0.04390643 -0.10588362 0.1143406 -0.17044131 -0.08449372 0.019776301 0.18556882 0.15209398 -0.002392171 -0.032235734 -0.04956333 0.13016948 -0.068845905 0.065199256 0.17378572 -0.039627735 -0.10592516 0.19312368 0.20109347 -0.018785741 0.013495946 0.09968021 -0.02786934 0.056789756 0.031595316 0.15918748 -0.20521073 0.24572188 0.05374716 0.053187486 0.06519983 0.0382935 0.30605912 -0.045760162 -0.0047491225 0.046223067 -0.08494607 -0.1786857 0.0023470963 0.090802334 -0.21665733 0.22845617 -0.103416555 -0.068841 0.041099314 0.13859324 0.11010554 0.08906696 0.24488805 -0.0064191576 0.06434457 0.032645207 0.07887148 0.037855584 0.15037392 -0.026897747 -0.037759684 -0.04169291
다 -0.06872084 0.11417339 -0.102421984 -0.108298205 0.031823803 -0.18681405 0.00922658 0.24826819 0.03981905 -0.057453524 0.09462432 -0.19425386 0.009098761 0.07189385 0.08727631 -0.09193054 0.13856399 -0.14786343 -0.012255232 -0.32825166 0.054790687 0.02384452 -0.004792854 -0.11315319 -0.06692295 0.044075195 -0.0071745794 -0.02906822 -0.17783046 -0.008345517 0.12418136 -0.04022297 0.1524638 -0.20980713 -0.020250166 0.10224001 0.03934602 -0.041352496 0.00626511 -0.084017046 0.05554254 -0.10538867 0.04693104 -0.100431666 0.104283966 -0.14715374 -0.073504195 0.017710859 0.1607863 0.1304576 0.0013502003 -0.021840362 -0.05029406 0.106084645 -0.057861026 0.059709772 0.15201125 -0.021800486 -0.07887548 0.16506833 0.16523524 -0.0065591745 0.007000575 0.086550206 -0.008226673 0.036317978 0.019326597 0.1376053 -0.17489658 0.19587271 0.05058022 0.037053153 0.04718924 0.0397526 0.26545152 -0.054164205 -0.017009923 0.045855045 -0.075613305 -0.15086381 -0.006056974 0.091520354 -0.17143904 0.20052823 -0.08905239 -0.0550174 0.053042494 0.13378729 0.08316115 0.06413474 0.20711437 -0.011893637 0.045225646 0.028511832 0.064410344 0.026277557 0.13203435 -0.03266713 -0.042363163 -0.029484233
은 -0.07603167 0.11949686 -0.1244682 -0.12119066 0.035193127 -0.1986922 0.007760668 0.27252147 0.032872118 -0.046291593 0.08794509 -0.21908092 -0.00017692598 0.093591526 0.07981372 -0.10593607 0.14411616 -0.15623313 -0.00053146476 -0.38383666 0.05946118 0.018950002 -0.0064009754 -0.13256644 -0.06664973 0.04677045 -0.016489273 -0.03187981 -0.21542674 -0.01092413 0.14996938 -0.03926261 0.18107723 -0.24489468 -0.018181033 0.09860602 0.029161308 -0.032547887 0.017977042 -0.10304243 0.059954613 -0.13635825 0.03374578 -0.101939686 0.115092754 -0.17818847 -0.08024423 0.02173903 0.19170886 0.14370687 -0.00084142043 -0.021001477 -0.033464182 0.13122374 -0.061602484 0.06224681 0.158708 -0.04617476 -0.09996983 0.1846166 0.19608007 -0.022462618 0.00314133 0.10212614 -0.018271552 0.04504531 0.032829948 0.1532168 -0.19697863 0.24435435 0.0459893 0.050986923 0.050892472 0.038372025 0.30468974 -0.04979194 -0.016711967 0.05252422 -0.06784173 -0.18273726 -0.00686925 0.08651676 -0.19692533 0.21894394 -0.10662407 -0.07129454 0.05578918 0.14733112 0.08530019 0.08123375 0.24521765 -0.019142479 0.057418473 0.028980931 0.06058815 0.021557072 0.14914021 -0.023067877 -0.04622375 -0.024799753
먹 -0.07110312 0.113135345 -0.105056316 -0.11614465 0.020527583 -0.18523553 0.011214349 0.24974908 0.02567257 -0.054036018 0.07895793 -0.20781775 0.00035170914 0.06626405 0.07538101 -0.104992904 0.1258023 -0.15231374 -0.0062473225 -0.3419143 0.04389795 0.027808445 -0.0030566347 -0.118860975 -0.06438406 0.034679312 -0.010505993 -0.042202372 -0.18387263 -0.00396394 0.1377761 -0.04955674 0.15844135 -0.22143638 -0.02279393 0.10728466 0.04040623 -0.027757347 0.021811614 -0.09875938 0.06278917 -0.12188856 0.030796723 -0.101676345 0.095109046 -0.15574731 -0.07598077 0.028297203 0.16613156 0.13154165 0.001957179 -0.033222027 -0.031835277 0.13190986 -0.06533645 0.061964698 0.16526435 -0.042439215 -0.09562783 0.16334392 0.18042594 -0.012071294 0.01286684 0.07790689 -0.010488419 0.042774707 0.021248063 0.13423552 -0.18461728 0.19877884 0.047084842 0.0499094 0.060253948 0.039456718 0.27047622 -0.039818738 -0.023025446 0.03966126 -0.07234487 -0.150818 0.008856336 0.07872835 -0.17619674 0.18836364 -0.0941442 -0.06563323 0.033742983 0.13913327 0.08457099 0.08409682 0.2290121 -0.0019954706 0.040128984 0.027292518 0.07030293 0.03387663 0.12703353 -0.033304177 -0.034822743 -0.03987947
이 -0.062298913 0.12116634 -0.12461912 -0.12364434 0.031227302 -0.22237943 0.013632716 0.28656173 0.033541948 -0.061541934 0.10797663 -0.23855877 0.011735151 0.106290385 0.0832004 -0.109125964 0.1688823 -0.16646738 -0.004418573 -0.41030517 0.06429949 0.028382959 -0.0055656154 -0.15107396 -0.06534268 0.05280803 -0.023809213 -0.042849883 -0.2158336 -0.018653577 0.15660581 -0.028501704 0.1898743 -0.24478616 -0.035189353 0.114151314 0.027522977 -0.051018227 0.013649215 -0.120862685 0.07142685 -0.14216018 0.057839245 -0.12951535 0.11663017 -0.17221153 -0.09751666 0.011189305 0.19227362 0.1546556 -0.007680036 -0.036079075 -0.05408246 0.1464063 -0.067079686 0.061569195 0.17760867 -0.046493214 -0.11229836 0.19706562 0.2038214 -0.02321586 0.0083569195 0.10901881 -0.019781874 0.057667848 0.015059158 0.14509372 -0.21339545 0.24447219 0.04981236 0.0549437 0.058166627 0.040928084 0.32824898 -0.0650983 -0.010983437 0.05105696 -0.082624674 -0.1749736 0.008116919 0.09507648 -0.22218254 0.23902489 -0.10711764 -0.074477345 0.06352274 0.14815734 0.09784789 0.091481216 0.25313812 -0.01250177 0.052593555 0.036122937 0.06445377 0.030108048 0.1582107 -0.03293263 -0.052618816 -0.026984708
좋 -0.05702835 0.11272685 -0.10017796 -0.10233028 0.027539823 -0.19877727 0.013724047 0.25949687 0.026095197 -0.05848283 0.08842233 -0.22282034 0.012610405 0.08441205 0.0832664 -0.09885963 0.14940861 -0.15610959 -0.013118744 -0.3800408 0.056967705 0.03829657 -0.0129322475 -0.14672908 -0.069110885 0.050824545 -0.021000441 -0.02491302 -0.20915744 -0.003222221 0.13269061 -0.03698851 0.17213649 -0.23455556 -0.031968784 0.10176133 0.029455815 -0.04049171 0.012499164 -0.09909376 0.06611249 -0.12875068 0.039687254 -0.10313938 0.114846714 -0.17176154 -0.08810133 0.016131135 0.1910793 0.14692503 -0.013872554 -0.029199498 -0.032269794 0.12218901 -0.062872544 0.076714784 0.15684116 -0.03054628 -0.0950868 0.19103387 0.1943224 -0.018506194 -0.0023379014 0.10324082 -0.013577025 0.053189263 0.01035695 0.15098803 -0.18974341 0.22020145 0.052752025 0.045705657 0.06079809 0.028761925 0.28868198 -0.048888348 -0.004849135 0.035188667 -0.07306299 -0.17657268 -0.004719421 0.08990272 -0.20468941 0.21902438 -0.09580131 -0.06307341 0.050319564 0.14968215 0.100820005 0.08214174 0.23855874 -0.01755145 0.04157972 0.037785955 0.06266757 0.027199369 0.13733613 -0.03192271 -0.03856354 -0.035842482
뭐 -0.06542723 0.10769598 -0.087304436 -0.08371038 0.03532908 -0.16179678 0.016973551 0.21576588 0.020454424 -0.038407985 0.079058476 -0.1916318 0.017321821 0.06891793 0.08011849 -0.08449701 0.11015423 -0.13172588 -0.013278825 -0.30892035 0.049976796 0.03322964 -0.001374885 -0.12195892 -0.048114028 0.038172547 -0.014843673 -0.03763304 -0.16485958 -0.01847861 0.12477478 -0.041234367 0.14973857 -0.17845242 -0.020839306 0.09115766 0.028235802 -0.020585278 0.018477518 -0.0943993 0.045854624 -0.10019916 0.03374146 -0.088423595 0.085224435 -0.13872425 -0.06717573 0.021906724 0.14496939 0.116281204 -0.0026238495 -0.02377714 -0.033853523 0.10447702 -0.043284867 0.054088503 0.14003874 -0.027826525 -0.0725146 0.14671662 0.14709628 -0.01664627 0.014117211 0.07570841 -0.024257904 0.035167895 0.014580132 0.12484816 -0.16524863 0.19121376 0.030216437 0.039181497 0.05359102 0.036720466 0.23527868 -0.048489578 -0.017016008 0.024691144 -0.07380674 -0.14201988 -0.0008924419 0.06866171 -0.1566688 0.17822976 -0.07733373 -0.049308103 0.035356943 0.106343664 0.075795196 0.0752377 0.19098297 -0.007660477 0.047011476 0.02585028 0.06551285 0.034461755 0.11729121 -0.015602327 -0.02901118 -0.032262713
아 -0.06855884 0.09916224 -0.11365643 -0.09933931 0.02460464 -0.19344275 -0.00010230715 0.24840173 0.031729188 -0.05366133 0.0873356 -0.20425105 0.0069604586 0.08242827 0.0736175 -0.08208109 0.13648166 -0.15684941 0.0015083158 -0.34571683 0.05296007 0.029521154 -0.018618908 -0.12868328 -0.049697775 0.03622667 -0.024641119 -0.023667606 -0.18415901 -0.015676606 0.13456346 -0.030434277 0.16602203 -0.19826534 -0.034861717 0.09968258 0.031320486 -0.03046492 0.017703878 -0.089917175 0.057648487 -0.10661702 0.03984609 -0.10846933 0.09364796 -0.15350609 -0.07990325 0.025023242 0.17234784 0.14336067 -0.0019313885 -0.014652384 -0.042335995 0.12759621 -0.04658193 0.051474962 0.14922957 -0.036334094 -0.08369158 0.17195694 0.16768269 -0.003949693 0.009393209 0.08748032 -0.01828729 0.036668833 0.015816823 0.11719187 -0.17396915 0.20512769 0.049285226 0.04525204 0.0449028 0.020229727 0.27224302 -0.056578234 -0.008122848 0.035215024 -0.062482182 -0.15277709 0.003976098 0.08435497 -0.1820055 0.2098226 -0.08776931 -0.06280222 0.03458686 0.13265328 0.09401519 0.08280915 0.20741178 -0.0016619249 0.05264664 0.039283503 0.06190483 0.017222157 0.11855821 -0.016360426 -0.031801492 -0.020660467
어 -0.059591744 0.11513374 -0.107977964 -0.12829454 0.023426713 -0.2092228 0.0010465739 0.26963454 0.033036087 -0.0620079 0.103551775 -0.22441487 0.015817389 0.08021822 0.09225896 -0.09542836 0.14367549 -0.16098186 -0.000582371 -0.37619025 0.055740803 0.024135329 -0.008075841 -0.1398884 -0.06767894 0.047233745 -0.01468249 -0.041780803 -0.1922689 -0.008128408 0.13347141 -0.040292755 0.1854778 -0.2214764 -0.018707572 0.108237326 0.035881992 -0.03609724 0.011693924 -0.10362163 0.055508792 -0.123884045 0.03899151 -0.10015029 0.09784634 -0.17349687 -0.08623514 0.022834476 0.17317954 0.14802006 -0.008925431 -0.02651767 -0.049320567 0.13303109 -0.05397944 0.06452434 0.16360638 -0.037590902 -0.087504424 0.1906994 0.1756225 -0.015150892 7.628035e-05 0.097517624 -0.023803867 0.050136358 0.013126067 0.13620181 -0.18508627 0.22307403 0.053472705 0.053434975 0.05200184 0.04440937 0.29649246 -0.045119833 -0.007599402 0.031755958 -0.08016006 -0.16241035 0.006706801 0.10321561 -0.18872178 0.2237386 -0.10605362 -0.052864943 0.038357086 0.14600524 0.10149937 0.087863185 0.24492413 -0.01110228 0.049761813 0.04087431 0.05253212 0.031276558 0.14905162 -0.0350334 -0.040767204 -0.040016938
는 -0.05473187 0.122338414 -0.1102274 -0.10418947 0.031664822 -0.20328079 0.005809708 0.26474032 0.026749274 -0.0553622 0.09379527 -0.21213871 0.0058447425 0.08119586 0.086291015 -0.103775255 0.13677333 -0.16084792 -0.010496179 -0.36900082 0.051773228 0.018466514 -0.010372 -0.14504021 -0.0703596 0.03372938 -0.025767911 -0.027478931 -0.18919754 -0.0112049915 0.13357338 -0.044502072 0.17182264 -0.22045472 -0.025862211 0.102151416 0.03279714 -0.03484735 0.010179735 -0.10770909 0.048537306 -0.123559564 0.043685414 -0.09782828 0.09820774 -0.16500208 -0.07045174 0.02051858 0.17373124 0.15028164 -0.002054721 -0.031311866 -0.03329666 0.1330049 -0.061452366 0.0637728 0.16221131 -0.029335236 -0.095480226 0.17847583 0.18428269 -0.013523785 0.004156364 0.09017625 -0.022831764 0.05209531 0.030081134 0.14593913 -0.19412713 0.22360258 0.04206332 0.05350045 0.05714736 0.03841625 0.28834358 -0.044375896 -0.01897173 0.04803366 -0.07633389 -0.16863978 -0.0004594559 0.100880384 -0.19866076 0.208879 -0.089132555 -0.06103933 0.038272288 0.12923184 0.10135746 0.08877543 0.23525243 -0.014650862 0.04150311 0.03723677 0.06916552 0.021157647 0.12522435 -0.027906643 -0.046989426 -0.031924095
피곤 -0.061845135 0.097631134 -0.08884646 -0.11455746 0.030753085 -0.17337678 0.003155007 0.24463587 0.044469688 -0.05577444 0.0777108 -0.19792469 0.0002754271 0.07451093 0.06738526 -0.099309206 0.12629291 -0.13711406 0.003336653 -0.32699475 0.045740645 0.023036638 -0.013306988 -0.11313696 -0.056732513 0.048720535 -0.023122072 -0.021786075 -0.17604531 2.6471298e-05 0.11096785 -0.031985242 0.15582678 -0.19993722 -0.027887186 0.0798904 0.019439891 -0.042261057 0.016435245 -0.089837596 0.049361553 -0.0978592 0.036585532 -0.098892786 0.08125873 -0.1599214 -0.063492715 0.011849417 0.15285915 0.13501745 0.004066967 -0.026031852 -0.03719936 0.10716118 -0.045849446 0.053217303 0.14172652 -0.026753988 -0.072824955 0.17419104 0.15159605 -0.018881217 0.0072880755 0.0865423 -0.015780997 0.038979437 0.03243641 0.12030004 -0.17790066 0.20265415 0.04862936 0.045325045 0.051327836 0.02291799 0.2588945 -0.047962274 -0.004909648 0.02676492 -0.07642507 -0.14648299 -0.011314139 0.0926714 -0.17259522 0.20304643 -0.09270231 -0.05299334 0.051572815 0.119829215 0.07825716 0.07636733 0.210175 -0.012966994 0.053466674 0.022700453 0.05307274 0.024890766 0.13179493 -0.01481617 -0.032372516 -0.013608902
, -0.09004476 0.14694333 -0.14131582 -0.13748246 0.031456523 -0.24402544 0.0024319517 0.30557296 0.037089746 -0.06700664 0.104075104 -0.25373915 -0.006983692 0.09369322 0.11326239 -0.109279685 0.17554644 -0.18019685 -0.0060619274 -0.44239298 0.074398525 0.039245784 -0.008642875 -0.15223679 -0.06471939 0.060748138 -0.029482706 -0.051006705 -0.23457968 -0.007340307 0.16914864 -0.04231724 0.21657832 -0.27375183 -0.024140226 0.117514744 0.032495424 -0.034388844 0.025484998 -0.12554781 0.06551125 -0.15228271 0.05686699 -0.120757416 0.12405618 -0.20170733 -0.1026466 0.027749777 0.22142081 0.16953681 -0.004260187 -0.030606229 -0.05854848 0.15382043 -0.069404945 0.08242801 0.20578903 -0.044294033 -0.114798166 0.22794832 0.22276044 -0.0040725716 0.0018478491 0.120705605 -0.008356973 0.05546258 0.03539919 0.17748843 -0.21749811 0.26559788 0.05261 0.047516834 0.05688259 0.042882845 0.3595894 -0.053679276 -0.021189071 0.057053577 -0.08713867 -0.20660104 0.005331644 0.10489676 -0.22197804 0.26527295 -0.10819172 -0.06228393 0.06432488 0.17523223 0.11094504 0.088405505 0.2919088 -0.0074437847 0.06226186 0.040626172 0.06784751 0.03246062 0.17253047 -0.038063414 -0.05878254 -0.024956185
네 -0.052095495 0.11833911 -0.10353552 -0.11437746 0.03413739 -0.19472538 0.0129709 0.25016367 0.04209206 -0.06256654 0.09680453 -0.21350247 0.00072408706 0.0730686 0.071305394 -0.08424309 0.14629136 -0.1500587 -0.0016307496 -0.34869978 0.061168224 0.033190783 -0.014546722 -0.13233279 -0.065130316 0.04771605 -0.016661214 -0.034460463 -0.17800035 -0.016288662 0.118290365 -0.03565949 0.16391614 -0.21991296 -0.032489616 0.087155186 0.039781317 -0.02981073 0.016179323 -0.08793823 0.061954327 -0.11626986 0.04759181 -0.09989237 0.10359492 -0.14785783 -0.08172906 0.015916634 0.17070097 0.14115152 -0.002464916 -0.017609024 -0.035791133 0.11267735 -0.054283235 0.054414943 0.16413775 -0.027653752 -0.089230105 0.17929916 0.165465 -0.021175189 0.0027191998 0.09835446 -0.008429007 0.050930347 0.015989741 0.12531565 -0.17727259 0.20955488 0.039185166 0.03437073 0.058237266 0.027457079 0.27269903 -0.05674747 -0.0034879465 0.040413707 -0.06755675 -0.15453346 -0.0062307063 0.088468805 -0.17981584 0.19577806 -0.08398866 -0.054039363 0.054601084 0.13636777 0.08563789 0.07044624 0.2273047 -0.0100663705 0.05170178 0.038081545 0.056858093 0.018637184 0.12823588 -0.016292682 -0.048858285 -0.016324494
좀 -0.0772814 0.12852575 -0.11702675 -0.11405926 0.024717793 -0.2167756 -0.0008022636 0.27781388 0.035669126 -0.04870569 0.09491051 -0.23791793 0.0022808404 0.0995593 0.08052449 -0.10864236 0.14110962 -0.15643151 -0.001251766 -0.38060805 0.05474661 0.033301294 -0.020057607 -0.1478331 -0.07343875 0.045936562 -0.018361988 -0.030788979 -0.20805681 -0.021755455 0.13730803 -0.049696095 0.18705465 -0.22578886 -0.035290223 0.1136518 0.042826053 -0.04414747 0.009808068 -0.09610384 0.07026311 -0.13369627 0.038641244 -0.10851451 0.11227028 -0.16607046 -0.09536294 0.011320961 0.19262534 0.14425536 -0.010839477 -0.028379362 -0.034018558 0.1454169 -0.060559988 0.075257264 0.18618545 -0.04078805 -0.08876888 0.20363806 0.19617702 -0.019418415 -0.007444159 0.09733771 -0.0038211872 0.038399767 0.020322027 0.15402856 -0.19399258 0.24453036 0.041367795 0.04196963 0.063078366 0.029565394 0.3152538 -0.046328336 -0.014974608 0.041220203 -0.07924208 -0.18266574 -0.008582107 0.096665375 -0.20667177 0.23321836 -0.108244956 -0.058192972 0.040349398 0.13880388 0.10721706 0.09704294 0.24201383 -0.00934414 0.047676954 0.02581347 0.05253332 0.038675576 0.15051773 -0.017157974 -0.042042762 -0.020327682
을까 -0.050032377 0.0803436 -0.07976606 -0.08677276 0.033921506 -0.15044062 0.0038483874 0.21166237 0.026517509 -0.039166763 0.06383837 -0.18001239 -0.00061142974 0.07622145 0.056435354 -0.07072355 0.09844086 -0.11950123 -0.0071903407 -0.29121023 0.056409027 0.02956047 -0.0068667186 -0.1003395 -0.046392854 0.0414442 -0.0051810183 -0.036242273 -0.15837757 -0.011188387 0.11255726 -0.036127377 0.13546415 -0.18303587 -0.015416031 0.08523872 0.03220042 -0.029110886 0.0054943445 -0.088180274 0.042847794 -0.10323891 0.025585143 -0.07471372 0.08641392 -0.12393213 -0.070896246 0.011603243 0.14649864 0.11498281 -0.007127828 -0.029378332 -0.030686034 0.1032365 -0.040673267 0.055200484 0.12128033 -0.0351589 -0.0788759 0.14232102 0.14682561 -0.005548919 0.0070370194 0.07594494 -0.01455813 0.037681192 0.00795355 0.11821706 -0.13679019 0.1789419 0.045003507 0.043345463 0.0442668 0.025837945 0.22550468 -0.049354106 -0.00036287063 0.023796823 -0.04971723 -0.13323425 0.00018324654 0.06106192 -0.16048725 0.1557878 -0.08393213 -0.045876328 0.025702963 0.100159235 0.067530006 0.061019905 0.1893346 -0.0036038745 0.0498462 0.03268839 0.045070674 0.031047864 0.095726006 -0.023923442 -0.040359244 -0.022025123
너무 -0.051953983 0.100208916 -0.088571854 -0.10173239 0.03397174 -0.16922612 0.014277944 0.21612804 0.025845988 -0.04799175 0.071531385 -0.18174286 0.015884252 0.06557736 0.07705199 -0.0921754 0.115300804 -0.12912707 0.0035855295 -0.30510807 0.05553465 0.01704404 -0.018344551 -0.11531996 -0.052422844 0.031733472 -0.015710259 -0.036245532 -0.15795982 -0.009144636 0.10765918 -0.02719069 0.1341131 -0.18640482 -0.014117706 0.0928986 0.016421128 -0.022203876 0.020692062 -0.08786314 0.054885812 -0.108548 0.043819677 -0.08074544 0.08548642 -0.14001012 -0.07130049 0.014173981 0.14720821 0.11856731 0.0048458464 -0.008225512 -0.023648517 0.101270705 -0.03594249 0.052192777 0.13874082 -0.024378685 -0.078176655 0.15449096 0.14346509 -0.015176763 -0.008503778 0.07767567 -0.004607434 0.038364176 0.020129561 0.117319904 -0.14346904 0.17307884 0.041827574 0.02818125 0.047432125 0.03751524 0.24439262 -0.035450615 -0.0016956181 0.04020565 -0.053742692 -0.1256149 -0.005081906 0.08560811 -0.15163343 0.17036183 -0.068659864 -0.039453693 0.048621785 0.1175321 0.086305864 0.06785938 0.20052175 -0.0053533707 0.04734012 0.023666088 0.05513529 0.030174812 0.10777003 -0.025032133 -0.0321079 -0.030322075
지 -0.042448577 0.0817189 -0.094073355 -0.085057415 0.03315641 -0.16212219 0.00954986 0.21641652 0.01756855 -0.047030516 0.06489878 -0.17633183 0.00946335 0.07869722 0.071970284 -0.07800199 0.114987 -0.11444444 0.005045482 -0.28308743 0.054106794 0.01445013 -0.014974523 -0.11271623 -0.041643273 0.03133303 -0.024285093 -0.018317861 -0.1464189 -0.013496305 0.11894077 -0.029953785 0.13251923 -0.17729391 -0.019177962 0.07822319 0.030602932 -0.02180018 0.021052547 -0.08980159 0.04212808 -0.10260308 0.041212276 -0.07814593 0.07527935 -0.12705697 -0.06958969 0.017794264 0.15038304 0.11012807 -0.007982031 -0.029168488 -0.03656898 0.101524554 -0.03925926 0.06170741 0.124844074 -0.025480084 -0.0649306 0.14547427 0.14455426 -0.0001821944 0.012058434 0.081677265 -0.019456603 0.04490536 0.024083922 0.11888781 -0.14893307 0.17989483 0.045637578 0.031980485 0.049374044 0.028895438 0.23908372 -0.04441538 -0.012564235 0.03871179 -0.06884877 -0.13853897 -0.0061178394 0.071157336 -0.15494454 0.17674555 -0.06809069 -0.047404513 0.036705684 0.11105762 0.07155523 0.05752929 0.19389313 -0.013360917 0.046387043 0.03611321 0.052700497 0.025127348 0.11137464 -0.024311073 -0.029000875 -0.022608962
하 -0.039013218 0.090890266 -0.07680413 -0.07334224 0.010697102 -0.13552105 0.014910714 0.18284221 0.028404508 -0.046751387 0.07018783 -0.1505739 0.015732158 0.06345237 0.06390127 -0.0673441 0.10998819 -0.11574982 -0.01055514 -0.26101446 0.037253145 0.023353605 -0.02069233 -0.09864866 -0.05435975 0.0378622 -0.013498715 -0.035523623 -0.13422804 0.0032199302 0.09032744 -0.03618198 0.12615143 -0.16153072 -0.03040433 0.08045751 0.016285906 -0.032174908 0.007933661 -0.07568541 0.04299022 -0.07417689 0.03543535 -0.067961425 0.07300791 -0.115547895 -0.06339047 0.004321847 0.13081266 0.106924705 -0.014639555 -0.021103304 -0.042387567 0.08366764 -0.032398205 0.054810457 0.12372826 -0.021178393 -0.055788275 0.13169535 0.12583235 -0.020984272 -0.0031411413 0.06481526 -0.008485673 0.040178407 0.010031303 0.09359644 -0.14057909 0.15584473 0.030807024 0.031858448 0.041613664 0.014702509 0.20012324 -0.035024825 -0.0017282733 0.03594749 -0.05727904 -0.12325883 -0.009314854 0.06583774 -0.13168605 0.15418215 -0.059408817 -0.042099766 0.0329978 0.09298059 0.06522732 0.049127586 0.16278295 -0.007784316 0.025818365 0.034574233 0.02893058 0.009242331 0.087637484 -0.009808773 -0.025987774 -0.0068407063
점심 -0.05365671 0.10061934 -0.0959152 -0.0855593 0.03231959 -0.16373481 0.006211111 0.22375603 0.035430398 -0.044570886 0.07913835 -0.18707894 0.013748157 0.075824924 0.0747371 -0.09326974 0.11262322 -0.12763003 -0.01138868 -0.3100767 0.049655467 0.02795557 -0.020430552 -0.105761915 -0.052236035 0.02915296 -0.009027418 -0.029887622 -0.17603068 -0.015911533 0.11838217 -0.044384595 0.14746219 -0.18803652 -0.023526391 0.09026927 0.034001857 -0.018248307 0.017623119 -0.083918296 0.05003503 -0.106626295 0.02559978 -0.08118649 0.08468179 -0.14952506 -0.074629284 0.014398637 0.15588467 0.12768418 0.0037066597 -0.029044066 -0.033549737 0.106969416 -0.052686203 0.06354292 0.14397565 -0.03174729 -0.08856597 0.15110603 0.15552877 -0.0025782967 0.009850227 0.068830885 -0.024104996 0.04425863 0.016639896 0.11605655 -0.15160409 0.1836514 0.046482943 0.03852222 0.041187327 0.029624816 0.25193605 -0.034095157 -0.008200175 0.038247805 -0.0696455 -0.14193957 -0.0048596235 0.07859952 -0.16682117 0.17668281 -0.08999908 -0.03964453 0.0394887 0.1144423 0.07556974 0.0788148 0.19190012 -0.005990703 0.045500323 0.03658093 0.06249975 0.021976082 0.11738097 -0.025667168 -0.045264155 -0.031017788
배부르 -0.043589387 0.08518267 -0.067554206 -0.07009456 0.012356805 -0.12916967 -0.002005581 0.17828737 0.024473755 -0.029863086 0.06919506 -0.14388414 0.013909226 0.05846106 0.052399702 -0.07468918 0.10398284 -0.11311382 -0.005886578 -0.24462709 0.0372989 0.012617459 -0.012545568 -0.09184144 -0.038748935 0.035611603 -0.015755298 -0.022724964 -0.1277396 -0.004420061 0.09788317 -0.031855453 0.12541871 -0.164774 -0.013437381 0.060931917 0.018892976 -0.034121916 0.010714468 -0.0756619 0.0343011 -0.0822434 0.033433437 -0.07454867 0.06312268 -0.11817263 -0.055973448 0.012077835 0.113352194 0.097999424 0.004839521 -0.010703503 -0.038843002 0.092454344 -0.045102656 0.034355137 0.11359895 -0.02416289 -0.07158575 0.12055388 0.1227421 -0.0012016516 -0.009264648 0.07311843 -0.011234992 0.03206158 0.024849303 0.10212226 -0.1317341 0.1577857 0.03716346 0.036598366 0.036529806 0.01818222 0.20085773 -0.042062987 -0.008068902 0.03332113 -0.046473425 -0.10525211 -0.007028568 0.058588374 -0.12536705 0.14831875 -0.07208698 -0.03741273 0.033674013 0.09387701 0.058598015 0.062693655 0.17161478 -0.01639433 0.034132417 0.020874394 0.032496125 0.019503947 0.08780043 -0.00972255 -0.03518979 -0.016900852
잘 -0.05858879 0.109940596 -0.100960396 -0.0924092 0.027787408 -0.18558362 0.003721164 0.23618494 0.028261727 -0.05671912 0.079728045 -0.20141883 0.014083252 0.07917998 0.084953696 -0.08058069 0.12176871 -0.13995929 0.003511255 -0.3229145 0.054238394 0.03169218 -0.022507703 -0.11051074 -0.045586295 0.047612168 -0.024882158 -0.0264909 -0.1679285 -0.011807555 0.114614986 -0.029460007 0.1484954 -0.2096558 -0.017387044 0.10179215 0.03978575 -0.035836942 0.005269839 -0.08002944 0.055838544 -0.11306407 0.030254016 -0.10224684 0.08674773 -0.15178445 -0.07189907 0.020635543 0.15818384 0.12353623 0.0071052196 -0.028021969 -0.046709526 0.12670375 -0.047017172 0.06624858 0.14519008 -0.040299654 -0.083404005 0.16637273 0.15321955 -0.012508968 0.0037537164 0.09317142 -0.007266034 0.04531835 0.014910489 0.12287096 -0.17317744 0.20673542 0.036582228 0.042611055 0.04732331 0.023852259 0.25085896 -0.040735215 -0.021847906 0.0368028 -0.06435632 -0.14194806 -0.007552189 0.08802537 -0.16209784 0.18499768 -0.089210406 -0.045570806 0.044892736 0.12840725 0.09250172 0.07606232 0.2107119 -0.011489333 0.036412347 0.03425139 0.053966932 0.015962558 0.121041715 -0.02417602 -0.03910603 -0.018588541
었 -0.06320969 0.09639728 -0.09650243 -0.11287395 0.018425722 -0.18029442 -0.004168249 0.2351479 0.036680646 -0.051148403 0.07837753 -0.19430374 0.001316793 0.07782833 0.08686744 -0.081239566 0.13489302 -0.14890225 0.0069295904 -0.32853046 0.059046227 0.025127629 -0.007916523 -0.13115521 -0.06300079 0.04810075 -0.015688434 -0.03147537 -0.17159453 -0.010744505 0.13145052 -0.03923671 0.14828725 -0.21013047 -0.022853272 0.08085093 0.03640039 -0.026303288 0.007927294 -0.08205089 0.058269486 -0.10387057 0.04749304 -0.10569494 0.09531661 -0.1579886 -0.076693244 0.022403043 0.1617347 0.13379498 0.00044288972 -0.02025633 -0.033547245 0.12528174 -0.05873262 0.065763436 0.15800983 -0.023728868 -0.07843031 0.16214374 0.1595317 -0.008847022 -0.005043455 0.09601368 -0.010716994 0.04504173 0.024256874 0.12059781 -0.16078535 0.21057117 0.042060867 0.040800612 0.042100273 0.024692751 0.27007836 -0.053585645 -0.006846216 0.0381416 -0.07085218 -0.14842324 -0.003319667 0.08216304 -0.17084868 0.19923204 -0.08458054 -0.049525086 0.030209335 0.1367126 0.07331711 0.080295466 0.21414398 -0.020259747 0.04023117 0.023360955 0.044405147 0.036101792 0.13502069 -0.02375847 -0.04074912 -0.017286936
안 -0.06655952 0.10676845 -0.102546155 -0.11616567 0.014013344 -0.20177665 0.015566638 0.25149375 0.029817672 -0.06295963 0.09122056 -0.19917147 0.008618965 0.08361225 0.07235617 -0.087212026 0.13752377 -0.14039138 -0.016001841 -0.34687877 0.043008998 0.026444774 -0.02347061 -0.12249137 -0.06342315 0.034759197 -0.011817481 -0.04268281 -0.18353729 -0.020728387 0.13828544 -0.023413293 0.16560012 -0.20776016 -0.018243382 0.08883825 0.04235538 -0.04511221 0.025937824 -0.09229491 0.047900055 -0.11943034 0.052468933 -0.111386724 0.105244726 -0.16469605 -0.06695566 0.018939305 0.1777097 0.13291493 0.003326498 -0.010412031 -0.037690848 0.12632765 -0.045004938 0.06898702 0.16517763 -0.023749687 -0.08286688 0.18628742 0.18321083 -0.013391916 -0.001225683 0.09225947 -0.0136570325 0.043725736 0.00912852 0.11680025 -0.17800276 0.22370152 0.04117883 0.034067463 0.05703371 0.032466 0.2774857 -0.045320537 -0.008802999 0.04586733 -0.06668772 -0.15475748 0.012806204 0.0922827 -0.18779442 0.21001917 -0.08315175 -0.055062152 0.03907515 0.13683796 0.09767023 0.08791605 0.22106382 -0.019814681 0.049068555 0.030626863 0.060096256 0.015142311 0.13930981 -0.03220462 -0.037694152 -0.03771719
같 -0.055994797 0.11849086 -0.10633922 -0.115270056 0.027317055 -0.19463491 -0.0027772454 0.25956365 0.036841966 -0.048475612 0.07852344 -0.20136176 0.009665518 0.08381661 0.069991924 -0.09158812 0.14575167 -0.1457609 -0.010310345 -0.36379504 0.04809455 0.027238132 -0.022709481 -0.14162622 -0.0630147 0.045177527 -0.030585688 -0.036284655 -0.18950519 -0.0038744109 0.13423474 -0.034897026 0.15870227 -0.22346887 -0.028695483 0.10646673 0.035081036 -0.03950272 0.019114165 -0.10902983 0.05526903 -0.12392965 0.04972689 -0.11108945 0.09298265 -0.17356263 -0.079548985 0.009996561 0.17214209 0.13579296 -0.006056942 -0.027228728 -0.04976849 0.12377575 -0.05145166 0.059380822 0.15083572 -0.038965043 -0.10358966 0.17880256 0.18541296 -0.015054106 0.004105299 0.09998379 -0.0047443816 0.05010295 0.031296708 0.12187948 -0.19081025 0.21210846 0.039161075 0.033550035 0.042644564 0.028133418 0.28533232 -0.05392937 -0.023601705 0.046440784 -0.07105019 -0.15397577 0.009835859 0.09864097 -0.19035517 0.21660869 -0.099251755 -0.05770212 0.05247134 0.1492102 0.08802608 0.083138935 0.22222817 -0.014351085 0.058416296 0.028023278 0.054966908 0.016115323 0.122501805 -0.012965263 -0.049017705 -0.020502973
것 -0.082166865 0.12372808 -0.13422062 -0.11484181 0.038855027 -0.21599844 0.017558116 0.28426695 0.026827248 -0.048564564 0.09309286 -0.22842416 0.018310728 0.09671294 0.0777164 -0.10949699 0.16630577 -0.18183382 -0.004099102 -0.41057143 0.070128776 0.02685417 -0.0032397981 -0.15755656 -0.07982667 0.038669787 -0.030926192 -0.031885274 -0.2148039 -0.0033554314 0.1551821 -0.033352952 0.19417365 -0.23413971 -0.03421228 0.11967493 0.022661384 -0.037292585 0.01847704 -0.11096686 0.07112555 -0.14017035 0.04632197 -0.1224057 0.10885449 -0.18949448 -0.08174595 0.011709075 0.20773047 0.1589992 -0.0034090425 -0.025543006 -0.046127804 0.14545305 -0.062438477 0.076002695 0.18204838 -0.044920128 -0.11838516 0.19293143 0.20319577 -0.023984041 0.00040420998 0.10241268 -0.024352545 0.05102942 0.03069563 0.14364035 -0.21640535 0.25070745 0.051845845 0.041031163 0.058014315 0.03403706 0.3173422 -0.0675599 -0.006765125 0.051722802 -0.08326137 -0.17365886 0.0011045175 0.109242216 -0.21535905 0.24704632 -0.104607 -0.076528125 0.048768166 0.16665348 0.10325107 0.0930426 0.26734504 -0.018574947 0.053718545 0.026974862 0.054234445 0.016615048 0.15423046 -0.02108807 -0.04232332 -0.024225432
집중 -0.05169041 0.10226614 -0.095500015 -0.09140868 0.03089579 -0.1700049 0.014282285 0.2095259 0.03810912 -0.043749277 0.0855239 -0.19210774 0.009112703 0.076591544 0.060709573 -0.090362765 0.12744993 -0.13967468 -0.010553036 -0.29365402 0.038847048 0.034325413 -0.012695689 -0.109781764 -0.05285344 0.030211521 -0.027901143 -0.03025689 -0.17023787 -0.016940132 0.12117843 -0.03742069 0.13882932 -0.19294201 -0.028725702 0.07526298 0.027047548 -0.021551386 0.023546856 -0.09115866 0.037372485 -0.10470674 0.027325146 -0.09970898 0.07962398 -0.13793838 -0.07575395 0.017117608 0.15419383 0.12750225 -0.007244426 -0.030410256 -0.030508164 0.10258776 -0.03822663 0.056425776 0.14984453 -0.028074067 -0.08101178 0.16571827 0.14750947 -0.021425467 0.005400668 0.077485256 -0.017614877 0.03693671 0.0049795993 0.11329776 -0.15806596 0.18728818 0.041456204 0.042848453 0.056020774 0.018682905 0.23922792 -0.05281276 -0.021510353 0.029147923 -0.0632309 -0.14732698 -0.004366267 0.07606702 -0.15691078 0.18481183 -0.069997855 -0.060384702 0.03347965 0.11564651 0.09001457 0.072526194 0.19700171 -0.006682055 0.04716136 0.017681153 0.053989347 0.028075067 0.11884149 -0.015132444 -0.048301067 -0.02983692
게 -0.044928815 0.09372937 -0.10120939 -0.08900783 0.02004204 -0.15258102 0.010724741 0.20602265 0.031450048 -0.035473887 0.07003333 -0.17833602 0.015110934 0.076762356 0.060018275 -0.07295504 0.124364436 -0.13021731 -0.00047844634 -0.29731745 0.056450993 0.022723082 -0.0043416983 -0.100177996 -0.04411776 0.026099673 -0.013974779 -0.027446155 -0.15772916 -0.0066182227 0.123577744 -0.029643163 0.1504776 -0.19160666 -0.024360577 0.08570453 0.033030093 -0.028552752 0.0073979665 -0.085452326 0.035762377 -0.09028913 0.038019333 -0.09398536 0.08716845 -0.12862398 -0.07031205 0.013170317 0.14565903 0.12556031 -0.011643289 -0.021531096 -0.041423798 0.10581794 -0.044757433 0.048107706 0.13163671 -0.028974239 -0.08241473 0.15534689 0.15245299 -0.017554902 -0.00045712816 0.080126986 -0.02060682 0.02904954 0.008722328 0.1094097 -0.1415252 0.18880771 0.042761106 0.027391542 0.049679473 0.03406775 0.23412217 -0.051948935 -0.0140454965 0.032426614 -0.06872943 -0.13130428 0.0014330868 0.06664374 -0.16437128 0.17900534 -0.08624726 -0.05295691 0.040402725 0.112209424 0.07087974 0.0628082 0.18901773 -0.0045939786 0.034756713 0.020682514 0.044192363 0.019920433 0.10295698 -0.032821298 -0.027425263 -0.018725852
야 -0.05698651 0.08331452 -0.09304249 -0.09465953 0.034451984 -0.15855978 -0.0002727992 0.20915413 0.015455249 -0.04063911 0.06984732 -0.18121134 0.01023124 0.077346824 0.07070834 -0.08767455 0.12200884 -0.13596547 -0.012728838 -0.3050122 0.04486227 0.023053307 -0.01568708 -0.10922639 -0.040188186 0.04244003 -0.014314537 -0.01910432 -0.15950578 -0.011478033 0.10422031 -0.0232199 0.13186921 -0.18569447 -0.013449917 0.08078563 0.027416438 -0.037195947 0.020440793 -0.07640376 0.036914527 -0.10419632 0.043807045 -0.08263622 0.08429621 -0.13284433 -0.07589895 0.027050477 0.1439283 0.111220606 -0.00156161 -0.020238599 -0.038622815 0.110746205 -0.047263958 0.046723697 0.13998877 -0.021152189 -0.068276964 0.15170327 0.15138254 -0.019640325 0.0065370095 0.08667576 -0.01556689 0.03386132 0.013538594 0.11462171 -0.15881473 0.18838216 0.039751012 0.045604214 0.038022432 0.021725617 0.23167592 -0.049067426 -0.00836986 0.038539287 -0.058890097 -0.13322349 -0.006785929 0.07457491 -0.16691913 0.17743066 -0.082527764 -0.03991144 0.032884292 0.11971635 0.08053346 0.06910901 0.1906421 -0.00043892718 0.045268793 0.036130328 0.05528734 0.02915387 0.11492336 -0.030142816 -0.040596165 -0.02420016
너 -0.06888089 0.12239402 -0.12050032 -0.11402309 0.027987221 -0.21190229 0.013459017 0.28104058 0.041441277 -0.051186364 0.09691317 -0.2418173 0.009855046 0.08197748 0.08385739 -0.114786714 0.1507189 -0.17280991 -0.00016096036 -0.39243707 0.07209069 0.017965224 -0.019907728 -0.1453435 -0.06800043 0.048559647 -0.019463599 -0.03939891 -0.2183275 -0.022573695 0.15099594 -0.03950688 0.19281696 -0.24803795 -0.023704672 0.09797562 0.040734652 -0.031327263 0.012713477 -0.09980824 0.055684347 -0.14030032 0.050419047 -0.11060622 0.10200351 -0.1848823 -0.076846465 0.025068432 0.19250584 0.15519416 -0.009706835 -0.02564637 -0.041667204 0.14791875 -0.06549561 0.0717391 0.1821986 -0.044441734 -0.10862876 0.20696332 0.20576726 -0.019931072 0.00793878 0.102257416 -0.024383958 0.04553851 0.01937161 0.15763858 -0.19605368 0.23210132 0.049575515 0.04212088 0.06494124 0.03536531 0.3196135 -0.054024804 -0.017610058 0.05242268 -0.077577375 -0.18295035 -0.0035143674 0.09798619 -0.2140543 0.23257549 -0.1135503 -0.07102823 0.050130486 0.14822543 0.106786445 0.08410356 0.248447 -0.009046539 0.062317304 0.038823463 0.07506114 0.035861507 0.13776188 -0.029750088 -0.056844763 -0.038112734
가 -0.0807095 0.12231796 -0.12002251 -0.13146567 0.036815096 -0.23728856 -0.0014833752 0.29483014 0.048870258 -0.06391862 0.11080461 -0.26037002 0.020469617 0.10284056 0.10009028 -0.12228464 0.16505152 -0.18422268 0.0017979356 -0.41998047 0.069744706 0.036315937 -0.011887255 -0.1662117 -0.060093086 0.052432183 -0.021932926 -0.031952355 -0.23240998 -0.005479926 0.15837736 -0.038413383 0.20453987 -0.2677812 -0.033178985 0.12936994 0.040756438 -0.04862939 0.022321012 -0.12141833 0.06728543 -0.15072912 0.05984453 -0.12235704 0.13098632 -0.18674287 -0.100035585 0.029059954 0.20779662 0.15558554 0.004279447 -0.01781159 -0.036975138 0.14737731 -0.07586024 0.081548594 0.18314727 -0.028129632 -0.10540324 0.2207331 0.2219784 -0.0135406805 -0.0007010878 0.11002675 -0.007854664 0.044719025 0.022042518 0.16238756 -0.20969246 0.26792228 0.05213065 0.054484896 0.060159907 0.044869862 0.34721744 -0.05686286 -0.019713055 0.043489832 -0.07786439 -0.18310246 0.007440869 0.10345387 -0.22693826 0.23968679 -0.1163731 -0.06359599 0.04538788 0.1546598 0.11872919 0.1062505 0.282225 -0.011361369 0.049691323 0.03101186 0.07441428 0.025553275 0.15085267 -0.031629853 -0.05353089 -0.04617085
겠 -0.058503516 0.100813195 -0.1188212 -0.11577383 0.032120787 -0.19727764 0.0012356234 0.26379716 0.046946704 -0.06252849 0.10266085 -0.2043455 -0.0069858204 0.07843211 0.088981315 -0.08674836 0.13427316 -0.15823986 0.0007771285 -0.36608058 0.04789612 0.025756832 -0.0067764586 -0.13811 -0.053944234 0.042003985 -0.011203885 -0.030057568 -0.19107032 -0.00303904 0.13094556 -0.04842376 0.18175213 -0.224893 -0.020293264 0.093868226 0.023617892 -0.044633873 0.025025323 -0.10175163 0.057339385 -0.12971517 0.039953057 -0.111702815 0.113809384 -0.16969006 -0.07510073 0.021707114 0.1752491 0.15267122 -0.0067835287 -0.032602217 -0.04052671 0.13349697 -0.04714289 0.059586745 0.16877705 -0.029814783 -0.09660688 0.18758039 0.17122628 -0.00719147 0.0013274587 0.09810006 -0.017672645 0.04938463 0.029278595 0.15110482 -0.19449612 0.22613624 0.051184352 0.040621344 0.0642485 0.028215768 0.2850999 -0.06176336 -0.019109424 0.040667597 -0.079538666 -0.17098406 0.009318456 0.08555659 -0.19549601 0.22195491 -0.07965708 -0.049867917 0.045601837 0.1383116 0.08911128 0.085124284 0.22291811 -0.01356685 0.053869523 0.032002702 0.058880597 0.03467352 0.14504412 -0.026244935 -0.03448502 -0.034890063
그거 -0.055580292 0.10488763 -0.10581967 -0.10392447 0.023689166 -0.1917206 0.012752949 0.25408274 0.02290211 -0.05967107 0.07935798 -0.19595036 -0.004481932 0.089077026 0.07633753 -0.08992748 0.13219346 -0.15004921 -0.0023888985 -0.33653104 0.046491377 0.028314097 -0.012040411 -0.11989216 -0.04913586 0.03800064 -0.007397419 -0.038070288 -0.18682052 -0.0019939116 0.13469183 -0.04347804 0.16069716 -0.22132066 -0.02704281 0.10374416 0.024572918 -0.030875504 0.024692357 -0.10171028 0.044011984 -0.11802606 0.035601996 -0.09562822 0.10808353 -0.14817855 -0.07872301 0.023085698 0.16009435 0.13186555 -0.005714277 -0.014674409 -0.04729907 0.1120547 -0.051641908 0.064353116 0.14321736 -0.03974327 -0.088580266 0.16611704 0.16258101 -0.016370682 -0.002950644 0.095056884 -0.011937093 0.045642223 0.019899081 0.12651567 -0.17256677 0.2101389 0.05062108 0.043015923 0.04041615 0.032225914 0.28344494 -0.05316825 -0.01906055 0.035679653 -0.06145397 -0.15650298 0.012983738 0.07492873 -0.17218919 0.19042856 -0.08155636 -0.052993476 0.04944197 0.12250101 0.094054565 0.08316718 0.21537666 -0.021935705 0.054366425 0.025455972 0.049035426 0.028898114 0.122733355 -0.034684036 -0.029537266 -0.02933247
날씨 -0.068284415 0.11019078 -0.11531521 -0.11782974 0.027475469 -0.20608555 -0.00040914558 0.27393094 0.040178433 -0.057859216 0.09361705 -0.22893631 0.011703476 0.09548432 0.0878892 -0.10703532 0.13565233 -0.14963652 -0.008424069 -0.36524582 0.06869602 0.034070708 -0.01950895 -0.1291111 -0.06605417 0.035846327 -0.008237654 -0.04620298 -0.20019631 -0.01236039 0.12755899 -0.039829466 0.18008171 -0.23079522 -0.0351979 0.10972235 0.029605443 -0.045897502 0.01974173 -0.10427512 0.06584857 -0.12257727 0.0511623 -0.11491393 0.10993085 -0.15518032 -0.0834909 0.018946413 0.17985256 0.14274922 -0.010227743 -0.032422926 -0.038400132 0.12388966 -0.04469702 0.06690498 0.17159875 -0.029251223 -0.08521957 0.17539597 0.18524149 -0.012858752 0.00086396484 0.0938081 -0.022756904 0.056320325 0.018748479 0.1466926 -0.19364445 0.22936398 0.055979203 0.042670827 0.063255794 0.03252611 0.30201527 -0.042008314 -0.01471264 0.040568493 -0.084752746 -0.15910289 -0.0018820596 0.09566475 -0.19616848 0.22620557 -0.08673864 -0.052394688 0.050801452 0.14601743 0.10018211 0.088032596 0.23958828 -0.013836021 0.05517323 0.03139983 0.06003314 0.039868414 0.12428351 -0.031661563 -0.045860123 -0.023775881
따라 -0.043895256 0.088503756 -0.08203832 -0.092539236 0.01231605 -0.16506104 0.003946323 0.2060291 0.029336836 -0.051244944 0.082232565 -0.16348465 0.005804535 0.07401054 0.066191174 -0.08113411 0.10737328 -0.12382583 0.0002271049 -0.28489676 0.05162207 0.02536903 -0.0075861593 -0.11617166 -0.0535974 0.030021943 -0.007785075 -0.020030184 -0.16132164 -0.008828348 0.11260358 -0.028960483 0.14008467 -0.1865289 -0.0121623995 0.073777094 0.020486379 -0.036158625 0.00699332 -0.0852169 0.035291597 -0.09435819 0.03182277 -0.09115497 0.08722442 -0.12972319 -0.065235324 0.014305335 0.15400602 0.11778308 0.000993083 -0.008031303 -0.04532927 0.092380896 -0.029891606 0.05451034 0.13177839 -0.022288395 -0.07811029 0.14375304 0.13616592 -0.0051000426 -0.0038837781 0.06860641 -0.01639266 0.042226356 0.014715571 0.10289082 -0.15260844 0.17933749 0.035216495 0.03247556 0.04845533 0.027237294 0.23053993 -0.039059468 -0.003955317 0.023244165 -0.068478286 -0.12698928 -0.01100065 0.07753345 -0.16391607 0.18376237 -0.08149836 -0.054020643 0.036116283 0.11045297 0.084170535 0.07644686 0.18722743 -0.0063584032 0.046076927 0.026512725 0.040625736 0.021483837 0.11069272 -0.010776595 -0.039746173 -0.031580348
응 -0.06598182 0.13212992 -0.12823611 -0.12453174 0.026936824 -0.20592552 0.017043872 0.27911794 0.045966577 -0.051730003 0.104114 -0.24016578 0.0043539107 0.08703362 0.08977888 -0.09656322 0.1475375 -0.1527285 -0.0044444553 -0.38798654 0.056144115 0.020739688 -0.024563147 -0.13848518 -0.072351635 0.048518896 -0.012939601 -0.047846634 -0.21361452 -0.018571964 0.13550796 -0.044647817 0.19814123 -0.24540688 -0.031584553 0.11549974 0.04555147 -0.028366148 0.011804055 -0.10402192 0.054196827 -0.1242181 0.053598646 -0.11754645 0.119952194 -0.18323983 -0.082158476 0.030259535 0.19805282 0.16229592 -0.0058918046 -0.023765255 -0.052263018 0.13012534 -0.057455845 0.06095019 0.18079695 -0.037848335 -0.08985877 0.18897934 0.19111912 -0.013954007 -0.008720918 0.10029468 -0.00879305 0.043458626 0.023066634 0.1625729 -0.20051964 0.23738551 0.05742786 0.04575362 0.05828253 0.04634101 0.3212486 -0.055214714 -0.013615258 0.04149589 -0.074166425 -0.17574184 -0.0039889533 0.093152344 -0.20582125 0.22531053 -0.09596321 -0.07017944 0.044629965 0.15318389 0.102331236 0.08928325 0.24112613 -0.011894593 0.059930503 0.04016272 0.0710492 0.034936946 0.15324743 -0.021596149 -0.04834144 -0.03194466
생각 -0.055277806 0.09877485 -0.091803685 -0.10621507 0.022077978 -0.18395492 0.017032595 0.24128826 0.02646636 -0.052219324 0.077512994 -0.20150878 0.0023186223 0.07488151 0.07266047 -0.08577785 0.13339272 -0.13617872 -0.00362167 -0.34000042 0.042276874 0.036702022 -0.0075653424 -0.12977572 -0.050395213 0.052705422 -0.02456704 -0.03113961 -0.19110852 -0.007877152 0.12130934 -0.0313584 0.16569605 -0.21638072 -0.037166275 0.09669213 0.021866102 -0.046885725 0.008775563 -0.0968521 0.050459493 -0.11376455 0.035123564 -0.086826645 0.10572942 -0.15414733 -0.06548768 0.007120235 0.16066615 0.13398883 -0.006170999 -0.027142813 -0.037519757 0.11594968 -0.06103997 0.055409987 0.13661551 -0.028087888 -0.08965951 0.15718141 0.17413282 -0.015924439 0.003843872 0.09432948 -0.018461294 0.051754624 0.009132453 0.12186173 -0.17978393 0.20662197 0.036038276 0.054599304 0.054929648 0.020117901 0.27371883 -0.0386511 -0.022183191 0.042533074 -0.074299045 -0.14062338 0.009166288 0.08011666 -0.18796289 0.1958763 -0.08901698 -0.055172823 0.05541001 0.12405832 0.075479105 0.06729067 0.21263519 -0.010199613 0.04456119 0.026745025 0.065537415 0.024512036 0.1313047 -0.020478629 -0.046126734 -0.028125651
알려 -0.08402325 0.13022482 -0.13272169 -0.12483793 0.037720867 -0.22555271 0.0058303615 0.3049719 0.04106023 -0.062029127 0.10546258 -0.26115564 -0.00045509802 0.104099415 0.090281814 -0.12842 0.1562442 -0.17324853 0.0019029633 -0.42611217 0.0797659 0.025128074 -0.012358027 -0.15673941 -0.06591185 0.046833426 -0.011659237 -0.043675393 -0.22370242 -0.005370659 0.15880376 -0.037664346 0.21016389 -0.26202473 -0.023574933 0.12342164 0.038601708 -0.039070047 0.029308481 -0.12578413 0.07018795 -0.14425935 0.054939922 -0.13033147 0.11814731 -0.1916017 -0.091217004 0.01563647 0.21830696 0.16435991 0.002680969 -0.024873061 -0.040036112 0.14591184 -0.065922886 0.08117858 0.18865576 -0.03011071 -0.11422491 0.2179029 0.21388942 -0.016289536 0.0039066793 0.108347304 -0.02334607 0.045853663 0.029588614 0.17144051 -0.22730519 0.2734253 0.057129424 0.04841141 0.06505907 0.041930072 0.3341329 -0.05649332 -0.010300707 0.05385617 -0.0824322 -0.19126563 -0.0030908762 0.10367449 -0.2169516 0.24782315 -0.11527433 -0.0707213 0.06300229 0.155452 0.11736915 0.09891366 0.2726297 -0.02360904 0.04916931 0.043179173 0.06764673 0.038224526 0.15484399 -0.04246679 -0.055669546 -0.026939306
돼 -0.050605018 0.093426935 -0.09374335 -0.09531421 0.016638719 -0.15283343 -0.00147131 0.18760921 0.017790876 -0.042774007 0.07888054 -0.1734545 -9.289005e-05 0.066128306 0.06545172 -0.08443589 0.11709344 -0.12701014 0.0012275148 -0.2650903 0.048595753 0.029623693 -0.0028364589 -0.09994851 -0.052254733 0.038746238 -0.023760082 -0.03162515 -0.14312145 -0.019041477 0.09549099 -0.031054663 0.13579708 -0.16419715 -0.017974034 0.0822552 0.022259502 -0.025114728 0.007945724 -0.07979845 0.034831606 -0.09269231 0.03771767 -0.0780796 0.074402675 -0.1223255 -0.053877655 0.009725458 0.13207136 0.108446226 -0.008723911 -0.008985414 -0.023551848 0.10780388 -0.031094871 0.040887374 0.12512504 -0.034374516 -0.075445734 0.13341978 0.14248747 -0.010081924 -0.007130416 0.079729624 -0.010731738 0.036162853 0.010848538 0.101246044 -0.14392295 0.17873661 0.037012305 0.029066367 0.048329387 0.026048578 0.21862197 -0.03168206 -0.014891123 0.038122177 -0.060772546 -0.13476963 -0.0034007838 0.06693851 -0.14803122 0.16331452 -0.06636379 -0.038868785 0.034143165 0.108758874 0.069821365 0.062971205 0.17565586 -0.0104303565 0.03337936 0.020189302 0.047805663 0.022335244 0.0918005 -0.014116928 -0.036046576 -0.026208822
줘 -0.069281235 0.10916448 -0.11186594 -0.12228308 0.030397225 -0.20420118 0.0015691177 0.25021183 0.042101648 -0.05361288 0.08044806 -0.2092357 -0.0044321828 0.081629686 0.08441508 -0.10722293 0.12762612 -0.15761325 0.0030523743 -0.35027227 0.06208799 0.030618424 -0.010667739 -0.13624333 -0.051290512 0.048955563 -0.011416895 -0.023019435 -0.20193058 -0.00991742 0.14112262 -0.036497645 0.1612481 -0.22186302 -0.029052636 0.09715607 0.032060765 -0.030583201 0.020126026 -0.0962981 0.05303357 -0.11134409 0.034484487 -0.11361353 0.09655339 -0.16674219 -0.08444953 0.019867517 0.17774047 0.1412304 0.0035326933 -0.025527483 -0.03588822 0.124955356 -0.04350076 0.073962286 0.15962385 -0.029533708 -0.0971559 0.17582941 0.17097965 -0.012230282 -0.00503007 0.086200595 -0.0129557755 0.04752466 0.0123113645 0.13946928 -0.17792033 0.22421032 0.040528875 0.0531015 0.064923964 0.030262373 0.28671783 -0.058494467 -0.018217972 0.039631967 -0.06880515 -0.16300875 -0.0089745615 0.098577924 -0.19671167 0.22255157 -0.08899664 -0.06286701 0.04878118 0.14437638 0.08874291 0.07498839 0.24131677 -0.00922912 0.060750008 0.020803055 0.061729744 0.03554421 0.13050473 -0.029047783 -0.04948255 -0.03499856
다가 -0.07883349 0.12867492 -0.12318422 -0.1350661 0.039865475 -0.21221568 0.003255993 0.27159238 0.046277847 -0.06291324 0.09967455 -0.23115638 0.008471296 0.09255998 0.09443363 -0.10593307 0.15023962 -0.15823153 -0.009403502 -0.38786826 0.05218119 0.028944243 -0.023510026 -0.14680651 -0.054168887 0.04224514 -0.004125381 -0.040753257 -0.21295244 -0.020022651 0.13922876 -0.039560053 0.17868531 -0.23900361 -0.034278102 0.10970323 0.030986125 -0.031866066 0.019758072 -0.114829436 0.05723107 -0.1283755 0.054148607 -0.1233642 0.10392789 -0.18247002 -0.0821948 0.022709515 0.1897155 0.16162485 0.00078190264 -0.022962507 -0.049072854 0.13615866 -0.06704099 0.06084485 0.19179948 -0.04480515 -0.105847426 0.19759914 0.19910637 -0.008332309 -0.003412511 0.096898824 -0.016053775 0.038341172 0.015694033 0.14313143 -0.20278704 0.24773444 0.061395805 0.04061379 0.05706982 0.04451342 0.3102904 -0.06652715 -0.0140864765 0.044005338 -0.08575574 -0.18444277 0.0126846535 0.10760737 -0.21127403 0.2246227 -0.09255757 -0.055936944 0.033579957 0.16033056 0.08875143 0.08765809 0.25557035 -0.01604073 0.058933936 0.033969156 0.04628338 0.036526956 0.14557715 -0.042911727 -0.04154657 -0.038772818
쉬 -0.06508297 0.11482833 -0.13092758 -0.13472573 0.037941378 -0.21443658 0.011972373 0.27084297 0.052748658 -0.049340762 0.11130466 -0.21764451 -0.01116184 0.07336376 0.08642538 -0.10004149 0.15172818 -0.15477912 -0.0059367814 -0.37439737 0.051928986 0.019101502 -0.007613703 -0.15130064 -0.063370004 0.04039508 -0.0048858887 -0.046036128 -0.20188805 -0.020790756 0.1505663 -0.051458012 0.18859348 -0.22888142 -0.015695738 0.09606694 0.029135099 -0.043028098 0.028262317 -0.1111299 0.0653061 -0.12913747 0.05643736 -0.11878661 0.111503124 -0.1726945 -0.09553438 0.036058 0.18600556 0.16276605 -0.00509967 -0.021099512 -0.04261411 0.14533536 -0.070463926 0.07846451 0.1905115 -0.038405232 -0.089869216 0.19746618 0.19355835 -0.011243061 -0.002966747 0.10062895 -0.005803746 0.05686199 0.015625171 0.15379883 -0.2047553 0.23438494 0.038886406 0.046415307 0.056097124 0.035028704 0.31362274 -0.06880596 -0.016491085 0.039855335 -0.08615433 -0.18658015 -0.007395267 0.107665055 -0.20904975 0.2347407 -0.09909701 -0.058587007 0.047880627 0.13799986 0.08874366 0.073111214 0.23336619 -0.021972658 0.04899814 0.036645286 0.0579224 0.026487188 0.14188707 -0.034654077 -0.056906894 -0.03694494
미세먼지 -0.07880917 0.1275644 -0.1386967 -0.1412246 0.04181704 -0.24420567 0.0053338176 0.31722248 0.04570591 -0.0697912 0.1127363 -0.26564768 0.0064715133 0.10784491 0.09456346 -0.1099872 0.16420369 -0.17826176 3.051142e-05 -0.44156176 0.06244472 0.025345463 -0.017290195 -0.16842556 -0.07312243 0.041382648 -0.019993978 -0.040768962 -0.22580038 -0.023098763 0.15767801 -0.037643887 0.21366288 -0.2665139 -0.030540347 0.11438251 0.04005037 -0.052234005 0.014824333 -0.12076321 0.06806262 -0.14010267 0.038205516 -0.12202305 0.12438091 -0.1977538 -0.096549585 0.030525347 0.20308428 0.1695844 0.00037473004 -0.02811839 -0.042282518 0.1592695 -0.05778743 0.08285715 0.20092838 -0.046288513 -0.10192011 0.22055635 0.21089159 -0.021410571 0.007769832 0.115283385 -0.028615598 0.056517225 0.025734596 0.16759913 -0.2135424 0.25688776 0.063061744 0.04317901 0.073105305 0.049182244 0.33876112 -0.0698644 -0.009564644 0.03849093 -0.09593911 -0.1977499 -0.006568895 0.11932858 -0.221975 0.25527894 -0.1059959 -0.0582982 0.06228271 0.16639288 0.11905659 0.1048007 0.28323248 -0.0065218187 0.05173611 0.048245158 0.084714495 0.043754607 0.14825901 -0.03613735 -0.050696053 -0.03170913
되 -0.060922388 0.09300404 -0.08398097 -0.082723245 0.016340863 -0.16345668 0.01159111 0.2047679 0.0313615 -0.055266175 0.07635628 -0.1689406 0.015053711 0.061683513 0.057050288 -0.07566822 0.120332755 -0.13410828 0.003288144 -0.28713968 0.036159024 0.036229514 -0.019641025 -0.11399546 -0.03806017 0.036764838 -0.025368186 -0.026351448 -0.16115777 -0.020539695 0.10254936 -0.021336993 0.13007022 -0.1754498 -0.028060578 0.08775182 0.020782286 -0.03728725 0.022078475 -0.09221541 0.04581851 -0.10123615 0.030080551 -0.10260784 0.08723295 -0.13972327 -0.059499886 0.0045103985 0.1464605 0.113195166 -0.010685957 -0.021345422 -0.04355058 0.10291515 -0.043916915 0.04991023 0.12882902 -0.03914476 -0.07311765 0.1507499 0.15612735 -0.00861417 0.0091656335 0.0762343 -0.020365443 0.039833374 0.0042319614 0.110526174 -0.14204133 0.183776 0.046450734 0.04440446 0.049521662 0.031152269 0.24579872 -0.040675078 -0.021625819 0.02516566 -0.059243813 -0.13214988 0.011736055 0.064059295 -0.16057222 0.18697923 -0.077358894 -0.060367357 0.041897796 0.10729951 0.0707987 0.061528187 0.18797712 -0.0004622543 0.044914033 0.033002675 0.055066038 0.02417141 0.10165482 -0.010801769 -0.048817407 -0.02763619
고 -0.03886489 0.09142254 -0.08760144 -0.09230429 0.031166479 -0.14947705 0.00049170473 0.198765 0.031309616 -0.035437386 0.066794656 -0.14886336 0.015051259 0.06938433 0.071705 -0.07766807 0.1037103 -0.11724982 0.0034177424 -0.25365943 0.049308494 0.02529614 -0.0045639663 -0.091768794 -0.04245887 0.022024043 -0.014523812 -0.017282745 -0.14912985 -0.0069026262 0.10391766 -0.035402857 0.13584352 -0.1651543 -0.015121077 0.08602953 0.026260983 -0.02548698 0.0014338862 -0.06353973 0.030357856 -0.07925771 0.037564483 -0.07864209 0.067519434 -0.1089408 -0.061375175 0.023589259 0.12795351 0.099639915 -0.0010147992 -0.027339933 -0.038550176 0.08502826 -0.035775695 0.046837173 0.118015975 -0.02032764 -0.07050774 0.1262293 0.13560548 -0.014516915 0.00084214215 0.079362094 -0.012694083 0.040142328 0.020485349 0.09873585 -0.14222059 0.17280622 0.03857039 0.03291412 0.04027295 0.018917058 0.2153185 -0.04213935 -0.004666759 0.024993826 -0.055497393 -0.116777614 -0.0073839077 0.06457147 -0.149726 0.1569716 -0.06799716 -0.038848713 0.033952735 0.102292575 0.07097393 0.060437668 0.17787416 -0.010558637 0.030671574 0.019781424 0.032587875 0.012449052 0.10131907 -0.016348524 -0.037254952 -0.033548996
왔 -0.053280905 0.08415665 -0.08988163 -0.074902214 0.027821634 -0.1317909 -0.0046840855 0.18520816 0.018061861 -0.027126381 0.0598384 -0.15379111 0.010237768 0.05650903 0.06431554 -0.07337398 0.10393093 -0.12109904 0.0037865364 -0.25312647 0.035516515 0.019021768 -0.011580686 -0.09400368 -0.042634018 0.020931786 -0.020902557 -0.032936174 -0.14547789 -0.0113426475 0.103595905 -0.028401107 0.112700164 -0.16578068 -0.01269591 0.069477595 0.020910114 -0.028962644 0.01791313 -0.07946163 0.030645378 -0.07564616 0.023241743 -0.07149861 0.072164536 -0.10477744 -0.051937383 0.019394746 0.1280392 0.10191383 0.0010456368 -0.021435915 -0.024695363 0.097191945 -0.029939732 0.042982593 0.11285683 -0.017661182 -0.07465173 0.12758571 0.11935365 -0.002957075 -0.009373472 0.06997494 -0.0011041758 0.029044615 0.00607699 0.09079153 -0.12594087 0.14922267 0.0410033 0.030536553 0.0453525 0.023020562 0.19484077 -0.04247505 -0.009225742 0.02356585 -0.04552521 -0.11997023 -0.006846205 0.066444315 -0.13819577 0.13921489 -0.07288379 -0.042392552 0.03239363 0.10254308 0.07222918 0.06545946 0.1706066 -0.0067937025 0.028621154 0.033965368 0.041261587 0.025506709 0.09349746 -0.013271672 -0.02394899 -0.02903775
배불러 -0.022671783 0.033394933 -0.030934576 -0.04309163 0.014615072 -0.05533376 0.0019447444 0.07384549 0.0024145895 -0.008236356 0.017634513 -0.07149136 0.006030734 0.01605077 0.021275818 -0.031358823 0.039634664 -0.05320738 0.0030212663 -0.10635088 0.020728434 0.0073465575 0.0028647983 -0.049244538 -0.012146957 0.007989499 -0.0037777857 -0.01709683 -0.059943847 -0.0094857095 0.03660798 -0.00085438445 0.053027313 -0.06427716 -0.013917958 0.035810433 0.0007039991 -0.014078136 -0.00052299356 -0.037123516 0.019283578 -0.039321367 0.015446219 -0.027523115 0.024300385 -0.0499297 -0.027001463 -0.0040293895 0.04269442 0.043053985 0.0037508903 -0.007003448 -0.016278205 0.041419394 -0.014797115 0.01032679 0.055076603 -0.0018148787 -0.036093816 0.053597182 0.059961673 -0.006521118 -0.0005724131 0.023935616 0.0016218713 0.020775478 0.008875267 0.036758427 -0.05663396 0.06179768 0.0036044584 0.02093622 0.015131392 0.00852804 0.09284553 -0.024346733 0.0023746872 0.0048095016 -0.02760861 -0.04380953 -0.003256838 0.02428531 -0.062804535 0.059698027 -0.030689953 -0.0203671 0.024382655 0.051046096 0.02686119 0.023165423 0.0641677 0.004347339 0.0097992355 0.015954172 0.027430339 0.013875357 0.038862605 -0.0024230904 -0.005454002 -0.012134376
집중력 -0.059001796 0.11477827 -0.09626647 -0.106824055 0.028886657 -0.19452545 -0.0048008948 0.23727126 0.026146166 -0.05116987 0.08027402 -0.20206326 0.01564053 0.092705965 0.08263058 -0.08854881 0.12835999 -0.1413161 -0.0069087422 -0.34874016 0.061307583 0.0147904735 -0.008585618 -0.13130397 -0.06408252 0.040446866 -0.02528937 -0.021869754 -0.18995173 -0.021994434 0.13249281 -0.02865596 0.16663912 -0.20608027 -0.030005483 0.08778033 0.03243804 -0.023680918 0.009738421 -0.09676099 0.056315362 -0.1056407 0.033168364 -0.10635177 0.09064819 -0.15232246 -0.06995155 0.024638765 0.15674673 0.14258644 -0.0070435195 -0.025462074 -0.04759011 0.113270395 -0.039360475 0.06360383 0.1424933 -0.029811244 -0.0964402 0.16175066 0.17481747 -0.011714802 0.0018865921 0.09922331 -0.006362477 0.036306173 0.02491144 0.1297777 -0.17099841 0.21966693 0.035251062 0.037649825 0.051816545 0.037476692 0.27036965 -0.038317814 -0.017911827 0.027546782 -0.07754133 -0.15802023 0.0111928 0.08091428 -0.18589945 0.20994547 -0.09863315 -0.05398432 0.05160911 0.120204635 0.0857295 0.075196244 0.2230579 -0.015966706 0.040327806 0.041929226 0.04767042 0.03550751 0.116250634 -0.015158725 -0.045593172 -0.032744203
으로 -0.04916506 0.082536064 -0.081150286 -0.081473775 0.019570667 -0.1453352 0.0035118498 0.1988135 0.028901564 -0.0371203 0.05767627 -0.15459475 -0.0029366678 0.06282822 0.06524745 -0.07711498 0.09493688 -0.119590454 -0.013586309 -0.25758705 0.045908254 0.020943932 0.0023530952 -0.108035974 -0.044675328 0.029440975 -0.018554665 -0.034539413 -0.13588536 -0.011937779 0.09510909 -0.023778412 0.11848372 -0.1653754 -0.016516468 0.071896195 0.017170725 -0.02801647 0.0047163107 -0.07254993 0.037563883 -0.08997595 0.031251658 -0.07779148 0.0842484 -0.11050163 -0.05887659 0.013648813 0.12942995 0.10975118 0.0074142017 -0.022134397 -0.029672813 0.091622196 -0.041773804 0.04222159 0.11692738 -0.033212807 -0.06754248 0.13235934 0.13777018 -0.012292063 0.010884075 0.057810143 -0.0027087198 0.032832623 0.01898215 0.107151434 -0.13389066 0.16377068 0.03577746 0.022325216 0.03800691 0.02349957 0.19910613 -0.032665715 -0.0038251956 0.026837697 -0.04731352 -0.121154524 -1.0965997e-05 0.07055468 -0.14907789 0.14433117 -0.063370004 -0.05000517 0.039634243 0.10397133 0.05884819 0.06867594 0.17527589 -0.014629202 0.027884904 0.013871836 0.053474404 0.028500935 0.09574211 -0.018946607 -0.03850211 -0.029292254
어디 -0.054818176 0.095231496 -0.116055414 -0.10508528 0.020433167 -0.19234358 0.010843378 0.25209525 0.02395927 -0.040260375 0.09699072 -0.19835299 -0.0018229088 0.08859904 0.06929402 -0.095371544 0.13281916 -0.15165886 -0.017481124 -0.33613804 0.061672278 0.018246023 -0.018193092 -0.123328224 -0.05649056 0.030307204 -0.00592287 -0.038282286 -0.18034302 -0.006131158 0.13415697 -0.026620857 0.17109808 -0.21871638 -0.02265847 0.09378699 0.029561877 -0.023784276 0.022721685 -0.10616175 0.06383061 -0.11589259 0.042592514 -0.09177871 0.091504335 -0.15237848 -0.074614584 0.02886095 0.17130312 0.13183959 -0.013947445 -0.028190823 -0.027538313 0.1100485 -0.04257903 0.060137447 0.1522119 -0.021361722 -0.07606533 0.18188363 0.1820001 -0.022805648 0.008054881 0.078181036 -0.025284337 0.03259118 0.024313862 0.14247738 -0.17955254 0.20578584 0.0408982 0.03554063 0.050325386 0.037403163 0.2757263 -0.053057574 -0.01689148 0.03530641 -0.07404567 -0.15343289 0.012773996 0.09697348 -0.18887913 0.19300885 -0.09838481 -0.060189836 0.044153195 0.12262495 0.09024824 0.08595993 0.22210135 -0.00947123 0.058776714 0.039916586 0.05644399 0.022275876 0.12449443 -0.018610131 -0.032941643 -0.033404343
어때 -0.04764052 0.10359612 -0.09221776 -0.10510768 0.034110107 -0.17833552 -0.0020106228 0.24101411 0.017689692 -0.05463236 0.082712784 -0.18652192 0.0020413683 0.083807625 0.08044799 -0.08589126 0.11848181 -0.13229762 -0.015058707 -0.33351025 0.05808597 0.017725648 -0.006505886 -0.12539391 -0.055401973 0.02898661 -0.022133762 -0.03467777 -0.1690973 -0.0042162114 0.11239406 -0.03992469 0.15866618 -0.21042582 -0.016429368 0.099639885 0.021391645 -0.025338056 0.026590409 -0.09347437 0.054502808 -0.11877116 0.04485261 -0.08292075 0.09927721 -0.15396282 -0.068593465 0.016321573 0.15710776 0.13263886 2.764858e-05 -0.018067412 -0.041698303 0.119298674 -0.053376302 0.060373727 0.15240341 -0.023644479 -0.07557288 0.16066186 0.16902873 -0.0028553803 -0.0019427235 0.088485874 -0.024578638 0.051513277 0.023062797 0.13474849 -0.16209534 0.20450637 0.036213893 0.0330655 0.048647337 0.03194577 0.25887972 -0.054087088 -0.020187836 0.046322227 -0.055656638 -0.1441164 -0.002815701 0.08375894 -0.18456185 0.20011888 -0.08617765 -0.04301514 0.036289584 0.120747395 0.09080602 0.07725201 0.20587392 -0.017169163 0.047662817 0.021406353 0.065916575 0.031689245 0.115388565 -0.030590124 -0.046388846 -0.031862807
니 -0.052028205 0.10344477 -0.11108137 -0.09315001 0.019492758 -0.17601056 0.012231392 0.23941463 0.021239487 -0.042199355 0.07551922 -0.20380214 0.016157648 0.06906028 0.06652794 -0.09618794 0.13302563 -0.13895808 -0.011763208 -0.33457154 0.061362192 0.03331193 -0.0023546584 -0.12414142 -0.051431224 0.04142451 -0.013894398 -0.027790649 -0.17703997 -0.010588243 0.11940172 -0.03914787 0.16591576 -0.21116726 -0.020161066 0.09185307 0.023932941 -0.03841496 0.01945938 -0.09849097 0.045112975 -0.11426986 0.04581704 -0.09146795 0.09190754 -0.14210755 -0.08197027 0.014291625 0.15503816 0.12400109 0.0018760837 -0.03289567 -0.04531706 0.10774471 -0.040117018 0.055882767 0.15029684 -0.03685063 -0.08830632 0.16931592 0.16620335 -0.021530584 -0.0048752935 0.08829922 -0.025428792 0.041449297 0.01898471 0.13628598 -0.16965881 0.21143134 0.03454838 0.031459574 0.055363555 0.031213218 0.25974005 -0.050302986 -0.0023496265 0.02766602 -0.0718018 -0.15107211 0.0012822491 0.096355684 -0.17993417 0.18735516 -0.0971838 -0.065202296 0.032957613 0.12023441 0.08043211 0.073817335 0.212437 -0.015858825 0.049693983 0.035802808 0.06469061 0.021563504 0.12830189 -0.016723126 -0.043927457 -0.03533929
짜장면 -0.07167917 0.11302588 -0.10695654 -0.105961174 0.04171066 -0.2160319 0.016767329 0.27873316 0.039760638 -0.06600169 0.09362524 -0.23202744 -0.004508788 0.08838906 0.09758611 -0.09609574 0.13928129 -0.15787801 -0.010425524 -0.367262 0.050370213 0.042101186 -0.022303285 -0.14550659 -0.061037447 0.043544326 -0.026260024 -0.03698479 -0.20407118 -0.019698657 0.1484395 -0.036721665 0.18920915 -0.22598019 -0.033729114 0.11432992 0.043942716 -0.032085087 0.02589157 -0.11278217 0.0650399 -0.12613896 0.04325488 -0.11657308 0.11061528 -0.16240129 -0.09539 0.03357621 0.18921575 0.1479892 -0.0064409142 -0.027147612 -0.037567914 0.13767232 -0.066348374 0.07753931 0.16909346 -0.046131447 -0.08727869 0.19263457 0.1924408 -0.0022699991 -0.0065956013 0.089065455 -0.017045423 0.045238513 0.022375675 0.14548858 -0.20524372 0.23170613 0.050661806 0.048018772 0.06111683 0.036557984 0.3097972 -0.054645143 -0.0060627074 0.041218158 -0.07687941 -0.17761727 0.009120265 0.097262934 -0.19985552 0.23273563 -0.10840622 -0.04827215 0.050929643 0.13990669 0.09157569 0.07710227 0.24210753 -0.009727815 0.06017685 0.045786098 0.05741699 0.039208345 0.1318058 -0.026289014 -0.034050245 -0.034365557
그래 -0.07071148 0.101148546 -0.1048365 -0.110015854 0.020789333 -0.19036768 0.011417978 0.25829616 0.039053418 -0.050847214 0.07893225 -0.2039213 0.008127985 0.073158644 0.08028243 -0.09276327 0.13471533 -0.14977404 -0.010604617 -0.35072693 0.05841149 0.027572334 -0.015149561 -0.12649131 -0.06247967 0.034132082 -0.006688209 -0.04443783 -0.19291991 -0.014706551 0.12208075 -0.035429236 0.17616697 -0.21801962 -0.01698198 0.09907506 0.028724309 -0.03910897 0.018572602 -0.09436675 0.061867826 -0.11200778 0.03586416 -0.11030355 0.10985602 -0.1543202 -0.07405786 0.023284996 0.18098678 0.1299617 0.007008694 -0.03400191 -0.04309514 0.12865916 -0.06421151 0.068416804 0.15148501 -0.04151145 -0.087501094 0.1768758 0.17187464 -0.002291767 -0.008013302 0.09133342 -0.005298434 0.048690088 0.014493071 0.1418333 -0.1860264 0.21704282 0.048017688 0.05193343 0.061209034 0.027095282 0.2930222 -0.05576986 -0.0068623195 0.03112155 -0.08220621 -0.1633399 -0.0054641413 0.08452638 -0.18724568 0.20933464 -0.100743055 -0.06115431 0.038441326 0.13390768 0.0968202 0.078043826 0.23728234 -0.016090075 0.05758137 0.040833924 0.069774136 0.029168688 0.1316164 -0.025303671 -0.05199165 -0.020168116
지금 -0.06277887 0.11288612 -0.1019177 -0.10173209 0.0292797 -0.1955018 0.00747012 0.24658105 0.019585887 -0.05294628 0.08092097 -0.20726597 0.0069900453 0.080291405 0.0810274 -0.09892816 0.12346057 -0.13877057 0.00067696394 -0.33348948 0.058832757 0.017920863 -0.0038551814 -0.13458376 -0.06439216 0.048538096 -0.017104583 -0.041996583 -0.18710198 -0.0030779317 0.12271019 -0.029741906 0.16141392 -0.20407534 -0.023837654 0.0859236 0.025319004 -0.025379352 0.018979847 -0.10128784 0.060618144 -0.10721378 0.04815267 -0.096169695 0.08752927 -0.15615568 -0.07045095 0.012327984 0.17683594 0.122600414 -0.01210263 -0.029313114 -0.030130705 0.11191776 -0.042345934 0.051553782 0.15598437 -0.027112113 -0.0863333 0.18031637 0.17654744 -0.012370979 0.005085814 0.092843354 -0.012690126 0.052501936 0.019719908 0.122715026 -0.17648229 0.20642342 0.03292084 0.038373392 0.059280645 0.026414514 0.27526703 -0.042702485 -0.012497572 0.038885657 -0.06293155 -0.16293073 0.005827328 0.09777184 -0.18520501 0.19081087 -0.10057721 -0.06360129 0.045036487 0.13363269 0.0957723 0.075558156 0.21899533 -0.0068275235 0.03680399 0.020864394 0.063968636 0.017778985 0.1223266 -0.030629395 -0.03332092 -0.032982025
해 -0.03403303 0.08038065 -0.08039683 -0.079316735 0.02159666 -0.14161691 0.01269289 0.18783791 0.028100286 -0.045525447 0.05629406 -0.14742784 0.003909648 0.053322565 0.065132 -0.06093937 0.09144536 -0.10258495 0.0027105252 -0.24563706 0.048586667 0.017664205 -0.016331356 -0.09302258 -0.051308703 0.039608475 -0.021078633 -0.024788987 -0.13535255 -0.0035801383 0.09694597 -0.03512143 0.11330181 -0.15151905 -0.015181963 0.07478697 0.021755239 -0.026273044 0.0036704452 -0.06414942 0.031795572 -0.078597866 0.025193304 -0.079965755 0.077633046 -0.1109513 -0.06605588 0.002581556 0.1225474 0.08928963 0.00048052942 -0.012656396 -0.024709783 0.08005537 -0.027473088 0.035740886 0.11955065 -0.023369309 -0.064356536 0.128521 0.12040594 -0.014731725 -0.0022531888 0.0574354 -0.0100349225 0.026180707 0.019723205 0.0842288 -0.13218497 0.14295171 0.021467097 0.028970703 0.029439243 0.014873408 0.1993496 -0.03562761 -0.004420348 0.036936317 -0.06121484 -0.106110975 -0.010126176 0.069268286 -0.12243141 0.15556608 -0.07319957 -0.03601907 0.02436374 0.092554376 0.05952385 0.046616342 0.16350417 -0.0034642369 0.02871941 0.014654089 0.04511754 0.014413853 0.08180253 -0.021835398 -0.032109432 -0.0086633
퇴근 -0.0933298 0.16902374 -0.13797997 -0.15327322 0.040852964 -0.26501366 0.015576036 0.3476341 0.038145803 -0.079600886 0.12773046 -0.3027868 -0.0012257698 0.11190558 0.11410509 -0.13477851 0.1898597 -0.20305438 -0.0010716474 -0.47561282 0.07212487 0.03156157 -0.03146323 -0.17053783 -0.08098399 0.048374373 -0.014075287 -0.03167779 -0.25041458 -0.022982022 0.1762226 -0.053718764 0.22260478 -0.28756613 -0.026597515 0.13020858 0.056342546 -0.060122382 0.035765585 -0.14122786 0.07793954 -0.16604106 0.06003475 -0.13323103 0.13262245 -0.22087422 -0.11324868 0.031324152 0.23871776 0.19823302 -0.009053011 -0.042812284 -0.050397567 0.16611955 -0.06317921 0.0946893 0.217055 -0.04159622 -0.12596582 0.23557226 0.23217894 -0.016720416 -0.007992727 0.117738135 -0.02321128 0.062868156 0.034024864 0.19146465 -0.24364296 0.29319963 0.05743211 0.069733426 0.08157576 0.032306895 0.3918861 -0.057954468 -0.0066122487 0.042352296 -0.10547184 -0.21889696 0.005420146 0.12369657 -0.259375 0.29461738 -0.12074837 -0.07716658 0.050167173 0.17702673 0.119305134 0.11418837 0.3107257 -0.021000316 0.06050867 0.04214866 0.09536582 0.04120762 0.18439093 -0.039668314 -0.042371903 -0.039345685
언 -0.066076376 0.12260308 -0.12023057 -0.10674735 0.045693535 -0.19983843 0.013312097 0.27545336 0.031944804 -0.06476299 0.095217444 -0.22445256 -0.0016904882 0.09135633 0.097305566 -0.11225099 0.14428446 -0.14939243 -0.015435477 -0.3745567 0.05095917 0.022554204 -0.008207176 -0.14465079 -0.06818565 0.03217351 -0.028286712 -0.046584003 -0.20317666 -0.009759945 0.12844351 -0.04933273 0.17484385 -0.2327349 -0.03562507 0.101298645 0.03791204 -0.03497169 0.028129688 -0.098975874 0.05968967 -0.124428995 0.05577153 -0.102600396 0.10918777 -0.16181663 -0.098014295 0.029123394 0.18753189 0.1486622 0.008991589 -0.03309182 -0.037222654 0.11902007 -0.065558426 0.072211646 0.17375289 -0.022596955 -0.10689041 0.19601424 0.18935817 -0.0057700314 -0.0025639087 0.1023254 -0.010703256 0.03863203 0.010515292 0.15753658 -0.194712 0.22072023 0.040709622 0.047346383 0.06927948 0.028775739 0.30025905 -0.063567065 -0.025313035 0.047554485 -0.07792154 -0.18271846 0.0024002506 0.08596212 -0.20530681 0.23105109 -0.09696775 -0.04367647 0.05441266 0.14198571 0.10843311 0.089699395 0.25486854 -0.003312087 0.057328902 0.04396442 0.071271874 0.029619036 0.13060424 -0.016300907 -0.04195515 -0.038875118
컴 -0.07271195 0.11958902 -0.11171491 -0.11888126 0.042501017 -0.21161143 0.018539973 0.28660935 0.028934184 -0.063937046 0.095834725 -0.25367805 0.0041018054 0.08602143 0.10872077 -0.11521973 0.14532724 -0.1794712 -0.010941445 -0.41769332 0.06525405 0.03959574 -0.018297628 -0.13834545 -0.07328722 0.036748752 -0.024349013 -0.045146063 -0.22636472 -0.023005882 0.1436715 -0.04576047 0.19706793 -0.25678125 -0.037044004 0.1151532 0.034251858 -0.037090883 0.021231612 -0.10800854 0.074079156 -0.14614832 0.054202955 -0.10531028 0.11440441 -0.1671846 -0.10078269 0.019467225 0.18614848 0.17032108 -0.011832956 -0.033124458 -0.04461956 0.13145478 -0.049535472 0.06717689 0.17326118 -0.022174174 -0.11488413 0.21563339 0.19655667 -0.0049700243 -0.0026655172 0.09945278 -0.028069736 0.04462044 0.03064221 0.16893145 -0.2072621 0.2550893 0.052102763 0.053707685 0.067081116 0.022774009 0.33484942 -0.06861453 -0.021861112 0.050876822 -0.07670654 -0.19740419 0.004180986 0.10978923 -0.2276247 0.25475428 -0.11143845 -0.046188977 0.04486875 0.16135646 0.11932911 0.07789402 0.26430103 -0.022783997 0.06481135 0.051904824 0.061747715 0.03475253 0.14451627 -0.03699879 -0.046664875 -0.045835003
패니 -0.0705276 0.116334215 -0.11456662 -0.11561008 0.03326644 -0.22642195 -0.0024789167 0.2994908 0.039936088 -0.049078286 0.10483978 -0.24766622 0.009793539 0.10750902 0.11035856 -0.10318107 0.14263095 -0.17993627 0.0035903666 -0.4200325 0.06993483 0.045444254 -0.020709982 -0.1395478 -0.08072826 0.053235803 -0.013164115 -0.03762177 -0.22965513 -0.0003340404 0.15960391 -0.045498416 0.19805612 -0.24180879 -0.033083357 0.12252157 0.031572286 -0.043916576 0.022065379 -0.11933273 0.06426824 -0.14791477 0.053654104 -0.10245564 0.12321193 -0.16899388 -0.099658094 0.030819016 0.188203 0.15318336 0.01102382 -0.02041939 -0.051251948 0.13114345 -0.051635735 0.079106554 0.19096555 -0.041470874 -0.10538491 0.20515026 0.2020003 -0.008220462 -0.010468749 0.10960572 -0.02324034 0.0631564 0.021167155 0.17347021 -0.20949323 0.2560378 0.038419362 0.039251138 0.06314033 0.032527238 0.3386433 -0.053182323 -0.026204426 0.05869492 -0.08308965 -0.19814314 0.011027154 0.10094836 -0.23010606 0.25595713 -0.09587292 -0.045847595 0.05233239 0.16487953 0.11671735 0.08165689 0.27664372 -0.018483028 0.04274248 0.050112672 0.06330781 0.045719013 0.13875642 -0.017955076 -0.053905506 -0.030598158
진짜 -0.023199903 0.062633455 -0.05968411 -0.06388095 0.006320173 -0.09667433 0.011273334 0.12749295 0.024213078 -0.019879343 0.039191082 -0.10790626 -0.0029080512 0.039283276 0.044537913 -0.057462506 0.067106195 -0.087860584 -0.010434696 -0.19188778 0.040379785 0.022789948 -0.008446315 -0.07088674 -0.023710156 0.022390403 -0.016665466 -0.025617616 -0.099286094 0.0019209429 0.072351195 -0.0102802655 0.09516187 -0.11536515 -0.0031004082 0.06189135 0.025678033 -0.007954744 -0.00067103707 -0.048258506 0.019889314 -0.06939744 0.013522136 -0.05075111 0.05318273 -0.089657225 -0.03645428 0.020759845 0.096213624 0.08115902 -0.0056339786 -0.019250907 -0.017419398 0.063419476 -0.03618437 0.036872197 0.080453776 -0.022935899 -0.04525542 0.10119005 0.09916675 -0.0059664953 0.008672873 0.051779438 -0.0014113697 0.021799825 0.012742048 0.07856371 -0.10452319 0.12003417 0.026374701 0.02892408 0.02599538 0.014619445 0.14187422 -0.029939191 -0.009645531 0.015689792 -0.036921542 -0.07727658 0.0056293877 0.03946339 -0.10606122 0.106108434 -0.044728316 -0.0376324 0.02870262 0.07434583 0.044987194 0.05256691 0.12805961 -0.0043902877 0.030707847 0.007927271 0.021678625 0.0127206845 0.07819473 -0.0117677385 -0.016415814 -0.022973023
별로 -0.051585708 0.09839475 -0.096336074 -0.10278848 0.032760765 -0.18276379 0.0099649485 0.23085402 0.027085468 -0.05183581 0.07040012 -0.19236882 0.0012926242 0.07452878 0.068417646 -0.08820326 0.10767744 -0.13838206 -0.005211102 -0.31900778 0.05327052 0.033381354 -0.0073716044 -0.112262584 -0.05704861 0.03576988 -0.01054344 -0.028444352 -0.15814278 -0.011521716 0.123434894 -0.02619696 0.15306844 -0.18384814 -0.02551049 0.08359457 0.036788605 -0.020099748 0.019442115 -0.09119839 0.057175133 -0.10056464 0.036638465 -0.07952343 0.093024544 -0.13575374 -0.06952298 0.0098002525 0.14823365 0.12567922 -0.008327101 -0.011424775 -0.025222233 0.10046898 -0.053883668 0.048042916 0.13905424 -0.02936163 -0.08275946 0.15487711 0.16082145 0.001641835 -0.005297908 0.07000666 -0.007981848 0.0314913 0.027826332 0.12224538 -0.1672471 0.18131 0.02932851 0.041242074 0.04982126 0.032634106 0.24909791 -0.04198988 -0.007657011 0.03309021 -0.072710134 -0.14191474 0.005420601 0.07787003 -0.16649339 0.17866807 -0.07357152 -0.05046268 0.050660715 0.1143567 0.07056804 0.06304817 0.19510685 -0.006951154 0.04930413 0.03260868 0.06236584 0.024999725 0.122289315 -0.025381621 -0.039659448 -0.019883165
해야 -0.058531657 0.11186768 -0.11139892 -0.115967676 0.026738886 -0.18248157 0.00280728 0.23431934 0.029884942 -0.05807963 0.0946695 -0.20027082 -0.0020932977 0.072503455 0.07811878 -0.09726252 0.12472503 -0.13785686 0.007219778 -0.3361317 0.044530667 0.020522274 -0.0095606325 -0.12816207 -0.061628666 0.031601794 -0.0055592456 -0.045057397 -0.18130702 -0.011272783 0.122650884 -0.048408937 0.16679902 -0.20326032 -0.022996442 0.0784448 0.01991151 -0.027975732 0.022097152 -0.08906108 0.056678835 -0.1168938 0.041114803 -0.09931463 0.09323598 -0.14358012 -0.07178001 0.012815369 0.16510181 0.13994355 -0.0099502355 -0.01875048 -0.043155715 0.1256696 -0.048251003 0.06114543 0.15295863 -0.04365505 -0.072753035 0.16492365 0.17123191 -0.004325712 -0.014565809 0.08456343 -0.0071407375 0.03910963 0.029591996 0.12397168 -0.17537639 0.20773596 0.037768874 0.029572051 0.051397543 0.035993688 0.2576169 -0.05631985 -0.021288145 0.03781118 -0.0750716 -0.14487724 0.0010443912 0.087487094 -0.17643622 0.20418791 -0.083395 -0.058638558 0.030611936 0.12687361 0.09081932 0.07402913 0.2051229 -0.023517769 0.034059387 0.03570359 0.03907505 0.032790888 0.12767662 -0.028313939 -0.053429436 -0.019335331
그래야 -0.030906305 0.042833705 -0.059215482 -0.043957174 0.016700448 -0.101669654 0.0026664461 0.1271384 0.005956617 -0.032791585 0.041711442 -0.11159825 0.0020904928 0.0410872 0.048718486 -0.045001626 0.06647083 -0.06712535 -0.0062759886 -0.16221896 0.02730277 0.013152882 -0.016266782 -0.061595608 -0.021151029 0.021681845 -0.016295092 -0.020225149 -0.09790018 0.000928193 0.056192297 -0.0126134055 0.07572732 -0.11169471 -0.01997997 0.051028863 0.006420329 -0.023133252 0.0018331448 -0.052613094 0.021881923 -0.055071123 0.026860334 -0.049835775 0.042662773 -0.07367599 -0.03217621 0.0047507472 0.07755871 0.07240543 0.005074194 -0.020001845 -0.010997968 0.049293436 -0.033264454 0.024262372 0.079150006 -0.016347537 -0.03980983 0.09280054 0.089187466 -0.007718884 -0.0078163585 0.034936402 -0.0077566337 0.0318057 0.002635897 0.070122704 -0.082026266 0.09946585 0.0137943495 0.015074578 0.020257035 0.008390857 0.14127992 -0.03290705 -0.009997278 0.023827642 -0.03555934 -0.086084 -0.003885643 0.04759699 -0.08668167 0.09905113 -0.044871632 -0.023230575 0.022986965 0.062494088 0.049301155 0.029759895 0.11637035 -0.016713466 0.020547504 0.023218565 0.02448507 0.020910896 0.06846019 -0.021096662 -0.020475043 -0.018271707
그게 -0.07303588 0.1081359 -0.10044749 -0.0992256 0.02387122 -0.19606389 0.0013164174 0.25405937 0.03598579 -0.06534316 0.0904436 -0.21996891 0.0023916694 0.08524206 0.0771005 -0.0927035 0.13205089 -0.15763517 -0.00847568 -0.34690663 0.045645196 0.021223538 -0.014977018 -0.11932185 -0.056333937 0.052069187 -0.025952062 -0.02551709 -0.19611359 -0.018486978 0.11963097 -0.034461558 0.16641521 -0.20849839 -0.025859496 0.1015906 0.039303433 -0.045908153 0.017212871 -0.105177 0.044584922 -0.114540115 0.04552645 -0.1040131 0.09937609 -0.16626307 -0.08210309 0.024127036 0.18189105 0.14857188 -0.006973209 -0.022254677 -0.04383356 0.11551915 -0.056505445 0.056115977 0.1644847 -0.042325415 -0.09955048 0.1724461 0.18332304 -0.006525024 0.005416738 0.099819615 -0.02107241 0.039768547 0.030358626 0.14587484 -0.17477076 0.22547853 0.054730643 0.038987122 0.05410569 0.037756816 0.29323286 -0.040667463 -0.023686886 0.03507729 -0.06734431 -0.16179451 0.0024171073 0.09835722 -0.17887114 0.20274104 -0.09341168 -0.0637709 0.053136192 0.13933739 0.0898357 0.07911444 0.23646466 -0.002061786 0.057950567 0.0388844 0.062853254 0.038731113 0.13244368 -0.02807066 -0.052431263 -0.026684927
이름 -0.05587667 0.089094296 -0.09049452 -0.0854012 0.024297692 -0.1475127 -0.0048054 0.19644226 0.01778307 -0.046439897 0.07203087 -0.1614161 0.008572862 0.05481936 0.061257005 -0.07383914 0.1092364 -0.123694226 -0.00022547846 -0.27682585 0.034149665 0.020373585 -0.013281374 -0.10526755 -0.0504301 0.035805486 -0.019501822 -0.02650548 -0.14132634 -0.007495409 0.09850337 -0.02109557 0.118166916 -0.17603868 -0.014754724 0.08387127 0.013882689 -0.034490086 0.013546455 -0.08576298 0.044216674 -0.08116896 0.026754458 -0.08358442 0.08642644 -0.1201513 -0.06393348 0.01381552 0.12281003 0.10111806 -0.008066134 -0.01901688 -0.02749955 0.10262379 -0.034410994 0.04663939 0.11039269 -0.021728953 -0.075483665 0.14618108 0.14040853 -0.011582579 0.0067700916 0.06516072 -0.01726795 0.031875253 0.025401093 0.112544686 -0.1351656 0.16949284 0.030355196 0.040913634 0.032718394 0.021609785 0.20891649 -0.02914324 -0.013348108 0.028348101 -0.048216432 -0.13536178 -0.0006654972 0.07299201 -0.14984193 0.1658718 -0.070044726 -0.048691273 0.03661961 0.11006387 0.069912374 0.06761222 0.16537482 -0.012756137 0.048516344 0.031552672 0.047015045 0.01869575 0.1036858 -0.017815039 -0.023419857 -0.023374341
오 -0.029916732 0.06337873 -0.0733711 -0.06961495 0.021467693 -0.12037023 0.012258645 0.1488326 0.0116201695 -0.023859333 0.06087331 -0.13533312 -0.0008763772 0.04697878 0.048337195 -0.04999628 0.08604414 -0.09464804 -0.006920564 -0.22060658 0.02499191 0.025089288 -0.018162802 -0.0836298 -0.044251263 0.03557835 -0.0018491606 -0.020993741 -0.1152726 -0.009542933 0.091870844 -0.027007451 0.10844906 -0.1392927 -0.0058826436 0.07244699 0.027328163 -0.024115268 0.010241723 -0.071227126 0.04338612 -0.08194461 0.018267676 -0.058127332 0.06135596 -0.08950075 -0.056646492 0.022703167 0.10957671 0.07704235 0.0014426348 -0.020839661 -0.01858766 0.083206326 -0.043241568 0.046570208 0.103973344 -0.014032154 -0.063177295 0.10208136 0.10080375 -0.0029763533 -0.0044307876 0.060889687 -0.0035148517 0.035903465 0.014859597 0.08381676 -0.10991199 0.13722286 0.01969456 0.020647502 0.030908277 0.02518366 0.17494106 -0.040509757 -0.009375838 0.031771723 -0.037931435 -0.096345276 -0.0031462347 0.05083881 -0.1177248 0.12242975 -0.066830635 -0.035690382 0.031036546 0.08748421 0.058301143 0.057800457 0.1344391 0.0016814601 0.027009675 0.020713907 0.03332617 0.013055012 0.07914262 -0.024766177 -0.015789578 -0.012864838
았 -0.09805552 0.18145019 -0.15037455 -0.16980511 0.051508598 -0.28849515 0.016974388 0.38370353 0.03560479 -0.0714098 0.13171019 -0.33517388 0.008985749 0.1156308 0.13117394 -0.15671705 0.2081755 -0.22847675 -0.0073001445 -0.5409495 0.09327435 0.046055052 -0.035926245 -0.19709611 -0.103592135 0.057452425 -0.017148461 -0.038596448 -0.29241773 -0.015021564 0.20812918 -0.0658992 0.24972147 -0.32653266 -0.045372847 0.15448926 0.06285884 -0.05642257 0.035374913 -0.15093322 0.08208885 -0.18616511 0.060547907 -0.15004085 0.15063702 -0.23772663 -0.10625912 0.032016512 0.25175533 0.21990445 0.00638057 -0.045656573 -0.055357505 0.18134263 -0.07456312 0.10138998 0.23964882 -0.055327885 -0.14332391 0.2589403 0.2549199 -0.008208567 0.0028000092 0.12329641 -0.014266911 0.06971083 0.043829277 0.21512763 -0.28370103 0.32650238 0.070529535 0.06919795 0.086815774 0.03657795 0.4322287 -0.06308188 -0.027569657 0.06487966 -0.11042114 -0.24758883 0.00094950525 0.13002436 -0.28902096 0.327755 -0.14552417 -0.073035054 0.052888643 0.19417746 0.14432491 0.13061763 0.34750792 -0.014253018 0.08516364 0.040911343 0.108409114 0.031536166 0.1942026 -0.047742177 -0.0483177 -0.04895302
참 -0.05820751 0.11031095 -0.10544114 -0.11371303 0.021370636 -0.19528584 0.0078780735 0.25487125 0.026020749 -0.04793467 0.077611685 -0.20064232 0.005990162 0.07678407 0.07525012 -0.087216355 0.13676818 -0.15707152 -0.013878216 -0.3621845 0.05027165 0.038066246 -0.02197144 -0.12890628 -0.05936069 0.048639167 -0.026804492 -0.020643063 -0.19577624 -0.005362321 0.12259387 -0.030780971 0.15649332 -0.2219581 -0.029139701 0.095284164 0.03273039 -0.038616944 0.024081536 -0.10223663 0.05058525 -0.12836497 0.046539526 -0.09717133 0.11007489 -0.15148793 -0.08255382 0.027051536 0.16539939 0.14276855 -0.009106877 -0.024533888 -0.03646402 0.11939901 -0.05780388 0.061851706 0.15588279 -0.027386393 -0.09946439 0.17982435 0.17360409 -0.024324346 -0.0056776595 0.09501709 -0.004927236 0.05376863 0.029567448 0.1404737 -0.18450004 0.21511622 0.05526235 0.05194549 0.057434026 0.0370099 0.28308535 -0.046743706 -0.023437873 0.048645873 -0.059584502 -0.16668352 0.0049634697 0.095478885 -0.18404096 0.21674137 -0.087105796 -0.06169319 0.056643154 0.1413321 0.086688526 0.08008565 0.23636366 -0.006294915 0.04069368 0.026183447 0.05618573 0.02787726 0.13218768 -0.03468887 -0.03909493 -0.01720044
남 -0.10186177 0.20015785 -0.17067447 -0.17002732 0.062719375 -0.31165496 0.011303662 0.4233507 0.042582653 -0.07625852 0.14018103 -0.3424113 -0.0024612264 0.1305558 0.14358251 -0.16733007 0.22583118 -0.24010012 0.00895813 -0.58341265 0.0832522 0.05975013 -0.03843707 -0.21248887 -0.092605755 0.056894153 -0.031367023 -0.057043068 -0.31039888 -0.012993993 0.20868091 -0.06493756 0.28472033 -0.35599405 -0.03442988 0.16900249 0.055151086 -0.07106034 0.045552418 -0.16601326 0.101554 -0.19675969 0.071408354 -0.1646472 0.1616369 -0.25444838 -0.13145056 0.039748512 0.28066683 0.2228657 0.0011833243 -0.027046986 -0.076862425 0.20804773 -0.07628203 0.10139006 0.26767159 -0.03931808 -0.1352947 0.2857351 0.28172666 -0.01043232 -0.0005263136 0.13383877 -0.026338529 0.05767208 0.03903834 0.22212993 -0.30166614 0.35225406 0.084069714 0.077166714 0.09086385 0.052950673 0.47349516 -0.08508341 -0.011960628 0.05834765 -0.13430928 -0.27398637 0.0010944922 0.16128822 -0.30138308 0.33693784 -0.15283439 -0.09428682 0.06253964 0.22843489 0.15592343 0.13139927 0.37542102 -0.023646902 0.071769364 0.05450247 0.11580227 0.04515971 0.21930449 -0.04723963 -0.058000628 -0.05598184
얼마나 -0.101818316 0.19985998 -0.17699872 -0.18199739 0.054713365 -0.31588227 0.016165657 0.4363464 0.056126814 -0.0828437 0.14316419 -0.36556014 -0.0010909664 0.13164751 0.13788855 -0.15707378 0.23346564 -0.25712025 0.0016950325 -0.5957611 0.09226877 0.058898702 -0.016012102 -0.21862866 -0.10785053 0.07054933 -0.014211227 -0.037542056 -0.31892496 -0.00933774 0.23416337 -0.07479225 0.29106703 -0.3569418 -0.04498756 0.17108826 0.06997021 -0.07273117 0.044107918 -0.17246854 0.082313575 -0.19147514 0.06176185 -0.16841096 0.17111796 -0.25234777 -0.11841741 0.020888234 0.2898202 0.22266026 -0.006148657 -0.026649255 -0.077063926 0.21540628 -0.089871384 0.09521323 0.28121638 -0.04831763 -0.13956796 0.30284885 0.29207832 -0.017512385 -0.010675231 0.15421045 -0.03084413 0.07122792 0.033543695 0.22602801 -0.29636973 0.3616721 0.06757709 0.06428423 0.0767199 0.06315182 0.46468645 -0.08401484 -0.03099322 0.055868786 -0.13239743 -0.26319206 0.009907798 0.15799262 -0.29713038 0.35444254 -0.14619994 -0.084759474 0.07172259 0.22461532 0.14169922 0.13117772 0.3850092 -0.035505034 0.08854653 0.041913785 0.11715336 0.040721484 0.22064634 -0.04846913 -0.055093046 -0.055863462
어야 -0.08021067 0.13683067 -0.12378101 -0.1238325 0.04241467 -0.21412286 0.020277679 0.30021238 0.04228921 -0.07333896 0.10493249 -0.22839871 0.00051115896 0.09242754 0.08880482 -0.11224172 0.16799319 -0.17175843 -0.003334857 -0.40902463 0.07001118 0.03101703 -0.023381762 -0.14407538 -0.05485442 0.041446235 -0.015228797 -0.038034786 -0.22703326 -0.019632835 0.14030075 -0.03541854 0.18665291 -0.25670224 -0.02604035 0.12085314 0.05299368 -0.052273795 0.021029178 -0.11566673 0.060179453 -0.13645835 0.054528214 -0.118950285 0.1280656 -0.17719454 -0.09296524 0.033737928 0.20697752 0.1576032 -0.0033801366 -0.021945793 -0.05265423 0.14629163 -0.064542145 0.06684669 0.1874975 -0.045032583 -0.09973028 0.19048631 0.20283774 -0.0059475796 0.0070323627 0.092700236 -0.023851426 0.06292847 0.029081333 0.15705432 -0.2165697 0.24273628 0.04071045 0.05446337 0.05431146 0.03750069 0.3277604 -0.05309341 -0.023454227 0.046124544 -0.092412874 -0.18846092 0.00398116 0.11049471 -0.21962172 0.24088594 -0.09667613 -0.050603393 0.060447693 0.14446057 0.10689772 0.100497976 0.26494983 -0.011217302 0.05449569 0.043278825 0.0756837 0.04186428 0.14647816 -0.04324534 -0.038407173 -0.04038464
겠다 -0.06647427 0.11814999 -0.11142896 -0.11592994 0.03171497 -0.21512182 0.013111932 0.26106748 0.025370393 -0.051587123 0.09162767 -0.21369328 0.00596235 0.07188538 0.096942075 -0.10262868 0.13968268 -0.14895761 -0.006495776 -0.36326295 0.059930447 0.03476927 -0.008035372 -0.121806294 -0.061798714 0.040153578 -0.013066211 -0.044465516 -0.18712142 -0.009821506 0.14512898 -0.034530684 0.17372198 -0.22613446 -0.030855117 0.116649464 0.042632822 -0.03341004 0.013958863 -0.115079224 0.06829543 -0.12105437 0.036226694 -0.11720653 0.1013356 -0.16073711 -0.09547822 0.024524203 0.18371779 0.13177232 -0.0031156116 -0.03435391 -0.046623804 0.12655857 -0.06908531 0.06462053 0.1554842 -0.04534591 -0.091705985 0.1858385 0.19321975 -0.0013736003 -0.0076360754 0.082342505 -0.0040013897 0.054746434 0.030876089 0.13860181 -0.19716895 0.21746945 0.036956888 0.055082362 0.05146515 0.043211214 0.2888158 -0.03870226 -0.01893417 0.050730675 -0.08325694 -0.17716578 0.011150405 0.08009713 -0.20380116 0.22254087 -0.10906279 -0.05166152 0.053384032 0.1303626 0.099183545 0.0847315 0.24865045 -0.008456665 0.045934305 0.034091305 0.07247797 0.020999486 0.14817202 -0.03202516 -0.046813495 -0.03510338
에 -0.052922796 0.08953912 -0.09343405 -0.10166558 0.037989855 -0.17713162 -0.002288862 0.2305267 0.03771816 -0.04282182 0.07630738 -0.18590665 -0.006127524 0.06824492 0.06747021 -0.083982915 0.115250714 -0.14132094 -0.01149648 -0.31043062 0.052217036 0.0338666 -0.010148909 -0.112867214 -0.048904683 0.041774604 -0.018287843 -0.028361892 -0.17093095 -0.0032591934 0.11047579 -0.033606302 0.1550288 -0.19862992 -0.03139696 0.09516505 0.02729621 -0.031897247 0.011198113 -0.08031225 0.050599065 -0.10459834 0.037737556 -0.090428025 0.09546481 -0.15129739 -0.06694786 0.0120236715 0.16491379 0.12790762 -0.0088531645 -0.02372089 -0.040725335 0.120741 -0.038266633 0.058843512 0.15332167 -0.033740193 -0.07769021 0.15460862 0.14983496 -0.01528907 -0.0012321173 0.07488333 -0.020133642 0.039209217 0.019518524 0.114459574 -0.15382439 0.19594605 0.029662115 0.036627773 0.03987937 0.036811847 0.2514918 -0.03646401 -0.0064610103 0.030743076 -0.0750757 -0.1519181 0.011808529 0.08104834 -0.16863106 0.18673754 -0.09292377 -0.046028614 0.028756225 0.12997626 0.073555745 0.07936404 0.20099397 -0.012902632 0.04248273 0.029659517 0.058208615 0.02645152 0.11634888 -0.016052855 -0.04264478 -0.035589576
였 -0.059568662 0.09635638 -0.09042857 -0.096450225 0.031246606 -0.16720647 0.007651817 0.21626015 0.036030218 -0.046383552 0.07548494 -0.16410089 0.017894045 0.062633544 0.06865165 -0.08375324 0.10458659 -0.12163667 -0.00054440077 -0.29077646 0.05065486 0.01531692 -0.016582698 -0.11562551 -0.038159903 0.038935162 -0.014613254 -0.018505318 -0.15261167 -0.021292033 0.09722544 -0.03511746 0.12883827 -0.16934192 -0.013051062 0.08315783 0.024594959 -0.03502387 0.021319285 -0.08564273 0.04184521 -0.10240246 0.031053513 -0.093607 0.08553868 -0.13750073 -0.05631331 0.00881401 0.13292682 0.112617165 -0.010694595 -0.012068902 -0.03576387 0.101980746 -0.03541861 0.054088175 0.12765367 -0.017388918 -0.07454167 0.15099175 0.15064622 -0.018578738 0.0014672736 0.06301029 -0.013007525 0.046332825 0.01551259 0.10377355 -0.14231966 0.18370451 0.044835858 0.027394848 0.05122542 0.036377165 0.22195648 -0.04196788 -0.010634467 0.020656478 -0.061086684 -0.118589856 -0.0028710947 0.064274885 -0.15621544 0.15445833 -0.07317468 -0.036755003 0.037727877 0.10562384 0.08521765 0.053635404 0.17854798 -0.020399561 0.050526 0.025850294 0.04096228 0.013321214 0.11576862 -0.026414068 -0.042529203 -0.019914858
한 -0.057473484 0.09904622 -0.076161824 -0.08786507 0.017342785 -0.1482918 -0.00599803 0.1990641 0.03043634 -0.03417327 0.058335133 -0.15989588 0.00015266724 0.072258525 0.07035276 -0.07311574 0.0976291 -0.111126885 -0.004292686 -0.26917973 0.032913275 0.019288441 -0.013760909 -0.095059335 -0.056674443 0.029104665 -0.017566567 -0.027926601 -0.13779962 -0.009075251 0.09895486 -0.036802586 0.11728923 -0.16179319 -0.022364946 0.06515837 0.031635888 -0.020696996 0.019486777 -0.078831 0.04406441 -0.082079925 0.02435961 -0.09101426 0.06449407 -0.12018937 -0.07060005 0.014569973 0.14246848 0.10984938 -0.014134441 -0.0093656685 -0.027104987 0.08651053 -0.031445764 0.057886183 0.12907892 -0.031328045 -0.064176336 0.13275525 0.1283159 -0.008093239 -0.0048452634 0.06978135 -0.015403304 0.025178742 0.015646473 0.09985644 -0.1401862 0.17655414 0.03757204 0.02125452 0.029885115 0.0202388 0.2132493 -0.04433195 -0.00078734057 0.035921384 -0.06401368 -0.11649732 -0.0019548628 0.062344633 -0.14345035 0.17012045 -0.077924676 -0.0502758 0.032557376 0.10905312 0.07550671 0.053525116 0.16415225 -0.009217875 0.04104456 0.028072959 0.04542936 0.016542727 0.0987579 -0.0109459385 -0.033660185 -0.011197748
많이 -0.03002362 0.06581514 -0.057395972 -0.051733322 0.016390717 -0.10334249 0.013268266 0.13260339 0.0223217 -0.028699568 0.056050416 -0.10076378 0.0022935856 0.04584229 0.04690903 -0.040311527 0.06922073 -0.07297629 -0.0063303616 -0.18143563 0.017992985 0.011550081 -0.010870252 -0.06288009 -0.031301603 0.022956334 -0.0015359037 -0.023448652 -0.08742053 0.0016674984 0.07007652 -0.018678341 0.083818845 -0.10767351 -0.020360116 0.043144092 0.018644297 -0.018733233 0.01230449 -0.05373436 0.032157715 -0.06111924 0.026919406 -0.054151557 0.046514995 -0.0772465 -0.04239913 0.0072238124 0.083309256 0.07854972 -0.012039031 -0.0058932807 -0.024207106 0.0709336 -0.021599064 0.034289207 0.07787746 -0.017297631 -0.049794495 0.08817558 0.09348901 -0.016971445 0.0017187877 0.04920836 0.0009154213 0.017857105 0.01660464 0.058035836 -0.090032786 0.11653679 0.026932176 0.015665978 0.023512388 0.006765885 0.1405259 -0.01919492 -0.0123906685 0.025292523 -0.041288156 -0.07572682 0.0042830403 0.048053276 -0.093528464 0.09447883 -0.05234247 -0.026702255 0.012083432 0.07636255 0.049142357 0.039471373 0.121264525 -0.009369306 0.025596276 0.017462982 0.035910483 0.01703614 0.063201495 -0.01651321 -0.02856053 -0.0069672056
내일 -0.051944893 0.107322864 -0.09144017 -0.11079226 0.038588002 -0.18043116 0.0061390856 0.226996 0.039979417 -0.055725854 0.08435823 -0.19645499 0.003270359 0.08328434 0.063844286 -0.07379295 0.112019196 -0.12578435 -0.012968178 -0.32344496 0.03909031 0.030526053 -0.016438521 -0.117248125 -0.06276103 0.0484857 -0.008654167 -0.036837615 -0.17718077 -0.0017119875 0.119817056 -0.044840667 0.1542249 -0.20149487 -0.020727554 0.09732363 0.026076905 -0.03165267 0.023633374 -0.094966024 0.053674895 -0.10265216 0.026592089 -0.09798801 0.10060308 -0.13987175 -0.06101451 0.01699577 0.166081 0.11774569 0.002729563 -0.03062973 -0.0328288 0.12213096 -0.05348761 0.06603408 0.13347049 -0.030892175 -0.07742108 0.1554762 0.1683512 -0.01831866 -0.0023960143 0.09330863 -0.0048437626 0.03936802 0.029814076 0.11261288 -0.16486123 0.1998173 0.039498523 0.043494806 0.05465477 0.024204625 0.2525699 -0.036593962 -0.019249424 0.02666494 -0.065865874 -0.15518609 0.0023694187 0.082570024 -0.17658181 0.18681534 -0.08810944 -0.052264165 0.04107684 0.12576857 0.079024695 0.079480425 0.20418705 -0.0038952313 0.047278225 0.03390092 0.062156823 0.022350192 0.12001521 -0.029483326 -0.034429535 -0.030821744
흐려 -0.05303209 0.096295826 -0.088731475 -0.08409583 0.023310922 -0.15157342 0.002956792 0.19069189 0.03505382 -0.032874543 0.05832221 -0.17489186 0.0086307805 0.06619175 0.05955421 -0.067713365 0.09913996 -0.123314105 0.0037092185 -0.2806317 0.037640527 0.030744558 -0.0036048186 -0.10950522 -0.055681624 0.032970168 -0.0048420387 -0.02887397 -0.14457783 -0.010900381 0.10935209 -0.029813828 0.13871558 -0.15996431 -0.03045447 0.08514138 0.01697412 -0.03809732 0.02004648 -0.07605722 0.049745355 -0.104039825 0.042320486 -0.09219007 0.068637 -0.12629172 -0.066638894 0.01811256 0.13033774 0.10386587 0.00325009 -0.021873657 -0.023030916 0.09630413 -0.042077336 0.05376755 0.13366376 -0.028736997 -0.08472683 0.13911495 0.1486896 -0.0034824417 -0.0059942636 0.07538481 -0.001853313 0.025670156 0.017589383 0.1059651 -0.15001352 0.16600782 0.041947246 0.02803957 0.035961933 0.02724501 0.23269685 -0.030857278 -0.016855713 0.030625366 -0.047075767 -0.12640406 -0.0030797797 0.0630007 -0.15619983 0.17159514 -0.072569095 -0.052308574 0.042384863 0.105167024 0.07120474 0.059598092 0.1829819 -0.0069230283 0.041675523 0.020982958 0.042599786 0.021287957 0.098373964 -0.020309784 -0.02307708 -0.020047622
떨어지 -0.0402302 0.08962831 -0.07790475 -0.08085817 0.030217167 -0.14116926 -0.0031188303 0.19619472 0.019493444 -0.040301636 0.05628656 -0.16864818 0.0029233764 0.06967825 0.059265703 -0.07091221 0.09642859 -0.10708008 0.005609907 -0.25588378 0.03971609 0.01170475 -0.0011951189 -0.10197512 -0.042901892 0.037064314 -0.0022719416 -0.025310384 -0.14692612 -0.0115546435 0.10255011 -0.02637326 0.124305665 -0.15104593 -0.018403808 0.06874812 0.034445476 -0.034642115 0.010831976 -0.06782041 0.035899695 -0.082622014 0.02522804 -0.090229474 0.06302092 -0.11622163 -0.05282139 0.022515556 0.13243262 0.10899987 -0.0035301065 -0.025933752 -0.018288437 0.08674674 -0.031278644 0.04610604 0.11887699 -0.027792085 -0.061493937 0.12663573 0.13593195 -0.009628181 -0.00017176839 0.062249642 -0.01838366 0.022310274 0.011714162 0.09897088 -0.14197162 0.17310306 0.03724004 0.02349287 0.03465064 0.017311798 0.20381227 -0.03602349 -0.012690302 0.03879373 -0.047787875 -0.12130011 0.011154209 0.060298834 -0.15117787 0.15934996 -0.07605694 -0.04833186 0.036709603 0.09046012 0.06610052 0.06338773 0.17154908 -0.009498397 0.03595949 0.03310456 0.045085356 0.018133434 0.09162568 -0.025974205 -0.033425733 -0.023986563
안녕 -0.04783817 0.06628808 -0.06876192 -0.06867718 0.017980414 -0.117616735 0.011739699 0.15839706 0.028336922 -0.025925009 0.056783803 -0.12621076 0.0067287916 0.050547693 0.06055447 -0.06638224 0.081615 -0.08598168 0.0061643673 -0.22034597 0.04318429 0.022730405 -0.014210234 -0.06870704 -0.04169433 0.031120265 -0.019429978 -0.025717163 -0.10999912 -0.0065300786 0.07122151 -0.024969388 0.09272801 -0.12533164 -0.008006535 0.058607455 0.02624738 -0.024773123 0.016488817 -0.05739513 0.024955783 -0.07111474 0.019732354 -0.052318923 0.054946892 -0.08417408 -0.04934648 0.020405026 0.10852226 0.09383676 0.00025660644 -0.013342736 -0.021405714 0.070934504 -0.033965632 0.044060867 0.10569696 -0.0101753585 -0.052621007 0.11250712 0.104675114 -0.0047752215 -0.0052269287 0.047844682 -0.01731494 0.031787757 0.005524362 0.093280494 -0.11535115 0.12985764 0.017940827 0.033028603 0.039600734 0.020150231 0.16946189 -0.035021875 -0.016308393 0.035599273 -0.052412722 -0.09394681 0.004917043 0.06368196 -0.111773744 0.13032001 -0.050913665 -0.024936859 0.017603375 0.07681528 0.05752845 0.04779962 0.14352164 -0.008906389 0.027053341 0.024275908 0.040741805 0.026786324 0.08624356 -0.013775937 -0.023015687 -0.02852182
배고프 -0.009863618 0.022926882 -0.022210382 -0.025781916 0.016340991 -0.040857114 0.010923942 0.06282178 0.0022120387 -0.018646294 0.013250323 -0.049080182 0.009573984 0.027930742 0.017910704 -0.022751855 0.02605283 -0.029891433 0.004842318 -0.084682755 0.023303578 -0.002211785 -0.012579715 -0.022152513 -0.008731465 0.0014478803 0.0039034428 -0.012235727 -0.044303294 0.0006098367 0.022279706 -0.0022663793 0.03488402 -0.05860156 0.00043032324 0.03152632 0.015585501 -0.005210901 0.0060856356 -0.03266564 0.011994535 -0.03001573 0.0133320615 -0.017399073 0.032065865 -0.03903029 -0.025208244 0.012216094 0.050660096 0.02759949 0.003015889 0.0015708302 -0.00964672 0.034122415 -0.019745165 0.005966004 0.031930484 -0.015661351 -0.030993046 0.047747843 0.03692133 0.0037334296 0.00057664077 0.020107955 -0.0129293045 0.006307658 0.008550334 0.04258979 -0.046489246 0.059732 0.0075451075 0.02048714 0.011349498 0.000868389 0.07219725 -0.011844213 0.0043805433 0.0016663568 -0.014837878 -0.034967046 0.00888822 0.019654242 -0.048902113 0.042344037 -0.017677154 -0.019664932 0.017959556 0.040709566 0.028415296 0.026890354 0.04991516 0.006222987 0.00417908 0.015825782 0.010156812 0.0077262865 0.030206686 -0.0061485814 -0.002464745 -0.004784258
